sent_0 -0.497842 0.173061 -0.552985 -0.212412 0.613394 -0.237784 0.133074 0.561531 -0.094023 0.026987 0.116027 0.158402 -0.085391 0.158910 -0.356629 0.661988 0.532644 -0.040356 0.000126 -0.457555 0.104286 -0.003730 0.621758 -0.702635 0.466191 -0.227078 -0.214768 0.090203 0.588417 -0.227305 0.198860 -0.398605 0.150991 -0.189095 0.064472 -0.087407 0.096053 -0.079898 -0.084245 0.205813 -0.438989 -0.471183 0.188042 -0.758184 -0.075040 0.314482 -0.460798 -0.319712 0.303754 0.061876
sent_1 0.388476 0.680850 -0.045184 0.070607 0.298039 0.124361 0.432268 0.704736 -0.005517 0.333354 0.204148 0.403527 -0.104272 -0.449726 -0.418022 0.526802 0.111351 0.132235 -0.445286 0.187843 0.317545 -0.441801 -0.170191 -0.291611 0.636134 0.149956 0.296774 0.521998 -0.162695 0.095715 -0.318032 -0.413020 -0.197738 -0.104500 -0.079743 -0.282506 -0.286735 0.623427 -0.453460 0.549296 0.234584 -0.035037 -0.190126 0.042612 0.373795 -0.476143 -0.039483 0.161880 0.306743 -0.256934
sent_2 -0.241567 0.122327 -0.215340 0.165074 0.834522 0.327005 0.810556 0.400407 -0.513154 0.144116 -0.381281 -0.158544 -0.846442 -0.373387 0.006834 -0.168936 0.189467 -0.127895 -0.101489 0.077980 0.597642 -0.733158 -0.126658 -0.814162 0.593582 0.357074 0.393156 0.026225 -0.095145 0.266202 -0.503129 -0.264588 0.282342 -0.275601 -0.341830 -0.232868 0.099042 0.719836 -0.489430 -0.019212 0.339389 0.123191 0.547074 0.181597 0.601037 -0.283548 0.104065 0.583017 1.062296 0.104664
sent_3 0.163248 0.070296 -0.413283 -0.155214 0.267834 0.015772 -0.468730 0.252433 0.019113 -0.611618 0.225931 -0.191451 0.211221 -0.184585 -0.571220 0.471943 -0.281075 0.193396 -0.007042 -0.000206 -0.106328 0.220226 0.082841 -0.360532 0.214358 -0.190052 -0.050133 -0.285259 0.020685 0.365679 -0.005973 -0.272851 -0.193466 0.018978 0.070921 0.176755 -0.370003 0.412246 -0.447381 0.165298 -0.322922 0.080994 0.298990 -0.184591 0.139840 0.461570 0.183851 0.292813 0.829378 0.107418
sent_4 -0.220922 0.317347 0.113923 0.012904 0.344885 -0.206825 -0.300151 0.193544 -0.206657 0.178958 -0.193539 0.307971 0.521726 0.064215 -0.279424 0.561445 -0.297792 -0.015864 -0.314274 -0.357323 -0.454411 0.298284 -0.060925 -0.553659 0.533522 0.183819 0.329679 0.647069 -0.093504 0.133569 0.389529 -0.840715 0.034825 -0.147073 0.919890 0.149282 -0.324473 0.529235 0.222843 0.028614 -0.274418 -0.690626 0.471560 0.084110 0.332046 0.493883 0.277447 -0.096347 0.139348 0.265670
sent_5 -0.160962 0.193504 -0.584112 -0.188048 0.371588 -0.461815 -0.098065 -0.045127 -0.643649 0.415183 -0.501908 -1.059193 0.337368 -0.088053 0.086513 -0.323692 -0.096368 0.274638 0.436202 -0.184436 0.918572 0.390767 0.221541 -0.497480 0.251861 0.377152 0.505971 0.185752 -0.295749 0.044419 -0.693578 0.333239 0.548718 0.092679 0.480737 0.218790 -0.742517 -0.238922 0.515605 0.265730 -0.350584 0.023077 0.129263 -0.055405 -0.252473 -0.629794 -0.291925 -0.186108 0.333650 -0.204522
sent_6 -0.468098 0.003778 0.720683 -0.217656 0.382819 -0.046602 -0.015920 0.732850 0.815545 0.303279 -0.243045 0.035441 0.299062 -0.036414 -0.082805 0.256445 -0.304357 -0.052580 -0.118401 -0.338580 0.565052 0.040809 -0.439072 -0.051332 0.505941 -0.038527 -0.325330 -0.100946 0.053909 0.035632 0.005043 0.086200 0.163961 0.199224 -0.336160 -0.255606 -0.446046 0.293566 0.394589 0.134960 0.137212 0.255488 0.865555 -0.246695 0.524157 0.063779 0.505944 0.476892 0.195234 0.296800
sent_7 -0.260985 -0.080360 0.542258 -0.002959 -0.268633 0.210640 -0.098479 0.475818 0.066394 -0.058512 -0.058942 0.039448 -0.259334 -0.027612 0.438309 0.115967 -0.286526 -0.400315 -0.025107 -0.150756 -0.010934 -0.373782 -0.538897 -0.278535 0.171447 -0.524571 0.302378 0.404196 0.053370 0.304985 -0.511884 -0.270938 -0.289817 0.063114 -0.251078 -0.326029 -0.258291 0.398662 0.115098 -0.179872 0.256074 0.190612 -0.337986 0.080072 0.629352 -0.507965 -0.074787 -0.240275 0.285057 -0.273392
sent_8 -0.068913 -0.337155 0.243943 -0.421664 -0.224827 0.134521 0.013595 0.617804 0.350420 0.236002 -0.626474 0.334324 0.956194 -0.390717 0.542910 0.235499 0.440376 -0.235409 1.026860 -0.807516 0.712776 -0.523388 -0.761353 0.148135 0.228213 0.366824 -0.418806 -0.320290 0.091445 0.250262 -0.087892 -0.272598 -0.346177 -0.390290 0.045538 -0.006505 0.041803 0.932278 0.227898 0.477170 0.234057 0.326132 0.288131 -0.353053 0.428220 0.528551 0.218043 0.486177 0.378279 0.475978
sent_9 0.454309 0.188760 -0.009535 -0.618552 0.390060 0.432123 0.150770 0.203184 -0.182907 0.109356 -0.178482 0.312394 -0.105160 0.448131 -0.303305 0.006397 -1.013959 0.102446 -0.895277 0.234534 -0.168638 -0.046544 -0.222350 -0.169717 0.661715 0.654900 0.378627 0.224760 0.089688 -0.287973 0.497914 -0.290445 0.029284 -0.412826 0.231183 0.160011 -0.166591 0.638762 -0.482634 0.265265 0.289012 -0.350367 0.059289 0.225481 0.094081 -0.064385 -0.115956 0.490915 0.207266 -0.304547
sent_10 0.224368 -0.541234 -0.148191 0.104662 0.117908 -0.089686 -0.227237 1.126551 -0.651145 -0.115677 -0.176253 0.326141 0.034517 -0.108831 -0.527303 0.688268 0.193863 0.267389 -0.087844 -0.388434 0.046969 -0.782654 0.087114 -1.164498 0.543115 0.207717 -0.342042 0.471123 0.324612 -0.121084 0.359979 -0.705862 -0.353379 0.043623 -0.366096 -0.349433 -0.509176 0.807370 -0.265235 -0.346017 -0.272503 0.599578 0.623084 -0.128117 0.240588 0.074630 0.239595 0.484679 0.707375 -0.140696
sent_11 0.838512 1.299787 -0.259425 0.091908 0.128495 0.065345 0.552465 0.248887 -0.415230 1.511405 -0.559676 0.502179 -0.736275 0.782099 -0.435932 -0.157864 -0.139902 0.185561 -0.458223 0.121286 0.661059 0.794340 0.981041 1.193246 -0.288337 0.008474 -0.161121 1.245138 0.064723 1.043140 -0.955361 -0.909130 -0.018993 0.844007 -0.167201 0.419998 -0.518133 0.326920 -0.529440 -0.785509 -0.347879 -0.200532 -0.351331 -0.032488 0.072076 -0.207593 -0.896113 -0.301500 0.357921 0.174448
sent_12 0.230141 0.120338 -0.048782 -0.115864 -0.140340 -0.132379 0.652814 0.045113 0.736912 -0.011691 -0.630477 0.145095 -0.169688 0.645007 0.014449 0.782440 -0.998324 -0.299268 -0.520133 0.125164 -0.106964 0.029190 -0.344848 -0.035015 0.335494 -0.162593 0.032556 1.021854 0.125754 0.458292 -0.457598 -0.294447 -0.073447 0.017169 -0.064056 -0.284432 -0.021063 0.307322 -0.189166 -0.382193 0.371301 -0.076956 -0.088733 0.426341 0.320413 -0.016178 0.058251 0.430661 -0.238478 0.367291
sent_13 -0.459678 0.737499 -0.330105 -0.523869 0.793347 0.188098 0.423423 0.472234 -0.403401 0.792175 -0.200020 -0.359226 0.379895 -0.599311 0.692237 -0.587543 0.166110 0.621730 0.249887 -0.007013 0.692652 0.056966 -0.401877 -0.503103 -0.149300 0.874942 0.321070 -0.159358 -0.113237 0.375134 -0.906446 -0.278307 0.026542 -0.354160 0.392828 0.316113 -0.273535 0.040953 0.235749 1.086744 -0.449295 0.265241 -0.221583 0.351366 -0.120683 -0.196122 0.021532 -0.047310 0.042962 -0.330958
sent_14 -0.007640 -0.447702 0.180781 0.173324 0.157487 -0.353948 -0.615483 0.789000 -0.090355 0.497420 0.137060 0.293389 -0.503272 0.121548 0.185001 0.587948 0.090165 0.563409 -0.172377 -0.313650 0.003167 -0.691432 0.017422 -0.680532 0.992352 -0.568812 -0.324986 0.798542 0.225258 -0.174517 -0.137988 -0.450466 -0.194415 -0.367487 0.073945 -0.382480 -0.002451 0.431593 0.089769 -0.117100 0.109755 -0.145304 0.016459 -0.308941 0.204869 -0.186064 0.457130 -0.112395 0.254656 -0.259789
sent_15 -0.116531 0.150856 -0.111839 -0.099392 0.073386 -0.104058 0.231963 -0.400579 -1.286511 1.001231 -0.261460 0.284280 0.499311 -0.017911 -0.297770 -0.328911 0.664263 0.222804 -0.354974 -0.106873 0.432841 0.531910 -0.985233 -0.166272 -0.075495 0.255723 0.736024 0.670141 -0.051849 0.788772 -1.169841 -0.114695 0.295657 0.792320 0.123604 -0.040453 0.113900 -0.089929 0.365265 0.808015 -0.511223 0.585317 -0.435065 -0.115010 -0.289093 0.018039 0.089634 0.078621 0.818933 -0.502741
sent_16 0.689564 -0.086217 -0.595778 -0.013974 1.171389 -0.348784 0.258430 0.021391 -0.570923 -0.022907 0.290696 0.076367 0.517477 -0.546951 0.182468 0.589718 -0.020853 0.726690 -0.618307 -0.734736 0.191005 -0.842200 0.010791 -0.709917 0.744448 0.038595 0.442539 0.400353 -0.039793 -0.015424 0.141334 0.162443 -0.205715 0.539863 0.040057 0.128146 -0.423891 0.067590 -0.497404 -0.169831 0.464003 0.258645 0.503035 -0.704912 0.380472 -0.070748 -0.101965 -0.217732 0.427790 0.051556
sent_17 0.179008 -0.161664 -0.149957 -0.459663 0.334579 0.237283 0.078999 -0.006959 0.167573 0.421588 0.028810 -0.517291 -0.272332 0.046553 -0.451834 0.438846 -0.429767 -0.239166 -0.087329 -0.002798 0.022686 -0.199734 -0.138440 -0.383626 0.193356 0.296751 -0.047745 -0.173771 0.066997 -0.005111 -0.123609 0.190343 -0.099053 0.152777 0.261902 0.091933 0.007673 0.070628 0.352156 0.526835 -0.172494 0.398509 0.036490 -0.030073 0.084385 0.488905 -0.078292 0.189024 -0.208269 -0.118322
sent_18 -0.465973 -0.352245 -0.757110 0.248043 0.231199 0.365163 0.642097 0.327818 -0.469724 0.647063 -0.851516 -0.574316 0.368738 0.006468 1.114242 -0.688325 0.026782 -0.254686 -0.021255 -0.202988 1.246796 0.024509 0.518595 -0.406200 -0.009002 -0.122433 0.318223 0.155875 -0.245610 -0.170641 -0.096637 -0.296292 0.475128 0.314029 0.067569 0.517147 -0.888873 -0.625727 0.319767 0.141907 -0.379303 -0.150689 -0.197617 0.400325 -0.103152 -0.669395 -0.161322 -0.150754 0.047218 0.290506
sent_19 -0.183088 0.343518 -0.289002 -0.328765 0.085913 -0.237893 -0.237077 0.484538 -0.211563 0.741345 -0.411330 -0.406582 0.106029 -0.333761 -0.005006 -0.553326 0.257091 0.377331 -0.433434 0.082666 0.290579 0.235201 -0.272616 -0.921694 -0.182300 0.920955 0.681573 0.247022 -0.312086 0.250449 -0.389758 -0.097384 0.330256 0.230097 0.525106 0.209811 -0.711020 -0.260745 0.374142 0.547090 0.351776 0.807998 0.178173 -0.074843 -0.489135 -0.385143 0.076709 0.387487 0.582580 -0.670796
sent_20 0.294130 0.078454 0.484406 -0.097621 -0.237278 -0.111478 -0.109977 0.226533 0.002322 0.338705 0.271725 -0.480213 -0.107196 0.288928 -0.401814 -0.365157 -0.631675 0.009024 0.183463 -0.268105 -0.459101 -0.207976 0.194235 0.312592 -0.041816 -0.594950 0.104699 -0.143977 0.183217 -0.145066 0.761296 0.526021 -0.160486 0.104116 0.129865 -0.856244 -0.429682 0.266763 0.829526 0.188910 0.265908 -0.017003 -0.422263 0.056843 0.317223 0.724756 -0.372767 -0.181574 -0.241473 -0.271261
sent_21 -0.032659 0.019526 0.102120 -0.020437 0.052188 0.027252 0.281901 0.068695 0.114812 0.183418 0.352707 -0.018883 0.094939 -0.043319 0.167170 -0.132468 -0.000273 -0.166197 0.314324 0.201310 0.421290 0.324042 0.343974 0.072880 -0.515599 -0.243373 0.308186 -0.101503 -0.048615 0.546461 0.040193 0.409174 -0.261779 -0.040959 0.034857 -0.196253 -0.246293 0.127653 0.586455 -0.319710 -0.025774 -0.270177 -0.587462 0.321589 -0.052924 0.554440 -0.308452 -0.249261 -0.016448 0.033638
sent_22 0.254700 0.490419 -0.317271 0.190507 -0.180114 -0.348639 0.662146 -0.326481 0.076160 0.411460 -0.272425 0.205459 -0.935472 0.491982 -0.326181 0.154887 -0.474920 0.177819 -0.174331 -0.171329 0.119677 0.303838 0.476588 0.219979 0.316972 -0.283524 0.039636 0.914022 0.482494 0.571472 -0.716012 -0.549663 -0.024500 0.436140 -0.101164 0.360134 -0.132080 0.611125 -0.226648 -0.418785 -0.100882 -0.204355 0.018450 -0.226259 0.689110 -0.074493 -0.117005 -0.219161 0.200522 0.444254
sent_23 0.808456 -0.179530 -0.518747 -0.260289 -0.439873 -0.489700 -0.429065 1.061047 0.225176 -0.309297 0.214153 0.328342 -0.274173 -0.462368 -0.388772 0.580488 0.158433 0.244842 -0.409855 0.184568 0.787879 -0.554912 -0.569460 -0.259904 0.681789 0.040304 -0.607845 0.761399 -0.335337 -0.027587 -0.370751 -1.039289 0.043442 -0.274168 -0.523359 -0.613599 -0.276469 1.076601 0.150384 0.303941 0.689250 0.621909 0.076618 0.576086 -0.572879 -0.068990 0.447373 1.134354 0.915584 0.002858
sent_24 -0.281306 0.212614 0.041903 0.056561 0.195838 0.072239 -0.141194 -0.101214 -0.223260 0.075106 -0.252901 -0.364340 0.519689 -0.045796 0.546732 -0.069061 0.129997 0.158812 0.044243 -0.385426 0.717119 0.194749 -0.123379 -0.065146 0.034093 0.396046 -0.310568 -0.181424 0.415599 -0.104462 -0.288419 -0.150979 -0.013585 -0.203192 0.194281 -0.035588 -0.222455 0.081190 0.269646 -0.151601 0.012203 -0.038944 0.118123 0.404541 0.328339 -0.114423 0.028325 0.088370 0.318783 -0.279848
sent_25 0.152764 0.132662 -0.108123 0.368135 -0.216200 0.061530 0.103449 0.536026 -0.354665 0.420872 -0.066243 -0.079949 0.302421 -0.202468 -0.372276 -0.150801 -0.398124 0.133203 0.106076 -0.027388 0.551772 -0.284683 -0.165335 -0.673773 0.049566 0.138361 -0.007166 0.233724 -0.016158 0.210342 -0.462180 0.048785 -0.256098 0.362701 -0.043515 -0.005334 0.342601 0.442569 0.136985 0.185905 0.012551 0.339678 0.349030 0.726588 0.065406 0.127923 0.149740 -0.094374 0.729762 -0.071417
sent_26 0.152935 -0.229554 0.385130 0.161216 0.176778 0.072490 0.084574 -0.026439 0.090662 -0.057123 -0.114561 0.197712 0.180958 -0.170449 0.222871 0.123466 -0.119470 -0.038948 -0.136684 0.275863 0.257777 -0.096535 0.108960 -0.132826 0.272151 -0.260389 0.318882 -0.011315 0.215809 0.256944 0.116323 0.224320 -0.259751 -0.011016 0.090064 -0.228193 0.252149 0.248677 0.324613 0.561505 0.193267 -0.221665 -0.252493 0.050716 0.390609 -0.072993 -0.159817 0.244983 0.612250 0.262458
sent_27 -0.181535 0.204696 -0.469268 0.095477 0.749276 -0.155380 0.165865 -0.168726 -0.760995 0.340841 -0.071283 -0.541110 0.181248 -0.631628 0.186807 -0.563974 0.228525 0.323619 -0.060883 -0.552637 0.189253 0.011128 0.001110 -0.381535 0.125047 0.192311 0.932257 0.084571 0.434017 0.237588 -0.473248 -0.069908 0.206724 0.228284 0.004019 -0.264257 -0.734061 0.058399 0.339715 0.551917 0.093916 -0.192678 0.301733 -0.403456 0.070153 0.140804 -0.046372 -0.203300 0.381686 -0.831828
sent_28 0.812892 0.478150 0.244535 -0.135599 -0.107652 -0.578611 -0.450831 1.246880 -0.577750 -0.226506 0.350433 0.487313 -0.058737 -0.302068 -0.758874 0.822847 -0.222788 0.829869 -0.130743 0.258548 0.744754 -0.900934 -0.443946 -0.195349 0.509703 0.701167 -0.516140 0.616832 -0.324588 0.688250 -0.063821 -1.182898 -0.491465 -0.633459 -0.314334 -0.602711 -0.253417 1.021655 0.817748 -0.293905 0.233415 0.590172 -0.344572 0.659981 -0.242714 -0.083141 0.501868 0.947283 0.838936 -0.368075
sent_29 -0.346997 -0.245073 -0.163475 0.629526 0.698553 -0.587420 0.411340 -0.267401 -0.065852 0.463968 0.103699 0.176392 0.133924 -0.283141 0.294868 0.098420 0.378146 -0.302701 -0.206713 -0.500568 -0.220587 0.148187 -0.365157 -0.831537 0.656434 -0.577688 0.379375 0.294835 0.313995 -0.044171 -0.207836 0.247541 0.003629 -0.071334 0.015774 -0.353858 -0.389699 -0.109961 -0.227150 -0.100141 1.022966 -0.675390 -0.375660 -0.627962 0.668100 0.469855 -0.017856 -0.630248 0.561897 -0.240157
sent_30 -0.937408 -0.065285 0.463336 0.272761 -0.399297 -0.636774 0.230245 0.584747 -0.120678 0.849066 -0.470198 0.421633 1.127750 -0.429039 0.356649 -0.180701 -0.260007 -0.012318 0.269270 0.077539 0.527801 -0.423421 -0.189718 -1.300834 0.708849 0.335628 0.481674 0.208767 0.300265 0.000215 -0.802612 -0.144764 -0.168614 -0.206182 -0.223508 0.031107 -0.298664 -0.001051 -0.193728 -0.020283 0.261954 0.531623 -0.106901 0.262128 0.523309 -0.236184 -0.432264 -0.422357 1.380586 -0.350713
sent_31 0.494186 0.191794 0.032136 -0.016205 -0.077096 -0.247446 0.130809 0.227505 -0.159233 0.170471 0.061671 -0.252164 -0.358268 0.016021 -0.172817 -0.024306 -0.234687 0.312802 -0.227867 0.155623 0.395382 -0.018382 0.310888 -0.132270 0.025119 -0.267852 0.181037 0.062632 -0.057150 0.545464 0.145553 -0.429293 -0.311660 -0.045567 -0.032344 -0.310257 -0.371454 0.197794 -0.280673 0.013529 0.064950 -0.156878 -0.277158 0.261663 0.051778 0.039323 -0.061747 -0.076845 0.189865 -0.118535
sent_32 0.045886 -0.054061 -0.017437 -0.372137 -0.000259 0.365683 -0.640596 -0.136501 -0.090974 -0.017295 0.076466 -0.047261 0.117550 -0.818321 -0.345162 0.229982 0.637371 0.299141 -0.523372 0.358324 -0.180706 -0.424501 -0.078654 -0.474417 -0.168991 0.160248 0.158109 -0.405138 0.083597 -0.143570 0.026632 -0.025300 -0.084073 -0.468789 0.318025 -0.127312 -0.438316 0.472144 -0.096020 0.037039 -0.302711 -0.139215 0.489102 0.583040 0.180559 -0.123412 -0.407145 -0.327493 0.235554 0.131375
sent_33 -0.486312 0.338420 0.369456 -0.297060 -0.284176 -0.506714 0.239604 0.635193 -0.208687 0.239646 -0.335693 0.288949 0.583520 0.389513 -0.025372 0.519921 0.273544 -0.096494 0.029053 0.237554 0.277939 -0.229127 -0.331853 -0.774394 0.098140 -0.162811 0.264328 -0.151935 -0.217700 0.141617 -0.050802 0.092075 0.003051 0.569850 -0.032620 0.063310 -0.834578 -0.166733 -0.863629 0.261036 0.267515 -0.210896 0.015522 -0.139771 0.346735 -0.071948 0.035095 -0.352460 0.593762 -0.406662
sent_34 -0.281155 -0.545691 -0.839949 -0.506511 -0.099870 0.699504 0.333542 0.289552 -0.051470 -0.140714 -0.231743 0.261729 0.319821 -0.840517 0.100832 0.250934 0.475790 -0.264492 -0.095037 0.199062 -0.055625 -0.428601 -0.152495 -0.493096 0.178590 -0.495842 0.695073 -0.489989 -0.289449 -0.380741 -0.324908 -0.443607 -0.135901 -0.622515 -0.133098 0.215668 -0.078988 0.004112 -0.203781 0.592113 0.079385 -0.348320 -0.078703 0.018558 -0.016816 -0.390671 0.100038 -0.109398 0.391266 0.695745
sent_35 1.104801 -0.259749 -0.374007 0.136838 -0.449713 -0.542072 -0.530700 1.289893 -0.099757 -0.262122 -0.017440 0.218921 -0.099445 -0.257422 -0.699990 0.482359 -0.165148 0.470151 -0.298758 0.012357 0.843046 -0.337962 -0.790335 -0.307625 0.517023 0.156089 -0.673109 0.936453 -0.282823 0.062565 -0.153834 -1.102399 0.179040 -0.410221 -0.594556 -0.475320 -0.377197 1.196272 0.474662 -0.430493 0.609987 0.370302 0.225097 0.513974 -0.540391 -0.067393 0.556041 0.911365 1.019619 -0.313913
sent_36 -0.455796 -0.358000 0.132775 0.141878 -0.271585 0.179217 0.283123 0.304355 0.139447 0.435256 -0.205358 0.238064 0.849156 -0.477994 0.019318 -0.142612 -0.142755 -0.367005 0.600311 -0.473590 0.487727 0.204922 -0.509981 -0.415039 -0.184394 0.106209 -0.004084 0.172928 -0.105224 0.372034 -0.328662 -0.194602 -0.306835 -0.371851 -0.393134 -0.514076 0.414213 0.606198 -0.720923 0.175241 -0.002700 0.015619 -0.291931 0.076673 -0.282530 0.143261 -0.310672 -0.379764 0.082084 0.171099
sent_37 -0.496959 -0.056223 0.479373 -0.092907 -0.283483 -0.335901 -0.067088 0.311951 0.275944 0.175715 -0.189566 0.067855 0.249186 0.252654 -0.154642 0.070145 -0.030647 -0.239746 -0.060127 -0.411713 0.191280 -0.251976 0.143341 -0.065894 0.081145 -0.374428 -0.354289 -0.366708 0.383479 -0.543205 0.238561 -0.221721 -0.132930 -0.042699 0.517693 -0.009944 -0.082378 0.455712 -0.251884 0.330110 0.116672 -0.364882 0.104718 -0.459206 0.229616 0.214499 0.217685 -0.071917 -0.102594 -0.044063
sent_38 -0.129975 -0.266384 0.056114 0.268795 -0.346998 0.150149 0.428843 0.291275 0.034351 -0.022686 0.120269 0.045137 0.321351 -0.098476 0.028094 0.341540 -0.427533 -0.104930 -0.483260 -0.208081 0.272948 -0.320178 -0.113872 -0.480979 0.162061 0.025372 -0.206662 -0.353783 0.243991 0.149833 0.200220 0.171761 -0.120050 0.007678 -0.165311 -0.075668 0.092525 0.230073 -0.827057 0.180657 0.169957 0.252309 0.163864 -0.177217 0.357827 0.006797 -0.295802 0.287910 0.369708 0.026332
sent_39 -0.172672 0.407393 0.432545 -0.289423 0.430484 0.649207 0.020997 0.464308 -0.026871 0.464729 -0.509965 -0.551189 -0.423229 0.075868 -0.512887 -0.164139 0.027313 -0.561166 0.016721 -0.292397 0.111573 -0.362115 -0.163455 -0.184589 0.249323 0.120060 -0.181559 -0.374768 0.147627 0.382267 -0.450967 -0.969694 0.014060 -0.095783 -0.211227 -0.101087 -0.175834 0.944324 -0.159278 -0.300036 0.804577 0.215241 0.196324 0.116160 0.343517 0.025494 -0.033749 -0.262910 0.590184 0.100218
sent_40 0.435202 0.033637 0.245108 0.025838 -0.105068 -0.231138 -0.230587 -0.464862 -0.156712 0.033407 0.089510 -0.132017 -0.391767 0.124779 0.406063 -0.182453 -0.098501 0.377078 -0.085421 -0.184300 0.291578 -0.020118 0.246753 -0.205450 -0.301391 -0.036750 0.274723 0.024334 0.570540 0.397637 0.741997 0.206790 0.134724 -0.071174 0.071734 -0.361293 0.025541 0.252929 0.646143 -0.051040 0.234313 -0.174946 -0.269647 0.275952 0.055007 0.271212 0.043109 -0.177482 0.021336 -0.291488
sent_41 -0.340238 -0.243449 0.415375 -0.646463 0.449295 -0.330632 0.365352 0.404603 0.070996 -0.296262 -0.041536 -0.386740 0.146385 -0.280999 -0.846562 0.004291 -0.100229 -0.486376 -0.193882 -0.054817 0.379068 -0.655216 -0.215321 -0.344019 0.525357 -0.529660 0.094820 0.364410 -0.661262 -0.403114 -0.159413 -0.886057 0.118445 -0.036874 0.249411 0.181486 -0.533118 1.302631 -0.004840 -0.324846 0.150551 1.121156 0.934609 0.047663 0.427297 -0.411003 -0.352061 0.197283 -0.035295 0.794790
sent_42 0.335551 -0.233995 -0.027749 0.724853 0.445884 0.097238 0.425030 0.827253 0.184460 -0.564202 0.183684 -0.195588 0.118065 0.070744 -0.684745 0.506399 -0.076567 0.120560 -0.100119 -0.335192 0.173679 -0.430921 -0.430193 -0.799236 0.202310 0.015093 -0.523502 0.365163 -0.299648 0.257483 -0.458838 -0.366711 -0.202604 -0.001468 -0.058953 -0.121619 0.370275 0.498481 -0.131330 0.172847 -0.352511 0.183346 0.358316 -0.146741 0.151216 -0.011988 -0.093989 0.569010 0.148344 0.428120
sent_43 0.048783 -0.225966 -0.034952 0.354662 -0.334478 -0.095339 0.173904 0.000537 0.155940 -0.010622 0.052651 -0.122844 0.200859 -0.188985 0.011007 0.376723 -0.152540 -0.305661 -0.437336 -0.046520 0.508401 -0.148744 -0.364186 -0.382151 -0.164844 -0.133159 0.127049 0.053790 0.315094 -0.342504 0.116510 0.139267 -0.235345 0.417492 -0.087477 -0.009435 0.093522 -0.328363 0.081257 -0.023241 0.088309 -0.189550 -0.333064 -0.340145 -0.167598 0.330552 -0.062163 0.122168 0.301127 -0.300485
sent_44 0.751079 0.612343 -0.223697 -0.235162 0.677042 0.020246 0.721510 0.175639 -0.344425 -0.062583 -0.574781 -0.046018 -0.150473 -0.187336 0.037327 0.351182 -0.037083 0.423091 -0.248625 0.044996 -0.068573 -0.485913 -0.236306 -0.735659 0.482133 0.155088 0.158991 0.553858 -0.261302 0.497539 -0.962398 -0.172935 -0.311085 0.522673 -0.049364 -0.072436 -0.109995 0.699247 -0.624109 0.033660 0.368426 0.314162 0.252861 0.028028 0.741239 -0.423599 -0.192310 0.753064 0.666117 0.182518
sent_45 0.647163 0.008985 -0.256261 0.354426 0.324535 0.165645 -0.726964 0.686149 -0.160832 0.313853 -0.077425 0.125210 -0.017199 -1.061127 -0.237168 -0.550969 -0.036936 0.454046 -0.068191 -0.359417 -0.532148 -0.162524 -0.111764 -0.491811 0.855938 0.757903 -0.281000 0.166112 -0.583045 1.124702 0.200277 -0.207524 -0.240787 0.417566 -0.007807 -0.253779 0.336690 0.520176 -0.524256 0.127285 1.174388 0.794570 0.057199 -0.277315 -0.226204 0.091221 0.058417 0.266049 0.836989 0.315384
sent_46 -0.741772 -0.077752 -0.045677 -0.147798 0.010700 0.280328 -0.141656 0.750022 -0.446600 0.665592 -0.157307 0.079107 0.256564 -0.860573 -0.306403 -0.052027 0.498030 0.264577 0.147068 0.340146 0.391202 0.150411 -0.304187 -0.450351 0.609507 0.399574 0.736894 0.349793 -0.110232 -0.154625 -0.628702 0.135707 -0.067215 -0.377457 0.512945 0.447119 -0.124718 -0.126659 0.114603 0.819369 0.090737 0.153861 0.103184 -0.596855 -0.340535 -1.098989 0.050184 -0.069415 0.538548 -0.493409
sent_47 0.445743 0.104153 0.186985 0.286504 0.118593 -0.482472 0.407694 -0.300065 0.145283 -0.083554 -0.007836 0.300024 -0.676633 0.187915 0.037669 -0.123441 -0.604650 -0.122216 -0.423878 -0.192104 -0.560295 0.251479 0.163994 0.473079 0.215579 -0.297341 0.074165 0.920597 -0.073490 0.047940 -0.304558 0.081833 0.008114 0.185228 0.002727 -0.239204 0.261397 0.677099 0.216026 -0.088511 0.071739 -0.414607 -0.068840 0.071573 0.895320 -0.094005 -0.360238 -0.044611 0.339984 0.653237
sent_48 0.206811 0.425903 -0.637310 -0.803014 0.241199 0.787493 -0.063232 0.238826 -0.437932 0.949884 -0.521306 -0.107532 0.549406 0.891868 -0.408190 -0.482767 -0.641910 -1.278961 -0.125628 -0.395057 -0.029939 0.253652 -0.266960 -0.548858 0.400191 0.820436 0.513310 0.447894 -0.488651 -0.296913 -0.165020 -0.397909 -0.084930 -0.054265 0.250406 0.329063 -0.496255 0.803843 -0.872632 0.725210 0.405389 -0.588505 0.103185 -0.056791 0.252623 -0.256584 -0.292975 0.069869 -0.031048 -0.724773
sent_49 -0.106225 -0.030705 -0.642107 -0.082614 0.520260 -0.054729 0.659353 0.426781 -0.491514 0.038664 -0.357776 -0.008451 -0.353397 -0.312841 0.064260 -0.008386 -0.290313 -0.042376 -0.040562 -0.600773 0.303690 -0.889711 -0.017791 -0.985454 0.786588 0.298332 0.866842 -0.054274 0.264553 -0.099093 -0.956270 -0.896919 0.164681 0.080483 -0.095263 -0.505976 -0.393929 0.250330 -0.598136 0.237278 0.147459 -0.181888 0.368165 0.111002 0.383946 0.050681 0.028986 0.225335 0.490876 -0.002096
sent_50 -0.150807 0.005647 -0.067175 0.107425 0.830388 -0.228687 -0.393940 0.156891 0.113210 0.328361 -0.078536 -0.404487 0.293379 -0.625991 0.155215 -0.618518 -0.082429 0.634278 -0.171351 0.441434 -0.243680 0.364340 -0.210084 0.049299 0.383560 0.168317 0.254040 -0.035222 -0.733601 0.161499 -0.313402 -0.370737 0.235448 -0.095708 0.284085 0.406286 -0.965427 0.324668 0.442205 0.600677 0.157553 0.774655 0.010865 -0.365166 -0.576672 0.131584 -0.084283 0.218621 -0.158312 -0.232567
sent_51 0.700979 0.182599 -0.212186 0.114062 0.661516 -0.323645 0.493624 -0.207488 -0.810193 -0.722222 0.030887 -0.514987 0.238989 -0.118483 -0.734854 0.685901 -0.639762 0.358867 -0.720422 -0.626218 0.381808 -0.388667 -0.611892 -0.319369 0.253818 0.263345 0.127070 0.169177 -0.035636 0.220190 -0.451569 -0.255065 -0.080479 0.276584 0.244675 -0.333861 0.006594 0.458310 -0.407565 0.552598 0.345321 -0.245763 0.056051 0.112742 0.277911 0.350098 -0.374215 0.954481 0.522148 0.125015
sent_52 0.582684 0.183064 0.239956 0.169973 0.138873 -0.094290 0.015719 0.081122 -0.133411 -0.309451 -0.072673 -0.870710 0.370597 0.336035 0.057881 -0.422730 -0.288559 0.385037 0.149327 -0.207487 -0.332189 -0.069069 0.069618 0.166352 -0.386312 -0.429312 -0.181029 0.284668 0.117495 -0.265150 0.673701 0.112230 -0.219172 0.038500 0.232142 -0.459155 0.181075 0.183475 0.379633 -0.357187 0.507347 0.289558 0.322543 0.106782 -0.008734 0.135196 -0.321864 0.044405 -0.178808 -0.190369
sent_53 -0.610326 0.211635 -0.763277 0.046342 -0.632444 0.247870 0.167305 -0.180298 -0.215748 0.177906 -0.025331 -0.145731 0.550703 -0.339774 0.163801 -0.081418 -0.008862 -0.116144 0.551367 -0.336095 1.072410 0.095687 -0.295915 -0.298611 0.371712 0.007635 0.473676 0.497922 -0.009200 -0.065202 0.036592 -0.275388 -0.237230 -0.226863 0.631656 0.412899 -0.279152 0.458093 0.206855 0.270235 -0.174050 -0.345955 0.166772 0.371989 0.154156 0.028445 0.360684 0.059341 -0.107754 -0.057430
sent_54 -0.005070 -0.214339 0.103103 -0.392252 0.326938 -0.357189 0.035718 0.841159 -1.066955 1.016190 -0.517953 -0.325225 0.356361 -0.419617 0.017937 -0.958409 -0.194569 0.631484 -0.183952 -0.233912 1.359627 0.219063 0.196514 -0.445281 0.556153 0.901777 0.363061 -0.221148 -0.072084 0.358343 -0.782157 -1.004280 0.719172 -0.956869 0.294660 0.280052 -1.083467 0.071947 0.394413 0.765822 0.079006 0.176446 0.060795 -0.153640 -0.259184 -0.542036 -0.222302 0.591589 0.870484 -0.215987
sent_55 -0.218413 -0.115988 0.021310 -0.068192 0.086686 0.041762 0.123372 0.418439 0.453856 0.130072 0.050727 0.087752 -0.066262 0.069911 -0.135554 -0.043169 -0.563475 -0.095149 0.075629 0.429680 0.303751 -0.061348 -0.177169 0.078282 0.425140 -0.273094 0.280581 -0.292800 0.091464 -0.285542 -0.253387 0.095841 -0.117841 -0.017137 0.088510 0.049661 -0.045003 -0.126866 0.276468 0.143785 0.126748 0.097989 -0.355324 0.256202 -0.016477 0.125829 0.195524 0.246486 0.346745 0.066398
sent_56 0.373440 -0.421341 0.089121 -0.051168 0.388438 0.131826 -0.050389 0.826041 -0.159309 0.381151 -0.582793 0.017449 0.732721 0.024955 0.046911 -0.427188 -0.329700 0.042611 0.109548 -0.301571 0.170160 0.008458 -0.396772 -0.309065 0.736340 0.520145 0.165859 0.311765 -0.260627 0.413153 -0.042684 -0.388353 -0.063650 -0.466821 0.182500 0.008528 -0.402885 0.073303 -1.112908 0.244310 0.092656 0.504842 0.032055 -0.088787 0.286502 -0.139354 -0.380176 0.291909 0.848033 -0.170748
sent_57 0.030984 0.303701 0.020432 -0.334739 0.381719 -0.384234 -0.197954 0.270170 -0.163579 0.251979 0.039979 -0.134830 -0.042770 -0.090179 -0.067146 0.143309 0.085182 -0.004770 -0.207561 -0.166001 -0.113923 -0.429933 0.044320 -0.180547 0.254946 -0.017854 -0.285222 0.092656 0.197753 0.388023 0.104814 -0.091898 -0.049104 0.080790 0.249197 -0.046491 -0.122623 0.131710 -0.104391 -0.008319 0.246256 0.162596 0.150933 0.076463 0.504373 -0.197792 -0.146338 -0.107999 0.546951 -0.134131
sent_58 0.014358 0.455443 -0.595702 -0.306151 0.898120 -0.545532 0.415088 -0.423633 -0.536521 0.363400 -0.095181 -0.490961 -0.163831 -0.470214 0.201446 -0.270775 0.383727 0.701412 0.024909 0.043813 0.193542 -0.086750 -0.212941 -0.653500 0.113436 1.030460 1.058534 0.110888 -0.414723 0.362284 -0.829746 0.129663 0.293258 0.293127 0.001493 0.107952 -0.350400 0.024642 0.496953 0.784560 -0.232830 0.739552 0.113595 0.109599 -0.059562 -0.106731 0.341627 0.091563 0.332402 -0.467872
sent_59 -0.729082 0.134915 0.340029 0.279568 -0.247948 -0.861025 -0.180185 0.546897 0.349442 0.427256 0.093301 0.520378 0.094167 -0.066761 -0.502587 0.054101 -0.026059 -0.258107 -0.098626 -0.186117 0.003471 -0.153956 -0.133219 -0.404513 0.339251 0.081694 0.185784 0.224859 0.056024 -0.013556 0.032210 -0.223810 0.117075 -0.172548 0.244282 0.168048 -0.074348 0.112439 -0.206604 -0.183507 -0.345713 -0.706212 -0.126629 0.487992 0.434612 0.541708 0.322946 -0.676486 0.803446 0.388627
sent_60 0.819578 0.523979 -0.391368 -0.516226 0.149531 0.692234 0.053684 0.322696 -0.023816 0.103174 -0.631138 0.340626 0.433050 0.212394 0.388170 0.319788 -0.016355 0.095766 -0.566902 -0.107380 0.080326 0.534737 -0.885635 -0.649537 0.392707 0.761818 0.341802 0.893869 -0.236844 -0.146462 0.013861 -0.000119 -0.577207 0.130924 0.184423 0.703443 0.401429 0.911288 -0.661955 0.792950 -0.145401 -0.402693 0.421254 -0.164523 0.496613 -0.370031 -0.071850 0.634476 0.408585 0.012232
sent_61 0.079826 0.118030 -0.777570 0.038711 -0.019109 -0.220564 0.456414 -0.374335 0.173647 -0.569631 -0.293122 0.006509 0.199395 0.122203 0.351779 0.307787 -0.332049 -0.426655 0.060135 -0.093419 0.155477 0.485384 -0.437048 -0.472978 0.017903 -0.383997 0.109108 0.038033 0.405258 -0.467888 0.093304 0.072402 0.080230 -0.036184 -0.084324 0.266127 0.356800 -0.004182 -0.114980 0.161930 -0.532717 -0.282335 0.000524 0.053616 -0.038638 0.120477 -0.146001 0.054706 0.257216 -0.146146
sent_62 -0.199214 -0.096608 0.294356 -0.496201 -0.007546 -0.074654 0.218110 0.190990 -0.104793 0.038095 -0.331930 -0.052723 0.419367 -0.417583 -0.350210 0.370861 -0.190971 -0.515556 -0.223304 -0.360665 0.078611 -0.011843 -0.245786 -0.077927 0.212752 -0.262247 -0.278360 0.209442 -0.064980 0.173338 0.035102 -0.622731 0.106073 -0.127706 0.399771 -0.012081 0.434449 0.464454 0.667890 0.222710 0.101417 0.046398 0.496805 0.071307 0.349209 -0.103631 0.154575 0.169936 0.491802 0.529597
sent_63 -0.469986 -0.111196 -0.140150 0.105933 0.039349 -0.142896 -0.075717 -0.122535 -0.025302 0.000402 0.106658 -0.026137 0.052728 -0.813154 -0.331417 0.554539 -0.014283 -0.107337 -0.389107 -0.600315 -0.173720 -0.496619 -0.940100 -0.620547 0.254173 0.131021 0.106143 0.047376 0.320793 -0.269095 0.236892 -0.359621 -0.405796 -0.061522 0.156072 -0.386670 -0.187478 0.298453 -0.162160 0.074739 0.436946 -0.782019 0.254876 0.319562 0.609898 0.082266 -0.201592 -0.146863 0.774630 -0.271440
sent_64 -0.496803 -0.442849 0.428653 0.206053 -0.370440 0.027971 -0.088232 0.593834 0.481474 0.008693 -0.198937 0.249180 0.316659 -0.063040 -0.030091 0.322236 -0.676018 -0.082833 -0.120331 0.166207 -0.047806 -0.454126 -0.857459 -0.387005 0.621927 -0.177064 0.217159 0.683798 -0.261027 0.386164 0.007235 -0.191932 0.110094 0.134065 -0.394304 -0.038878 -0.344622 0.137557 -0.007252 -0.051059 0.138821 0.166354 -0.239462 0.101427 0.419687 -0.040774 0.286449 0.145653 0.798200 0.018131
sent_65 0.225905 -0.272697 -0.065234 0.015315 -0.222334 -0.122585 -0.048346 0.140115 0.150277 0.041450 -0.138270 -0.024912 0.247384 0.037400 -0.095568 0.312904 -0.256330 0.028449 -0.301252 -0.269563 0.363882 -0.214960 -0.058257 0.145636 -0.005325 -0.128913 -0.594513 -0.175422 0.349283 -0.132917 0.286512 -0.095346 -0.016396 0.377067 0.151476 -0.117542 -0.020614 -0.056681 -0.138379 -0.106657 -0.118678 -0.026402 0.071738 -0.134433 0.277036 0.110207 0.241001 0.160631 0.373131 0.003666
sent_66 -0.587242 -0.538577 -0.541741 -0.317104 -0.705949 0.380023 -0.509452 0.135905 -0.306501 0.789992 -0.171191 0.446663 0.553504 -0.265934 0.303202 0.229381 -0.397481 -0.616211 -0.174225 -0.124812 0.596236 0.144514 -0.178960 -0.476507 0.300320 -0.207854 0.904289 0.241002 -0.191047 0.023921 -0.776252 -0.011601 0.063075 -0.127559 0.100313 -0.222958 0.032385 -0.009900 -0.315343 0.003946 0.078472 0.320510 -0.298262 0.345447 0.201981 -0.214039 -0.163904 -0.088535 0.661013 0.279972
sent_67 -0.874664 0.134659 -0.133809 0.244573 0.140602 -0.104629 0.170299 0.501242 -0.495095 0.028270 -0.052094 -0.138064 0.641767 -0.394077 0.819247 -0.615310 0.111769 -0.033863 0.991016 -0.586632 0.509756 -0.290560 -0.892415 -0.139099 0.314632 0.151910 -0.044549 -0.428065 -0.258821 0.088453 -0.396144 -0.130662 -0.120215 -0.353264 0.050086 0.049180 0.151060 0.311052 -0.151808 0.214504 0.281755 -0.096722 -0.115439 0.137625 0.353449 -0.500904 -0.024166 0.105548 0.455338 -0.057780
sent_68 0.323686 -0.058984 -0.273743 -0.366243 0.331689 0.220144 0.320539 0.650235 -0.218083 -0.030912 0.245746 -0.337093 -0.245309 -0.063711 -0.209826 -0.151120 -0.540384 0.369137 -0.388111 -0.064343 -0.132324 -0.489582 0.404992 -0.265764 0.422429 0.085878 -0.136093 0.127160 0.224035 -0.485686 0.252805 -0.189134 -0.387024 -0.734812 0.365611 0.084812 -0.071523 0.519455 -0.637209 0.211212 -0.044218 -0.031049 -0.260610 0.076882 0.223520 -0.132635 -0.204543 0.241911 0.234493 -0.152440
sent_69 -0.182799 0.047964 0.014211 0.214349 0.406447 0.156170 -0.183461 -0.056853 -0.618402 0.619402 0.029822 -0.217189 0.176899 -0.052610 0.190223 -0.236559 -0.123626 -0.207471 -0.100447 -0.745215 0.354736 0.215485 0.002658 -0.720703 0.411834 0.555394 0.420017 0.136245 0.365087 0.364655 -0.499749 0.088487 0.223730 0.026563 0.051446 0.050954 -0.142309 0.024206 0.121338 0.248065 -0.427098 0.304064 -0.408463 -0.200070 0.293868 0.047764 -0.269290 -0.168144 0.252716 -0.153236
sent_70 -0.088464 -0.249169 0.844119 -0.964156 0.895943 -0.310847 0.131511 0.215476 -0.153199 -0.431997 -0.097735 -0.659119 0.033162 0.177624 -1.253239 0.972993 -0.211235 -0.600545 -0.374126 -0.420386 0.165947 -0.529972 -0.302426 -0.698758 0.985912 -0.966161 -0.377704 0.284453 -0.403006 -0.071673 0.067026 -0.722852 0.525089 0.073001 0.459202 -0.374150 -0.179272 0.942439 0.394392 -0.185297 0.229583 0.651683 0.334320 0.212175 0.444225 -0.217133 -0.572346 0.464556 0.004639 0.573943
sent_71 -0.097320 0.210132 -0.048207 -0.287859 0.096363 0.089066 0.068411 0.058692 -0.464399 -0.191127 0.043503 -0.379405 0.132673 -0.046076 -0.344295 -0.348771 -0.104479 0.266374 0.602438 -0.298509 -0.004437 -0.513229 0.074108 -0.279193 0.404551 -0.121874 0.074681 -0.092324 0.230381 0.026922 -0.279110 -0.081119 0.115282 -0.066260 -0.026892 -0.127362 -0.210964 0.433034 0.152763 -0.185867 0.172635 0.443922 0.632083 0.122735 0.195829 -0.389458 -0.375084 0.106656 -0.179344 0.115992
sent_72 -0.233660 -0.011826 0.107785 -0.311718 0.954852 0.360929 0.484157 0.168264 0.139662 0.701144 -0.168943 -0.390154 0.190240 -0.576066 0.114138 -0.074458 0.255680 0.082692 0.196679 0.110854 0.530836 -0.488963 -0.441616 -0.629279 0.309743 0.394100 -0.447724 -0.000663 0.112509 0.256242 -0.755434 -0.504782 -0.115654 -0.121958 -0.163927 -0.271461 -0.075289 0.816445 -0.013814 0.039580 0.723978 0.040046 0.389180 0.393722 0.486876 -0.589143 -0.441749 -0.467287 0.736377 0.017126
sent_73 0.236920 -0.002705 -0.523275 0.118233 1.119567 0.270589 0.261412 -0.059761 -0.396093 0.097265 0.437300 -0.037135 0.325463 -0.374647 0.869825 0.044764 -0.185298 0.168937 0.254633 0.132742 0.837439 0.153734 -0.247529 -0.490224 -0.053788 -0.044272 0.333788 -0.023417 -0.450597 0.106611 0.221786 -0.500776 0.174314 -0.050916 0.461590 -0.038324 -0.353718 0.629045 0.387351 -0.215823 -0.335453 -0.079810 0.009131 0.540177 -0.109851 -0.559229 0.024160 -0.423308 -0.247109 -0.053548
sent_74 -0.259735 -0.228893 -0.228564 -0.005440 0.324689 -0.179310 0.222930 0.289639 -0.087647 0.400815 -0.351295 0.039328 0.790308 0.236470 -0.102515 0.063734 -0.542186 0.232278 -0.219096 0.008064 0.154079 -0.272256 -0.375663 -0.960894 0.406807 0.251473 0.875389 -0.028230 -0.252533 -0.370565 -0.546135 0.318961 -0.226741 0.085367 0.183234 -0.317774 -0.150264 0.067792 -0.330198 0.439502 0.470554 -0.052385 -0.219947 0.248179 0.173903 0.326250 -0.127197 -0.016554 0.618856 -0.381765
sent_75 0.119978 0.126989 -0.278765 0.135061 0.222766 -0.164346 0.268976 -0.413562 -0.272799 -0.013635 -0.194271 -0.139950 0.694948 0.228580 0.058912 -0.154850 0.082335 -0.321930 -0.170095 -0.384871 0.142843 0.550094 -0.073236 -0.605411 0.363549 0.143807 -0.103061 0.165889 -0.264671 -0.316598 0.569674 -0.259526 0.119292 -0.092738 -0.108452 -0.104101 -0.119145 -0.016605 -0.008968 -0.070330 -0.182476 -0.330860 0.072688 0.433414 0.280713 0.147287 0.189494 -0.138158 -0.126150 0.019719
sent_76 -0.106675 -0.400238 0.399928 0.553633 0.210662 0.109608 0.271510 -0.275654 0.328263 -0.248489 0.406773 0.270634 -0.033407 0.151823 -0.165783 -0.133542 0.310223 -0.713158 0.561346 -0.056664 -0.016688 -0.080562 0.345537 -0.601986 0.274971 -0.154605 0.013357 -0.365951 0.125376 0.407868 0.620984 0.520552 0.139620 -0.150813 -0.126989 -0.345899 -0.073762 -0.010860 -0.038055 0.092263 -0.280630 -0.542412 -0.041882 -0.144216 -0.287904 0.274762 -0.035282 -0.322569 -0.375702 0.181595
sent_77 0.086547 -0.492905 -0.440933 -0.102304 0.589165 -0.196219 -0.140111 0.436200 -0.541958 0.208394 0.012604 0.471579 0.189441 -0.556560 -0.675370 -0.024619 -0.498858 0.334905 0.351763 -0.324484 0.475139 -0.649977 -0.209184 -0.544618 0.964006 0.154325 0.057576 0.309424 -0.110577 0.359348 -0.523422 -0.271232 0.164495 -0.569771 -0.366183 0.149127 -0.517662 1.294725 -0.623470 0.389962 0.795453 0.303552 0.460821 -0.211432 0.003981 -0.819061 -0.110050 0.628738 0.321087 -0.377194
sent_78 0.076658 0.501543 -1.013077 -0.476856 0.718920 -0.317049 0.165739 -0.033927 -0.878211 0.825914 -0.369162 -0.568241 0.028163 -0.501900 0.056233 -0.158699 0.265560 0.979094 -0.117012 -0.033538 0.541317 -0.194513 -0.355472 -1.002472 -0.208440 0.781634 0.987062 0.248102 -0.131766 0.490787 -1.095863 0.251636 0.414273 0.510883 0.207720 -0.078542 -0.617326 0.011241 0.602166 1.004145 -0.219830 0.745509 0.203431 -0.061140 -0.166395 -0.385131 0.406603 0.171066 0.537508 -0.808822
sent_79 -0.454214 0.312201 -0.102353 -0.460351 -0.334422 0.267268 -0.404579 0.982643 0.593970 1.184248 -0.092389 0.619935 0.532512 -0.556008 -0.118286 0.105838 -0.243116 -0.605363 0.287057 0.336628 0.021870 0.255347 -0.332668 -0.634674 0.046821 0.256604 0.019810 0.153569 0.138572 0.812524 -0.121796 0.301638 -0.048465 -0.096916 0.000455 0.223617 0.179747 0.416509 0.210663 0.180804 0.569126 0.705660 -0.062240 -0.423252 0.138990 0.104370 0.086798 -0.165129 0.713565 0.456342
sent_80 -0.374554 -0.935020 0.013729 -0.386017 0.343032 0.135464 -0.536006 0.833204 -0.864768 1.101997 0.112280 0.382565 -0.090433 0.181511 -0.536777 0.894658 0.109522 0.379319 -0.315749 -0.720559 1.176263 -1.205989 -1.124529 -0.293338 0.744975 -0.070107 0.012670 0.529752 -0.002547 -0.759486 -1.178825 -0.145673 -0.017246 -0.351125 0.471349 -0.296648 -0.244222 0.525881 -0.307582 -0.146406 0.177185 0.010744 -0.268752 -0.363667 0.448479 0.146651 0.024836 0.032769 0.468712 -0.681600
sent_81 -0.312576 0.524531 -0.138204 -0.124468 0.017160 -0.136336 -0.370695 0.237879 -0.062114 0.193256 0.109862 -0.401426 -0.557463 0.587215 -0.327758 -0.097338 0.072708 -0.054056 0.250984 0.281720 -0.027883 -0.407476 0.435889 -0.163887 0.288797 -0.034169 -0.170328 -0.070298 0.343461 -0.316861 0.360549 -0.381322 0.071492 -0.174443 0.179417 -0.410697 -0.136332 0.357873 0.052190 0.135516 0.114768 -0.093922 0.010809 -0.076091 0.157892 -0.049485 -0.183082 -0.166547 -0.117263 -0.246985
sent_82 0.343818 -0.009231 0.994760 0.634033 0.975629 -0.223054 0.179363 0.490753 -0.306627 0.245078 -0.354652 0.003778 0.414639 -0.141056 0.265526 -0.114148 -0.304843 0.332688 0.227224 -0.789886 -0.159144 -0.907107 -0.734817 -0.498457 0.369538 0.810912 -0.007050 0.541286 -0.360051 0.001973 -0.272532 -0.506808 -0.215564 0.464162 0.405958 -0.235118 0.087036 0.440506 -0.192196 -0.267931 0.460102 0.330921 0.437523 -0.038892 0.379516 -0.600130 0.147299 -0.428983 0.393323 -0.442133
sent_83 -0.369434 -0.074399 0.331617 0.098952 -0.063570 0.172297 -0.254780 0.180583 0.080399 0.075912 0.024624 0.055275 0.160064 0.385775 0.013925 -0.064450 0.169621 0.003701 -0.116211 -0.077504 -0.393176 -0.267337 0.067690 -0.124227 -0.172916 0.193784 0.157164 -0.327814 -0.053061 -0.320839 0.196164 0.138842 -0.207611 0.481059 -0.310936 0.138766 -0.170368 -0.118403 -0.134875 0.616230 -0.275400 -0.171096 0.181637 -0.302644 -0.034947 -0.077248 0.256371 -0.110082 -0.101901 -0.255357
sent_84 0.540586 0.196434 -0.427048 -0.036297 0.098052 0.481822 0.282492 0.552823 0.463303 -0.138225 -0.595376 0.072057 -0.252049 -0.672716 -0.654360 0.256076 -0.714966 -0.716241 -0.918942 -0.054664 0.468098 -0.183780 -0.403194 -0.368961 -0.166122 0.679360 0.522566 0.752485 -0.095696 0.288625 -0.528602 -0.405372 -0.122187 0.380658 0.018154 0.036726 -0.333237 0.621807 -0.945837 -0.004821 0.074714 -0.513168 -0.027976 -0.198054 0.377196 -0.735368 -0.124394 0.224028 0.996027 -0.031669
sent_85 -0.821535 -0.210316 -0.954235 -0.093063 -0.062610 0.572063 0.002020 -0.292264 -0.376354 0.259039 -0.205397 -0.332968 0.222488 -0.393657 0.414658 0.162958 -0.013987 -0.308055 0.123040 0.418376 0.068074 -0.022093 0.120990 -0.351677 0.023735 -0.110010 0.399703 0.190987 -0.272416 -0.314033 -0.319579 -0.064210 0.382967 -0.022315 -0.115900 0.167395 -0.345367 -0.024028 0.341712 0.262586 -0.047232 0.113627 -0.130923 0.072927 -0.190679 -0.512056 -0.184798 -0.489495 -0.128514 0.276350
sent_86 0.238246 -0.022952 -0.567531 -0.491614 -0.216896 0.643707 0.042304 -0.005709 0.100810 0.690551 -0.116765 0.103266 -0.130680 0.262195 -0.219434 -0.081997 -0.518156 -0.674957 -0.327738 -0.305008 -0.020674 0.227027 -0.058778 -0.427136 0.457538 0.334629 0.244208 0.287883 -0.099631 -0.355200 0.332035 -0.154400 0.039860 -0.302572 -0.218668 -0.250545 -0.029708 0.657493 0.028365 0.187105 0.546486 -0.570150 -0.185762 0.090482 -0.124604 0.474236 -0.115577 0.004666 -0.445799 -0.663083
sent_87 0.415757 -0.011683 -0.231620 0.047220 -0.501615 -0.376456 0.714743 -0.433947 -0.093221 0.033583 -0.252150 -0.194417 0.027564 0.014073 0.233911 0.003675 0.126415 0.247361 -0.174406 0.207919 0.585995 -0.244401 -0.317764 -0.715931 -0.176285 0.019150 0.202191 -0.040325 -0.199614 0.138339 0.146139 0.432644 0.200492 0.455383 -0.009760 -0.046081 -0.523021 -0.054376 0.015693 0.135780 0.011136 0.323228 0.188661 0.037930 0.292825 0.080109 0.464040 -0.142564 0.394465 0.018553
sent_88 0.801788 -0.089362 0.110584 0.062983 0.194938 0.064482 -0.007457 0.685723 -0.168646 -0.130185 -0.119501 -0.119190 -0.080857 -0.038702 -0.224702 -0.201309 -0.418063 0.375479 -0.299933 0.042126 0.035233 -0.601469 0.014890 -0.157548 0.880008 0.353320 0.045801 0.604114 -0.003416 -0.296251 -0.204893 -0.350070 -0.617087 -0.144222 0.294977 -0.018754 -0.538032 0.758992 -0.703772 0.695731 0.535491 -0.283799 -0.011628 0.026825 0.014392 -0.445869 0.083365 0.779783 0.394281 -0.734238
sent_89 0.937869 0.039624 -0.047972 0.317092 -0.440923 -0.410828 -0.753932 1.275982 -0.197517 -0.370722 0.247034 0.471376 0.019245 -0.264106 -0.669184 0.876471 -0.209912 0.312884 -0.420333 -0.319033 0.646533 -0.286834 -0.536105 -0.238600 0.758174 0.280909 -0.654824 0.988980 -0.071276 0.132993 0.073753 -0.919042 -0.022206 -0.223943 -0.335841 -0.688129 0.088207 0.886221 0.410605 0.036311 0.630769 0.243863 0.548105 0.249303 -0.259450 -0.131875 0.281683 1.260223 1.055398 -0.248124
sent_90 0.010211 0.388027 0.147746 0.166478 -0.613592 0.404477 -0.239303 0.568917 0.329172 0.408412 -0.237647 0.335506 -0.297587 -0.365813 0.200614 0.008926 -0.272322 -0.114920 0.414777 -0.172920 0.074508 0.247763 -0.761269 -0.225127 0.037999 -0.084676 0.099707 -0.000939 -0.052238 0.630625 -0.297759 -0.193581 -0.295040 0.086298 0.014324 -0.134337 0.492438 0.654812 -0.594956 -0.017371 0.475731 0.422847 0.002087 -0.552410 0.225928 0.361811 -0.427755 -0.381035 0.565719 0.136092
sent_91 0.600138 0.278974 -0.241670 0.140883 0.380793 -0.194307 0.113825 0.060423 -0.315027 0.342449 -0.203337 -0.505148 -0.690398 0.332641 -0.270910 -0.169753 -0.297785 0.478025 -0.414230 -0.605079 -0.314533 0.208948 -0.164929 0.150540 0.526376 -0.198413 -0.719259 1.115360 -0.271841 0.246545 -0.720060 -0.849910 -0.311988 0.435953 0.142349 -0.265325 0.067235 1.044012 -0.734989 -0.326910 0.260199 0.307728 0.631488 0.225553 0.786366 -0.771096 -0.067001 -0.370485 0.807309 0.085620
sent_92 0.125788 0.153523 -0.348254 -0.634080 0.264768 0.293578 0.364146 0.069941 -0.076331 0.235143 -0.381151 0.177292 0.242078 0.077989 -0.397756 0.050648 -0.338734 -0.677818 -0.606973 0.123820 -0.001875 0.017709 0.365385 -0.072902 0.895173 0.530477 0.140586 0.139979 -0.317257 -0.305852 0.072815 -0.251792 -0.123243 -0.171427 0.255824 0.516810 -0.153015 0.296078 -0.774122 0.535845 0.096676 -0.417487 0.029260 0.318529 0.089762 0.053182 -0.117910 0.372361 -0.261724 0.103066
sent_93 -0.295403 0.311718 0.392987 0.104341 -0.144448 0.112469 -0.411881 0.687337 0.115305 0.777561 -0.521689 0.444641 0.082734 -0.093775 0.196484 -0.006502 -0.268998 -0.044752 0.769958 -0.184148 0.144158 0.158489 -0.438080 -0.080723 0.617622 0.805389 -0.309737 -0.197923 -0.097594 0.554940 -0.359514 -0.222213 -0.443026 0.084937 -0.190664 -0.116187 0.659709 0.785964 -0.567731 0.285142 0.326138 0.615716 0.421044 -0.131919 0.273460 0.180863 -0.319804 0.508011 0.486871 0.086489
sent_94 0.488807 0.200707 -0.068119 -0.181422 0.649557 0.077940 0.466339 0.301414 -0.085515 -0.352474 -0.203300 -0.428272 0.145013 -0.184751 -0.697612 0.591871 -0.597509 0.385126 -0.533162 -0.531295 0.159314 -0.417592 -0.256937 -0.695001 0.381481 0.354056 0.118256 0.387553 -0.043207 -0.135586 -0.478608 -0.117766 -0.215103 0.219204 0.508568 -0.334435 -0.056344 0.447796 0.112824 0.648596 -0.051873 0.030370 -0.038534 0.161846 0.305256 0.496825 -0.223034 0.869423 0.115950 -0.242296
sent_95 -0.268206 0.464927 0.127150 -0.040113 -0.475173 -0.170246 0.011191 0.470710 0.091558 0.249359 -0.164468 -0.049940 0.495746 0.200125 -0.079258 0.372359 -0.361959 -0.365993 -0.161552 0.061154 0.146141 -0.042092 -0.333898 0.138508 0.355170 -0.377487 -0.103718 0.421142 -0.014929 -0.159062 -0.346997 -0.663118 -0.138687 0.533639 0.108986 -0.072265 0.077557 -0.107129 0.404520 -0.244975 0.530538 0.295716 -0.266112 -0.236944 0.170976 -0.132528 0.135357 -0.185545 0.518037 0.269287
sent_96 -0.524203 0.533559 -0.612251 -0.117274 0.352422 0.083228 0.480790 0.277156 -0.439948 -0.087311 -0.480627 -0.291603 0.048793 -0.361453 0.036990 0.009075 -0.652345 0.034149 0.417489 -0.776530 -0.530604 0.232732 -0.358149 -0.666586 0.343726 -0.175127 0.315990 0.445601 0.336452 0.027096 -1.009700 -0.248497 -0.065039 0.505942 -0.321869 -0.050508 0.055894 0.289989 -0.311152 -0.173669 0.013962 0.563635 0.704013 -0.034342 0.679908 -0.334133 -0.513530 -0.167175 0.671167 0.256902
sent_97 -0.190832 -0.174904 -0.270137 0.014221 0.607621 0.177335 -0.283741 0.709028 -0.391931 -0.341938 -0.316268 0.241588 0.111053 -0.645401 0.405474 0.385385 0.008333 0.094901 0.247100 -0.350306 0.029236 -0.608972 -0.966488 -0.600912 0.369739 0.012803 0.051420 0.197058 0.067845 0.715364 -0.272456 -0.849285 -0.079475 -1.201703 -0.313411 -0.501990 -0.323776 0.809893 -0.158780 -0.570276 0.580518 -0.306697 0.400147 -0.393635 0.674671 -0.261009 -0.070708 0.325955 0.804008 -0.005384
sent_98 -0.138304 0.511297 -1.129320 -0.367829 0.806141 0.268686 0.722058 0.036147 -0.981493 0.638606 -0.487452 -0.282194 0.525451 -0.194392 0.737453 0.154474 -0.184004 0.147823 0.119031 -0.031413 1.002316 -0.237649 -0.299853 -1.198433 -0.101251 0.398069 0.546315 -0.149825 -0.380962 0.376490 -1.078881 -0.263562 -0.155479 0.525257 -0.053709 -0.244717 -0.409476 -0.560186 -0.359933 0.068590 -0.232075 0.042540 0.301601 -0.118851 0.706397 -0.761279 -0.025744 -0.359017 0.494131 -0.685884
sent_99 -0.183090 -0.237241 -0.504148 -0.342110 -0.213239 0.386122 -0.126337 0.449363 0.309373 0.424980 -0.183730 -0.276788 -0.220465 -0.473860 -0.044496 -0.144056 0.320160 0.520671 -0.174167 -0.013612 0.423481 -0.279744 0.207075 -0.446250 0.886405 -0.198865 0.323704 -0.009782 -0.360667 -0.216311 -0.108045 -0.502727 -0.400088 -0.453517 0.506831 -0.049853 -0.292875 0.376135 -0.365794 0.834957 -0.016649 -0.210346 0.054224 -0.131668 0.022820 -0.212897 0.419750 -0.093841 0.339392 0.089073
sent_100 0.809163 0.938578 -0.441633 0.251116 0.074463 -0.337260 0.701573 -0.066431 -0.182472 0.869195 -0.387488 0.272743 -0.686984 1.081460 -0.462271 -0.344210 -0.245327 0.182111 -0.625556 -0.270829 0.326561 0.631589 1.083878 0.464468 -0.062102 0.193040 0.151281 1.022243 -0.294507 1.026648 -0.987272 -1.264128 0.054775 0.940274 -0.547096 0.373364 -0.600291 0.812774 -0.805533 -0.476742 -0.581764 -0.111312 -0.234270 0.109670 0.210808 0.233440 -0.808385 -0.371738 0.706191 0.468434
sent_101 0.115359 0.199918 -0.319572 -0.220831 0.421443 0.143883 0.109762 0.794301 -0.163305 0.453732 -0.767128 -0.211409 0.038122 -0.467170 -0.146807 0.476595 0.226153 0.219831 -0.110618 -0.094895 0.245857 -0.527801 -0.792211 -0.734851 0.307237 0.182006 -0.328079 -0.078155 0.124761 0.090717 -0.299478 -0.733131 -0.266444 0.028907 -0.236969 0.112080 -0.079000 0.459537 -0.124983 -0.427338 0.414359 0.371379 0.414919 0.200061 0.247823 0.039578 0.060539 -0.121749 0.774418 -0.486092
sent_102 -0.072630 0.513552 -0.118428 -0.729948 0.683032 0.217740 0.574183 0.156898 -0.132902 0.654062 -0.106976 0.393390 0.683521 0.084131 0.377878 0.163300 -0.246577 -0.014138 0.163743 0.185810 0.371116 -0.043500 -0.151030 -0.472949 0.262205 0.684791 1.204184 0.348193 -0.178439 0.294349 -0.421779 0.730342 0.425464 0.301323 0.277034 0.031965 -0.361850 -0.019406 0.101772 0.411064 -0.325186 0.289102 0.016795 -0.360514 0.253698 -0.408414 0.251940 0.132134 0.037917 -0.481936
sent_103 0.416113 0.508971 0.003249 -0.659318 0.736287 0.931966 -0.129944 0.279668 0.356720 0.590852 -0.696899 -0.046226 0.517531 0.513557 -0.190876 -0.196508 -0.691698 -0.757007 -0.128375 -0.321000 -0.374619 -0.276213 -0.372403 0.020787 0.918920 1.038774 0.520206 0.161898 -0.348206 -0.012003 0.068545 -0.610977 -0.105365 -0.362469 0.182096 0.453985 -0.400416 0.685252 -0.686980 0.310069 0.385686 -0.233376 0.304663 0.061315 0.673196 0.070506 0.062910 0.345579 0.136056 -0.111803
sent_104 -0.359760 0.007258 -0.067018 -0.121115 -0.158298 0.059188 0.132409 0.095395 -0.304430 -0.211869 -0.422006 -0.435051 0.302993 -0.230550 0.200727 -0.289891 -0.354585 0.156831 0.479427 -0.483085 0.155932 -0.176398 -0.028478 -0.197798 0.117868 0.093545 0.080143 0.266316 0.361321 -0.239607 0.035457 0.296775 -0.436621 -0.217651 -0.252575 0.187521 0.090923 0.161611 0.242307 -0.410267 -0.062667 0.460395 0.424902 0.045811 0.393082 -0.281914 -0.262479 0.289458 0.026792 0.101216
sent_105 0.592479 -0.100430 0.129599 0.027220 -0.339936 -0.057420 0.138451 0.162648 -0.047662 0.246604 -0.049047 0.405977 0.415360 -0.029038 0.356851 -0.725456 0.623490 -0.142311 0.941754 -0.489269 0.470759 -0.191509 -0.628951 0.047574 0.437011 0.074748 -0.083968 -0.202949 -0.382989 0.151263 -0.082490 -0.314248 -0.464400 -0.722181 0.140654 -0.534588 -0.080160 1.089332 -0.084446 0.155936 0.296580 -0.065485 -0.252388 0.267433 0.632630 0.763895 -0.017374 -0.132421 0.491997 0.422592
sent_106 0.403028 -0.054071 0.059925 0.094123 0.159008 -0.312117 0.386996 0.277517 -0.420832 0.828584 -0.033383 -0.627398 0.486707 0.493967 0.480798 -0.832423 -0.294315 0.286532 0.133933 -0.631769 1.178180 0.266109 0.060437 -0.390677 0.255934 0.207013 -0.101770 0.031387 0.060138 -0.120431 0.343619 -0.243697 0.527173 -0.054104 -0.216614 -0.504139 -0.565872 -0.048925 0.473147 -0.119299 0.720902 -0.118278 -0.457420 0.043617 -0.021922 0.004545 -0.360230 -0.556451 0.804739 -0.319180
sent_107 -0.589773 -0.486063 -0.027585 -0.271549 0.192126 0.249660 -0.548005 1.035943 -0.471654 0.947652 -0.053691 0.321094 -0.212594 -0.251887 -0.322554 0.991574 0.281341 0.430352 0.009880 -0.218081 0.992840 -1.404531 -0.494332 -0.118660 0.866049 0.053822 0.020458 0.289926 0.205487 -0.585583 -0.250423 -0.490484 -0.162488 -0.214198 0.033681 0.241455 0.001087 0.034935 0.748842 0.102510 0.298979 0.008782 -0.211328 -0.779781 0.117223 -0.359958 0.214920 0.146331 0.542668 -0.201283
sent_108 -0.269728 0.504880 -0.467703 0.013426 -0.228162 -0.413277 -0.636903 -0.167723 -0.126677 0.632735 -0.195302 -0.472584 -0.260098 -0.261973 0.252729 -0.351493 0.022104 0.046409 0.368768 0.051982 0.168571 0.339854 -0.120697 -0.302377 0.134345 0.433492 0.519413 0.350222 -0.145889 0.212695 -0.474333 -0.395751 0.374748 0.023526 -0.124030 0.213345 -0.175945 -0.048859 0.496459 0.494186 0.025651 0.536175 0.082667 -0.368750 -0.502469 0.031693 0.174095 0.086318 -0.314176 -0.453379
sent_109 -0.274239 0.663415 0.516577 -0.730712 0.061237 0.387722 0.362697 0.364770 -0.131190 2.009540 -1.235192 0.761154 0.113594 0.406264 -0.059444 0.084790 -0.475400 0.363407 -0.853719 0.209370 1.253859 -0.618639 0.606221 0.446458 0.408851 0.738735 0.132718 0.338702 0.405958 1.094565 -0.221358 -1.015857 -0.520510 -0.087694 -0.544649 0.621483 -0.749668 0.951766 -0.147030 -0.384731 0.366445 -0.017111 -0.291466 -0.421537 1.076899 0.163592 0.325765 0.093988 0.600549 0.650613
sent_110 0.105576 -0.139097 0.048526 0.208497 -0.472401 0.099613 -0.408683 0.265349 -0.403976 -0.066538 -0.019747 0.108124 0.083611 0.259287 0.029888 0.253728 0.383618 0.025620 0.423822 -0.054354 0.099627 -0.340473 -0.250758 -0.049871 -0.021824 -0.064724 -0.067563 0.069775 -0.000098 -0.013558 0.216547 -0.083651 -0.517463 0.275204 0.133168 -0.430383 -0.081470 0.005952 -0.439978 -0.225421 0.150348 0.079340 0.161348 -0.039510 0.428186 0.176856 0.149360 0.168263 0.337009 -0.219319
sent_111 0.464731 0.197294 0.319903 -0.115239 0.109079 0.440573 0.182117 0.305959 0.224436 -0.373088 0.150466 -0.426998 -0.522541 0.169768 -0.181835 -0.172767 -0.326082 -0.271535 0.097579 -0.132129 0.289243 -0.640455 0.012805 -0.063857 -0.068570 -0.128436 0.052233 0.176862 0.415107 -0.275380 0.237334 -0.369802 -0.392069 -0.142512 0.093925 -0.633126 0.137833 0.036483 0.177692 -0.222651 0.032059 -0.106151 0.215286 -0.154183 0.397517 0.148670 -0.408294 0.126051 -0.287577 0.023694
sent_112 0.586741 -0.107023 -0.467966 0.219560 0.085817 -0.172862 0.087272 -0.275666 -0.207909 0.132996 0.510615 -0.148609 0.400054 0.065106 -0.109273 0.106648 -0.106681 -0.445657 0.194801 0.064669 0.636950 0.497877 -0.128945 -0.403687 0.025758 -0.197477 -0.346661 0.254321 0.280883 -0.111286 0.240977 0.144744 -0.005054 0.200448 0.389066 -0.781929 -0.487922 0.549253 -0.078577 -0.516829 0.338063 0.351502 -0.060213 0.552393 0.160589 -0.181458 -0.132370 -0.367894 0.321724 -0.537064
sent_113 0.678608 1.307607 -0.622829 0.339677 -0.000948 0.075965 0.723519 0.432352 -0.528947 1.285764 -0.442701 0.175840 -0.851563 0.819373 -0.423913 -0.207016 -0.146688 0.262999 -0.629083 -0.095821 0.305234 0.610845 1.232928 1.139431 -0.128417 -0.018695 -0.223366 0.906555 -0.160651 0.715229 -1.015724 -1.466471 -0.248946 1.083916 -0.093280 0.330832 -0.679018 0.368066 -0.875314 -0.388851 -0.334470 -0.295111 -0.332969 -0.072317 0.286432 0.199662 -0.554099 -0.333283 0.403832 0.150964
sent_114 0.248441 0.242977 -0.515602 -0.667353 0.436054 1.070098 0.290675 0.289529 0.449703 0.005759 -0.655545 0.292408 -0.154323 0.037835 -0.609528 -0.155525 -1.055663 -1.266293 -1.387881 0.312160 0.307102 0.094815 0.294120 -0.429740 0.582694 1.220178 0.315462 1.135706 -0.136595 -0.260783 -0.370959 -0.566793 -0.396303 0.173775 -0.086150 0.501905 -0.252208 0.689248 -0.908492 0.248645 0.147122 -0.368910 0.157778 0.339615 0.244989 -0.274117 0.063445 1.182125 0.532734 -0.000230
sent_115 -0.579880 0.680998 -0.323981 0.375069 -0.234644 -0.146891 -0.110465 -0.269947 -0.193193 -0.203519 -0.048776 -0.744982 0.244537 -0.186483 0.227504 -0.206380 -0.517653 0.240913 0.621040 -0.134136 0.767085 0.236913 -0.453479 -0.286882 0.230815 0.824315 0.672335 -0.336976 0.745220 -0.000634 -0.400752 -0.004382 -0.262187 -0.161031 0.616720 0.209400 -0.422572 -0.212085 0.718490 0.641189 -0.193864 -0.068418 -0.462662 -0.261585 0.391973 0.581434 0.335154 0.349830 0.204892 -0.489800
sent_116 -0.005921 0.239297 -0.266373 -0.129237 0.099111 0.316446 0.149110 0.562908 0.016533 0.216404 -0.243823 -0.311488 0.252901 -0.280603 0.144342 0.268912 -0.382707 -0.288286 0.038923 0.339829 0.476792 0.001264 -0.459481 0.009726 0.182586 0.315348 0.196203 0.058561 0.284177 -0.047313 -0.354764 -0.404928 -0.030943 -0.569819 0.671322 0.106180 -0.217150 0.467159 -0.124210 0.043634 0.562546 0.097181 0.045299 0.182799 0.222332 -0.081245 -0.407997 0.173083 0.249219 -0.104046
sent_117 0.401198 -0.272063 0.541797 -0.039963 0.856700 -0.185201 -0.149073 -0.304552 0.048850 0.353267 -0.479748 -0.172503 0.534747 -0.217621 0.394230 0.255500 -0.138375 0.420530 0.153496 -0.494164 0.608382 -0.430063 -0.303172 -0.697975 0.959300 0.580583 -0.048349 -0.146825 -0.196243 0.235993 0.084065 -0.015077 -0.009775 -0.459588 0.255812 -0.188761 0.146052 0.830948 0.133250 0.346502 0.168656 0.793281 0.354705 0.046150 0.600215 -0.218817 0.565922 0.192636 -0.000512 -0.139889
sent_118 -0.500890 0.408011 0.720938 0.189342 0.005533 -0.531988 -0.206666 0.946327 0.123096 0.300665 0.282824 0.927375 0.196414 0.049460 0.128453 0.213481 0.031415 0.054938 0.559786 0.076023 -0.275130 -0.370362 -0.953405 -0.585657 1.221306 0.508704 0.225032 0.279558 0.009532 0.110210 -0.224012 -0.217771 -0.102014 -0.495148 0.057401 0.152464 0.138194 0.854163 -0.787885 0.397281 0.114397 0.640279 0.147448 -0.649314 0.502256 0.076055 0.207978 0.200708 0.785007 0.089080
sent_119 0.586256 -0.165113 0.144609 0.021981 -0.212240 -0.042473 0.315642 -0.101785 -0.071708 -0.055412 -0.011875 -0.215288 -0.043558 0.334892 0.095645 -0.252126 -0.146416 0.083096 -0.120784 -0.292867 -0.118680 0.142013 0.366653 -0.350767 -0.056218 -0.201307 -0.174741 0.041369 0.279163 0.323376 0.124948 0.050167 0.104550 0.157436 -0.012199 -0.485721 -0.039654 0.097438 -0.077471 -0.434743 0.031424 0.272114 0.350732 0.470809 0.136552 0.082595 -0.647602 -0.268481 -0.250024 0.290270
sent_120 -0.056220 0.254635 0.651525 0.296779 -0.069267 -0.343437 0.053365 0.519779 0.000055 0.145939 0.132114 0.283624 0.204756 0.048878 -0.079674 0.151485 -0.255027 -0.351939 0.223617 -0.580117 -0.201212 -0.334517 -0.431768 -0.481487 0.604912 0.169726 -0.071134 0.197794 0.142765 0.373632 0.419107 -0.210153 -0.037013 -0.385282 0.331257 -0.028845 -0.177109 0.380537 -0.419289 0.328199 0.209763 -0.557936 -0.044637 -0.356084 0.631615 0.516661 -0.445523 -0.127273 0.351568 0.248147
sent_121 -0.261715 0.371833 -0.161502 -0.003307 0.450749 -0.074342 -0.094086 0.436336 -0.488703 0.346734 -0.688355 0.462197 0.509441 0.011104 -0.341565 0.185557 -0.591073 -0.438353 0.195989 -0.383027 0.073605 -1.054872 -0.217156 -0.668336 0.473829 0.346769 0.508753 0.270504 0.807871 -0.074339 -0.212528 -0.422138 0.210377 -0.013435 -0.490209 -0.007321 0.362265 0.550418 -0.198037 -0.355455 0.177098 -0.150849 0.467112 0.234062 0.395085 -0.454380 0.077142 0.056867 0.887355 -0.262741
sent_122 -0.569168 -0.058968 -0.720297 -0.266921 0.163245 0.312532 0.108088 -0.330344 -0.135448 0.514514 0.249365 0.060638 -0.007411 -0.288291 0.709084 -0.042489 0.190841 -0.305941 0.430104 0.307709 0.440353 -0.072870 0.005810 -0.517841 0.264270 0.157356 0.166321 -0.278377 -0.115952 0.398976 -0.056693 -0.134359 0.112930 -0.300689 -0.165240 -0.077294 -0.498644 0.553411 0.053724 0.451451 -0.038874 0.097228 -0.451131 0.242091 0.259049 -0.474246 0.150574 -0.310196 -0.192850 0.101052
sent_123 -0.347036 0.392627 -0.090692 0.077325 -0.046746 0.512062 0.019389 -0.725931 -0.113648 -0.256237 0.697390 -0.268628 -0.345916 0.287999 0.211669 -0.104526 -0.080867 -0.251423 -0.078060 0.418902 0.236452 0.182270 -0.090301 -0.179257 -0.149969 -0.107792 0.416144 0.148236 0.664791 -0.188473 0.362139 -0.618971 0.299688 -0.425615 0.859016 -0.366387 -0.801876 -0.004785 0.823718 -0.824600 -0.315277 0.235067 0.098866 0.256005 0.355960 -0.093833 0.151861 -0.302366 -0.791466 -0.393178
sent_124 1.181265 0.277034 -0.317307 0.426268 0.465449 -0.067710 0.768153 0.225708 -0.001152 -0.349940 -0.182597 -0.264239 -0.659579 -0.198210 0.360284 -0.289710 -0.645727 0.308970 -0.839769 -0.498386 -0.830973 -0.235173 -0.345146 0.658415 0.256894 0.338908 -0.236048 1.240772 -0.040369 -0.318435 -0.797133 -1.138734 -0.019516 0.250424 -0.276420 -0.112911 0.175343 0.594147 -0.315540 0.191927 0.422340 0.027278 0.556972 0.133066 0.505631 -0.531826 -0.052580 0.435224 0.671765 -0.091910
sent_125 -0.060332 0.178438 0.006859 0.301744 0.261440 0.254507 0.150100 0.076741 -0.163356 -0.115954 0.087020 0.159155 -0.412510 -0.058308 0.026139 -0.099235 -0.384200 0.150091 -0.392151 0.167985 -0.061207 0.020338 -0.192686 -0.197511 -0.038393 -0.162145 0.531154 0.113319 0.060051 0.047775 -0.077348 -0.156191 0.108811 -0.025687 -0.100368 0.140178 -0.100482 0.039422 0.086480 -0.282773 0.033765 -0.386222 -0.065561 0.019462 -0.036273 0.127031 -0.395861 -0.043365 0.080152 0.089455
sent_126 0.204526 0.294148 -0.076318 0.435988 -0.241514 -0.165843 -0.597861 0.376399 -0.168367 0.338895 -0.340775 -0.439701 -0.280303 0.204190 0.068148 -0.413625 -0.186065 -0.035571 -0.264304 -0.213041 -0.412134 -0.322675 -0.080559 -0.301863 0.227341 -0.593469 0.224820 0.262186 -0.076825 0.102816 0.328387 -0.805241 0.254837 0.038412 0.281897 -0.487752 0.246970 0.433613 -0.020498 0.030386 0.268578 0.201481 0.180741 0.048399 0.065069 -0.038843 0.044991 0.068853 0.454529 -0.136021
sent_127 -0.102956 -0.545903 0.156712 0.033151 -0.072070 -0.281221 0.131831 -0.034068 0.256674 -0.375457 0.148370 0.166931 -0.117039 -0.005242 -0.269097 0.146244 -0.196619 -0.274991 -0.475954 0.084847 0.048040 -0.050730 0.596912 -0.186238 0.379687 -0.357740 -0.074744 0.124642 -0.266974 -0.080852 0.579140 0.157631 0.047010 -0.363894 -0.142749 -0.006077 0.182591 0.074814 0.004813 0.033386 0.099162 -0.131354 -0.030391 -0.055582 -0.129065 0.084381 -0.461440 0.120434 -0.090729 0.428654
sent_128 0.406384 -0.670062 -0.007853 0.662605 -0.402255 0.042844 -0.474259 0.089940 -0.238675 0.666175 -0.221491 0.442375 0.401546 0.399714 0.021869 0.381314 0.044666 -0.185209 -0.613976 0.182862 0.395894 0.168754 -0.585458 -0.376859 0.498781 0.003556 0.535186 0.547947 -0.236986 -0.339551 -0.531718 -0.213214 0.032831 0.013868 0.770097 -0.313839 -0.055407 0.095541 -0.400760 0.272028 -0.106051 0.371704 -0.352470 0.127221 0.219557 0.598092 0.533479 -0.009002 0.784650 -0.555137
sent_129 0.037246 0.278466 0.167494 0.011440 0.334559 0.011492 -0.414167 0.625848 0.057290 0.288228 -0.233159 0.181579 0.165954 -0.213653 0.320681 -0.592464 0.309668 -0.065204 1.316715 -0.543796 -0.011848 0.150683 -0.533401 -0.441509 0.317229 0.541078 -0.107757 -0.055035 -0.280102 0.334240 -0.225745 -0.024071 -0.447723 0.188149 0.153321 -0.371677 0.159035 0.877407 -0.296012 0.448450 0.293187 0.564076 0.291263 -0.327738 0.700004 -0.091011 -0.465820 0.053201 0.786267 -0.048886
sent_130 0.102710 -0.153815 0.179041 -0.068232 0.849695 0.086822 -0.263175 0.499594 0.048719 0.020665 -0.284398 0.093580 0.010459 -0.386618 -0.069341 -0.102363 -0.305168 0.210776 -0.115734 -0.197701 0.374100 -0.396647 -0.194743 -0.544158 1.247278 0.273862 0.354829 0.644755 0.044371 0.602816 -0.306247 -0.891358 0.191762 -0.371209 0.020737 -0.226994 -0.020106 0.600244 -0.218679 0.302894 0.158019 0.484435 0.444531 -0.241884 0.232620 -0.450604 0.316739 0.527632 1.140544 -0.161600
sent_131 0.341142 -0.082473 -0.421817 -0.639184 -0.085744 0.347613 0.212567 0.049589 0.008294 0.257324 -0.108842 0.101063 0.156878 0.385984 -0.805341 0.139550 -0.738202 -0.224960 -0.249519 0.131328 0.084409 -0.134177 -0.090276 -0.067609 0.484106 0.784626 0.376501 0.052331 -0.013157 -0.235111 0.442743 -0.228394 -0.206203 0.016835 -0.078489 0.170537 -0.382329 0.745804 -0.263547 0.617446 0.169384 -0.417527 0.074965 -0.003926 0.318967 0.371660 -0.462121 0.591843 -0.077844 -0.189863
sent_132 -0.732761 0.085909 -0.615436 0.007525 -0.169913 0.640953 0.541348 0.402792 -0.030228 0.208609 -0.150538 0.126775 0.066940 -0.060092 0.372988 0.032031 -0.012530 -0.655081 0.713442 0.227806 0.448359 -0.084059 0.235358 -0.298765 0.524123 0.319033 0.553640 -0.028378 0.178052 -0.063742 -0.360867 0.016667 0.212509 -0.109095 0.203154 0.425455 -0.487453 -0.227972 0.183224 0.326137 -0.455650 -0.138297 -0.494928 0.056724 0.098994 -0.522893 0.031898 -0.100381 -0.476372 -0.117528
sent_133 0.615393 -0.214486 0.173768 0.512326 -0.366815 -0.497682 0.900365 0.105906 0.603508 0.141419 0.289359 0.153938 -0.386791 0.398504 -0.254782 -0.118865 -0.541779 -0.184380 -0.281505 0.310750 -0.450316 -0.000923 0.587683 0.013677 0.272140 0.127485 -0.208227 -0.068016 0.366927 0.158749 0.710634 0.187650 0.518346 -0.454846 -0.010825 -0.052425 -0.216424 0.005399 0.016189 -0.117220 0.352320 0.093163 -0.932701 0.084217 -0.169845 0.063307 -0.329988 -0.137594 -0.292110 0.147287
sent_134 -0.254851 -0.109440 -0.095847 0.065937 -0.014778 0.389104 -0.282813 0.573634 0.183969 0.446035 0.233047 -0.336135 -0.266771 -0.449909 0.322865 -0.523442 -0.231754 0.047622 0.162410 -0.804608 0.127711 -0.039345 -0.047502 -0.546070 0.418504 0.525819 0.380636 -0.046682 -0.271292 0.024412 -0.183435 0.044603 -0.444331 -0.406218 0.089944 -0.269022 0.198431 0.611487 -0.699837 0.454454 0.296118 0.202001 0.393753 -0.638559 0.312560 0.229654 0.295804 -0.011300 0.360853 -0.011756
sent_135 -0.030352 0.314600 0.144046 0.674865 0.311352 0.087868 0.093586 -0.059631 0.045079 -0.402409 0.348674 0.147906 0.094566 0.014927 0.158011 0.330174 -0.410721 0.141224 0.116707 -0.204742 -0.294569 -0.537454 0.011921 0.216694 -0.057068 -0.041693 -0.179574 -0.072463 0.266689 0.063639 0.230919 0.025083 -0.075093 -0.012322 -0.216852 -0.631254 0.285792 0.609041 0.022297 -0.364493 0.615959 0.016720 0.535471 -0.156136 0.370199 -0.143313 0.007337 0.368567 -0.020309 0.225980
sent_136 0.685208 0.622884 -0.020515 0.540246 0.922742 -0.226908 -0.335306 0.496101 0.110834 0.206072 0.039591 0.027228 -0.001109 -0.785101 -0.291312 -0.172909 -0.327106 0.581491 -0.744436 0.401430 -0.177312 -0.509714 0.337020 -0.287214 0.762386 0.713142 -0.140865 0.449025 0.100685 0.981075 -0.017675 -0.632834 -0.049825 0.078901 0.096369 0.070648 -0.047076 0.195600 -0.057270 -0.159794 0.805390 0.445885 0.014019 -0.163220 -0.049912 -0.295376 0.207059 0.443855 0.726493 0.220392
sent_137 -0.260715 0.187724 -0.834150 -0.281414 0.519008 -0.286418 0.429171 -0.247326 -0.999021 0.470867 -0.150927 -0.483386 0.145876 -0.415992 0.092358 -0.306980 0.273227 0.904792 0.050934 0.057337 0.511190 -0.279021 -0.328077 -0.613030 -0.253976 1.054176 1.059854 0.201386 -0.150521 0.628907 -0.837362 0.079417 0.240372 0.493285 0.087690 0.134070 -0.771966 0.139413 0.371836 1.152213 -0.123454 0.718500 -0.186677 0.043508 -0.217779 -0.321059 0.369420 0.050024 0.487448 -0.876630
sent_138 0.196703 -0.552183 0.212873 -0.104663 0.307816 -0.156323 -0.229864 0.679218 -1.005394 -0.124371 -0.548251 0.427555 0.120156 0.296671 0.057896 0.676726 0.768356 0.570556 -0.336712 -0.137910 0.129801 -0.191277 -0.327980 -0.628242 0.427913 0.242710 -0.399208 0.393752 0.129294 0.281433 0.721460 -1.073610 0.257131 -0.676457 0.123135 -0.201937 0.211403 0.981350 -0.429280 -0.205933 -0.054848 0.083600 0.554967 0.006878 -0.328069 -0.139337 0.696957 0.235435 0.952086 -0.500127
sent_139 0.299330 0.346711 -0.541569 0.128770 0.506948 0.210663 0.472305 0.243155 -0.406102 0.334521 -0.266893 -0.658016 -0.026622 -0.006412 0.190561 0.031574 -0.336422 0.226226 0.603710 -0.513277 0.224081 -0.251115 -0.535724 -0.167797 0.136049 0.057435 -0.011404 0.226974 -0.044113 -0.306132 -0.501591 -0.005624 0.018094 0.393769 0.368139 -0.177256 0.570025 0.091253 0.010619 -0.272924 0.203606 0.173812 0.596019 0.014669 0.524138 -0.527935 -0.216878 -0.029512 0.022001 -0.187613
sent_140 0.355801 0.095981 -0.285909 -0.007435 -0.050736 -0.008681 0.281150 0.136546 0.262060 0.269499 0.251380 -0.167407 -0.609491 0.138046 0.052780 0.210208 -0.520378 -0.312221 -0.223276 -0.300901 -0.138301 0.315836 0.440320 0.067922 0.039591 0.034472 -0.080658 -0.046525 0.223379 -0.017401 0.591048 -0.186985 -0.006839 -0.267247 -0.118023 -0.170757 -0.173418 0.204961 0.326863 0.019083 0.043845 0.024483 0.044236 -0.086962 0.230105 0.268435 -0.202890 -0.157974 -0.263043 0.275680
sent_141 0.886124 0.040120 -0.062468 -0.079941 -0.348201 -0.203204 0.266597 0.199299 -0.248947 0.614413 -0.215049 0.490465 0.207272 0.262407 -0.051166 -0.421486 -0.009141 -0.191544 0.701634 -0.945204 0.385081 -0.011016 -0.484282 -0.117023 0.462352 0.328461 -0.142317 -0.102341 -0.575050 0.206502 -0.172757 -0.069654 -0.083900 -0.204132 -0.018783 -0.338894 0.354286 0.542542 -0.067283 -0.009128 0.274126 0.446171 -0.106594 0.404222 0.382649 0.048761 0.015078 -0.006571 0.411110 0.560766
sent_142 0.058358 -0.619322 -0.127163 0.224865 0.067290 0.463378 0.453560 0.259342 0.165505 -0.299639 -0.301353 -0.254807 -0.255507 -0.028818 0.182235 -0.024776 0.418116 -0.675659 -0.310038 -0.395490 -0.703878 0.195542 0.072217 -0.421863 -0.379822 -0.499825 0.129393 -0.241202 -0.176475 -0.112217 0.760264 0.021247 0.387890 -0.002689 -0.471794 -0.341759 -0.313483 0.272465 0.190356 0.026826 -0.306816 -0.527761 0.129458 -0.311158 0.346622 0.108433 -0.028722 -0.558394 0.369145 0.150554
sent_143 -0.130656 0.128447 0.285502 0.102789 0.400257 -0.078612 0.028666 0.257544 -0.035970 0.196625 -0.108377 -0.325505 0.318218 -0.558740 0.649684 0.207553 0.153909 0.556641 -0.052419 -0.578079 0.701717 -0.554738 -0.223536 -0.178519 -0.033331 0.260769 0.121738 -0.291592 0.121348 0.081005 -0.020995 0.132160 -0.082145 -0.566997 0.324951 -0.103411 -0.050892 0.041892 -0.042900 -0.080893 0.499566 -0.208079 -0.067374 -0.149936 0.289489 -0.260850 -0.077632 0.288377 -0.015918 -0.147120
sent_144 -0.354373 -0.011615 0.699804 0.548467 -0.583991 -0.255253 0.104229 0.067245 -0.098802 1.565310 -0.844165 0.728334 0.557353 0.640096 0.384680 0.098017 0.581403 0.012748 -0.136740 0.419774 0.424194 -0.436771 -0.339338 -0.133702 0.195963 0.141567 0.392209 0.421467 0.794362 0.255246 -0.674632 -0.823103 0.235422 0.268854 -0.149063 -0.217443 -0.584545 -0.294068 -0.276232 -0.400826 -0.402111 -0.126391 -0.275967 0.915377 0.732153 0.145567 -0.439209 -1.009977 1.114843 -0.027901
sent_145 -0.291970 -0.254104 0.442778 0.143898 -0.502899 -0.569140 0.296892 -0.085085 -0.164416 0.188745 -0.531944 -0.090503 0.554477 0.277200 0.215252 -0.366677 0.017107 0.560051 0.248890 -0.203246 0.822206 -0.174473 0.408494 -0.309814 0.426674 -0.253926 -0.290090 0.178704 0.178235 0.380908 -0.331928 -0.553148 0.104663 -0.708070 -0.071627 -0.290138 -0.050594 0.180751 -0.153770 0.240499 0.772668 0.294197 0.301316 0.114667 0.571787 -0.481534 -0.225089 -0.156274 0.514613 0.023671
sent_146 -0.107488 0.038157 -0.342133 -0.086172 0.315564 -0.436779 -0.032212 0.098860 -0.289758 0.164902 0.095218 -0.390005 -0.355688 -0.309656 0.131619 -0.462676 0.138295 0.127250 0.272756 0.188495 0.112632 0.065940 0.017574 -0.375944 -0.003052 0.387210 0.687618 -0.103572 -0.556675 0.542358 -0.699711 -0.370205 0.351580 -0.232024 0.068107 -0.015179 -0.498149 0.166477 0.340513 0.781513 0.015743 0.581620 0.341577 -0.074306 -0.088461 0.056306 -0.162577 0.448740 -0.063649 -0.250710
sent_147 0.673590 -0.250606 -0.446237 0.257354 -0.445928 -0.268279 -0.475291 1.162811 -0.167848 -0.286505 0.141820 0.292908 0.241461 -0.439855 -0.725644 0.702046 -0.028326 0.215161 -0.150384 -0.182477 0.538207 -0.131123 -0.897024 -0.275261 0.596260 0.478420 -1.103918 0.878202 -0.250401 0.289200 -0.397709 -0.960656 -0.098230 -0.326904 -0.158469 -0.674155 -0.511273 1.295461 -0.038202 -0.119959 0.628658 0.449308 0.457230 0.484834 -0.423163 0.081078 0.179808 1.182623 0.856654 -0.403587
sent_148 0.967229 -0.478050 -0.198051 0.013136 -0.282710 -0.530582 -0.455826 1.112946 -0.067580 -0.391909 -0.139658 0.020447 0.317266 -0.182186 -0.368615 0.682614 -0.477346 0.730296 -0.489792 -0.049409 0.853342 -0.474055 -0.830187 -0.505619 0.439421 0.159294 -1.132959 0.784253 0.174481 0.326938 -0.167758 -0.981866 -0.182021 -0.478382 -0.342041 -0.883892 -0.276225 1.022904 0.416470 -0.403981 0.816954 0.372115 0.176391 0.863830 -0.606470 -0.196063 0.461818 1.206590 1.011245 -0.354734
sent_149 0.091365 0.015491 -0.376241 0.096050 0.074805 -0.358040 0.040026 -0.152192 -0.000092 -0.179914 0.084632 -0.400592 0.065253 -0.232231 -0.054299 0.267050 -0.349447 0.214431 -0.206388 0.049129 -0.121949 -0.273490 -0.115372 -0.113333 0.436535 -0.118550 0.008388 -0.120566 0.116811 -0.575305 0.585303 -0.238611 0.266404 -0.841025 0.429628 0.038362 0.191830 0.131746 -0.219178 0.075964 0.339930 -0.096594 0.045999 -0.057230 0.119215 0.085859 0.088128 0.137831 -0.170397 -0.123600
sent_150 -0.155206 0.118567 0.349994 0.290112 0.142090 0.383792 -0.208190 0.477713 -0.048907 0.256654 0.387636 0.064997 0.609047 -0.588118 0.227428 -0.245159 -0.278468 0.564924 -0.110636 -0.077697 0.159446 -0.658433 -0.506828 -0.432017 0.655043 0.385248 -0.041411 0.285301 0.416557 0.281558 -0.605774 -0.124748 -0.496760 0.188396 -0.092693 0.181991 0.007531 0.092109 0.227125 0.185195 -0.228444 0.644539 -0.062352 0.418143 0.216291 -0.527343 0.125211 -0.046896 0.734885 -0.123700
sent_151 -0.098909 0.440383 -0.098963 0.503077 0.668521 -0.028834 0.470002 -0.274924 -0.105473 1.198148 -0.820925 0.764737 1.001679 0.327547 0.340629 0.364876 0.132693 -0.820910 -1.180570 0.117334 0.585887 -0.363221 -0.053105 -0.540736 -0.060528 0.245115 0.779469 0.538973 -0.174643 0.015319 -0.372752 -0.222844 0.085267 1.221647 -0.519520 0.146823 -0.363378 -1.157065 -0.657598 -0.637931 -0.314213 -0.070403 -0.134361 0.130145 0.676575 0.194630 -0.095942 -0.331587 0.830806 -0.554675
sent_152 0.951036 -0.263687 -0.515631 0.028283 -0.496104 -0.527568 -0.405254 1.100647 -0.066732 0.028854 0.335834 0.102825 0.125187 -0.337711 -0.544315 0.527633 -0.138476 0.581723 -0.111684 -0.234489 0.690002 -0.551863 -0.538471 -0.128092 0.744685 0.173924 -0.667402 1.023871 -0.199706 0.228578 -0.030634 -0.938138 0.089451 -0.037057 -0.335493 -0.499301 -0.700566 1.081847 0.496010 0.097409 0.829218 0.317489 -0.024171 0.778787 -0.611069 -0.007366 0.604129 0.759181 0.520052 -0.503448
sent_153 -0.144565 -0.231840 -0.218330 -0.648667 -0.411145 0.614753 0.094738 -0.046447 0.332076 0.624154 -0.446617 0.062739 0.328842 -0.063375 0.374498 -0.169038 -0.498702 -0.445426 -1.326302 -0.222542 0.179171 -0.247863 -0.303580 -0.935213 0.350675 0.467984 0.266838 0.672903 0.006017 -0.155467 -0.097886 -0.242298 -0.461712 -0.048266 0.074890 0.257432 0.080527 0.657903 -0.545178 0.345254 -0.301692 0.325700 -0.086213 0.100999 0.574519 0.034537 -0.387511 0.060377 0.467473 0.132759
sent_154 0.135303 0.101447 0.070938 -0.075513 0.552423 -0.139915 -0.274015 -0.004052 0.184519 0.165297 -0.103848 -0.062941 0.361756 -0.108537 -0.197892 0.306414 0.156945 0.158347 -0.106327 -0.334989 0.529955 -0.710803 0.262666 -1.038006 0.640591 0.115474 0.202360 0.126490 -0.001795 -0.115782 -0.143586 -0.337797 -0.145976 -0.725012 0.103155 -0.095135 0.318465 1.120290 -0.180217 0.522523 -0.000493 0.733986 0.290945 -0.293940 0.243771 0.143312 0.760650 0.457688 0.270921 -0.057333
sent_155 -0.192944 -0.251522 0.411566 0.602767 0.522212 -0.621651 -0.124923 0.500414 -0.295284 0.204023 -0.750421 0.374167 -0.063233 -0.411592 -0.539457 -0.094425 0.106376 0.322824 0.026761 0.421023 0.122557 0.134003 0.061611 -0.449518 1.167028 0.551102 0.916486 0.509809 -0.542502 0.418242 -0.657186 -0.920458 0.368367 -0.065868 -0.080307 -0.090152 -0.895999 0.074084 0.398763 1.033717 -0.229106 0.356150 -0.207781 -0.534173 -0.039021 -0.403991 0.101237 0.302020 0.558724 -0.210919
sent_156 -0.020038 0.276613 0.140440 0.059158 -0.145526 -0.271922 -0.038128 -0.027719 0.430891 -0.363243 0.042978 -0.182164 -0.187613 -0.200068 -0.032512 -0.078713 0.082374 0.017997 -0.147817 -0.160574 -0.426145 -0.070165 0.241480 0.294322 -0.222679 -0.066285 -0.043419 -0.138304 -0.040325 -0.209169 0.429354 -0.340901 0.101465 -0.234357 0.552274 -0.113937 0.114556 0.065288 0.186178 0.180407 -0.146459 -0.413904 0.140703 0.014297 0.034061 0.324890 -0.119819 0.044372 -0.431630 0.362933
sent_157 0.164484 0.367358 -0.106878 -0.206647 0.323040 0.462508 -0.149915 0.597085 -0.393186 0.462853 -0.378600 -0.320001 0.066234 0.097733 0.289551 -0.218660 0.078511 0.070556 -0.053150 0.183797 0.276587 0.083452 0.010158 0.224383 0.171957 -0.361625 0.482318 -0.194650 0.360796 0.181294 0.079422 -0.142541 -0.375406 -0.928088 0.198359 -0.082006 0.017401 0.169312 -0.117270 -0.294070 0.687671 0.279830 0.120717 -0.222674 0.355456 -0.145670 -0.329262 -0.047834 0.551185 0.330631
sent_158 0.043121 -0.068696 -0.267169 0.027076 0.420112 0.360936 -0.173388 0.424811 -0.014534 0.070160 -0.153117 0.335136 -0.018520 -0.045966 -0.175376 0.379146 -0.208530 -0.347228 -0.140974 -0.050969 -0.170754 -0.089438 -0.107600 -0.634889 0.287522 0.023040 0.354666 -0.018628 -0.429013 0.169384 -0.362894 -0.133843 -0.181469 0.040100 0.201360 -0.072896 0.472320 0.233328 -1.157184 0.085817 -0.117032 0.148159 0.127644 -0.667916 0.346793 -0.321098 0.203933 -0.146354 0.379340 0.006733
sent_159 -0.220059 -0.270919 0.252067 -0.039962 -0.065395 -0.157561 -0.173251 0.249871 0.099448 -0.126627 0.081833 0.270231 0.376378 0.197456 0.173684 0.416481 0.168744 -0.013809 -0.489672 -0.068034 0.414260 -0.388494 -0.008910 -0.574260 0.019972 0.071183 -0.388463 -0.202445 -0.065842 -0.019769 0.195802 -0.300412 0.345341 -0.015617 -0.080759 -0.000484 -0.060593 0.175768 0.012928 -0.063514 -0.054529 -0.066524 0.276769 0.128976 -0.125702 -0.101367 0.256458 0.184887 0.213272 0.343015
sent_160 -0.428032 0.122451 -0.769602 -0.353228 0.431423 0.104688 0.182293 0.341397 -0.175721 0.388879 -0.029907 -0.296858 -0.186117 -0.264968 -0.065971 -0.407608 0.694883 0.340960 0.227157 -0.341011 0.167004 0.077671 -0.649164 -0.514104 0.243676 0.386711 0.222555 0.097639 -0.022461 0.183622 -0.803277 -0.243722 0.199610 0.044968 0.323531 0.039287 -0.350506 0.002396 0.540862 0.894407 -0.359727 0.054553 0.352879 0.144135 0.091743 -0.133522 0.402721 0.092240 0.372205 -0.291388
sent_161 0.121042 -0.201448 -0.018391 0.099317 0.469568 0.071183 0.249375 0.072582 -0.203957 0.544436 -0.367460 0.100343 0.449898 -0.046251 0.209661 -0.406210 -0.116888 -0.043121 0.123093 -0.352078 0.320668 -0.153954 -0.288921 -0.449658 0.224267 0.019063 0.178246 0.080504 -0.158571 -0.085093 -0.460917 -0.532897 -0.002879 -0.190018 0.009384 0.055383 -0.384001 0.332306 -0.631593 -0.076145 0.203487 0.021146 -0.039695 0.156578 0.115051 -0.267474 -0.088260 -0.231521 0.608092 -0.346619
sent_162 -0.591303 -0.136879 0.671425 0.473611 -0.067248 -0.287700 -0.164824 0.826268 0.046519 0.223517 -0.222358 0.562271 -0.140392 0.356995 0.025148 0.418411 0.060394 0.107308 1.006358 0.185194 -0.260131 -0.251813 -0.732610 -0.612110 1.469440 -0.210048 0.272446 0.414882 -0.160716 -0.410714 -0.506765 -0.637566 -0.185472 -0.574964 0.206193 -0.037629 0.168231 0.616582 -0.577960 0.261359 0.008918 0.466524 0.470353 -0.772676 0.486754 -0.373287 0.155037 -0.190746 0.478731 -0.369947
sent_163 0.260779 0.576351 0.089918 -0.193433 0.623550 0.284862 0.025672 0.394716 0.038697 0.301710 -0.269239 0.039053 -0.219281 -0.316541 -0.098252 0.074477 -0.266930 0.345015 -0.300395 -0.205169 -0.023482 -0.357740 -0.343808 -0.025843 0.164764 0.139977 0.222774 0.359268 0.396069 0.256361 0.244303 -0.231365 0.046569 -0.557291 0.278997 0.514267 0.333758 0.529167 0.389436 -0.224983 -0.144200 0.305088 0.226846 -0.076257 0.349238 -0.280407 -0.128894 -0.174462 0.020816 0.267937
sent_164 0.271518 -0.290131 -0.200560 0.073659 -0.237146 -0.052488 -0.410209 0.293601 -0.044925 0.322325 -0.451221 -0.208978 -0.131167 -0.351204 -0.242737 0.017182 -0.209343 0.164296 -0.119084 -0.108548 0.199090 -0.044564 -0.448213 -0.248697 0.159685 -0.246217 0.582772 0.065344 0.046574 0.066692 -0.293079 0.177559 -0.300105 0.243639 0.242769 0.106823 -0.268683 -0.190987 0.154180 0.421281 -0.079101 -0.293853 -0.052201 -0.228844 0.206540 0.664106 0.116876 -0.113072 0.620917 0.037189
sent_165 -0.489370 -0.260989 0.170614 0.587187 -0.238531 -0.115748 0.322830 -0.073485 -0.002849 -0.097234 0.259985 -0.053788 0.258547 0.268858 -0.030096 0.182447 -0.443021 -0.299136 -0.251362 -0.291725 0.222774 0.205286 0.240324 -0.580325 0.053155 -0.314016 0.039934 0.328035 0.027429 -0.052118 -0.021704 -0.022297 0.215056 0.175562 0.664115 -0.288185 0.249053 0.122695 0.228736 -0.501725 -0.133883 -0.243074 0.157220 -0.486493 0.319656 -0.068598 -0.060210 -0.201014 0.131352 0.703805
sent_166 0.239024 -0.188699 -0.078011 0.222275 -0.300288 -0.576572 -0.290909 0.059724 0.038757 0.398206 0.357354 0.307974 0.184578 0.528362 -0.333220 0.133115 -0.450144 -0.321331 -0.598073 0.175699 0.213158 0.561344 0.103638 -0.050622 0.419299 -0.344030 0.164374 0.137261 0.111043 -0.197016 0.305573 -0.201227 0.495153 0.021957 0.421598 -0.201847 -0.060743 -0.688209 0.053981 -0.107356 -0.221264 -0.139022 -0.083606 0.060115 -0.383746 0.228282 0.259803 -0.046451 0.318292 -0.470162
sent_167 -0.046909 0.395331 0.173939 0.249827 -0.340312 -0.520598 0.473329 0.290314 0.064087 0.396313 0.247320 0.224185 -0.885993 0.465490 0.053482 -0.213784 0.160035 -0.031745 0.112922 -0.067659 -0.009798 0.102834 0.447892 0.625856 0.132003 -0.390761 -0.282220 0.282548 0.311895 0.113008 -0.454916 -0.394111 0.198108 0.414599 -0.163025 0.080434 0.008481 0.782601 -0.163573 -0.003206 0.099010 -0.145623 -0.225886 -0.478591 0.320492 0.158190 -0.257624 -0.288635 0.393326 0.491273
sent_168 -0.482954 0.151108 -0.516694 -0.256872 0.321846 -0.365366 0.075683 -0.207007 -0.429164 0.460709 -0.417592 -0.552275 -0.416274 -0.243034 0.391063 -0.383528 -0.075758 -0.017388 0.299615 -0.212810 -0.000332 0.203992 0.236816 -0.233645 0.134119 0.350964 0.439388 -0.282447 -0.149278 0.245770 -0.505727 -0.054082 0.002907 -0.529534 0.228972 0.434138 -0.176996 0.129898 0.514472 0.353233 -0.215911 0.172537 -0.158713 -0.075442 0.049509 0.138829 0.295093 -0.297102 0.097216 -0.106210
sent_169 -0.369323 -0.052364 0.128384 -0.498812 0.022496 0.106217 -0.235899 0.520233 -0.542687 -0.157754 0.224610 0.106313 0.251229 0.073547 0.123668 -0.045467 0.016937 0.112989 -0.061823 -0.005256 0.132836 -0.028490 0.041419 -0.017642 0.162981 -0.460732 0.172335 0.039261 -0.023001 -0.513918 0.116938 -0.212054 -0.375388 -0.485339 0.482393 -0.106889 -0.744712 0.099130 0.014219 0.616062 -0.221587 -0.320186 -0.057790 -0.257958 0.277432 -0.031494 -0.435247 0.167620 -0.110186 -0.286153
sent_170 0.058888 -0.152398 0.412208 -0.007616 -0.183702 0.057556 -0.228717 -0.228386 -0.013196 0.337097 0.126989 -0.085920 0.049099 0.488030 -0.127600 -0.074252 -0.456728 0.072316 0.073062 0.133891 0.291290 0.086752 0.138107 0.281756 -0.045667 -0.293776 0.271159 -0.065178 -0.070362 0.085514 0.073928 0.522370 0.041079 0.245977 0.173491 -0.139633 -0.145686 -0.293940 0.391653 -0.094653 0.083859 0.342509 -0.623416 0.060628 -0.054513 0.691291 -0.002714 0.122276 -0.205350 -0.145884
sent_171 0.016161 0.065197 0.161873 0.416747 -0.371557 -0.385847 -0.005358 -0.270655 0.283798 0.006016 0.009824 -0.062877 0.099186 -0.422750 0.171250 -0.228433 -0.020114 -0.006387 -0.389748 -0.197921 -0.336852 -0.287300 0.231399 -0.599688 -0.227245 0.118613 0.070068 0.102032 0.161458 0.202093 0.183560 0.160450 0.028922 0.468431 0.279317 -0.148824 0.042455 -0.217406 -0.007509 0.226687 0.142312 0.026564 -0.317185 0.056312 -0.215276 0.249015 0.051390 -0.310319 0.107333 0.151252
sent_172 0.135568 0.160661 -0.104675 -0.329027 0.288048 0.214596 0.025367 0.351299 0.196078 0.087047 -0.057146 -0.254236 0.231013 0.172583 -0.200944 0.003201 -0.280061 -0.490740 -0.189857 -0.097347 0.067260 -0.066983 0.412661 -0.347772 0.232866 0.121736 -0.123311 -0.275844 -0.154672 0.160094 0.384601 -0.278104 0.142271 -0.210867 0.231795 0.152357 0.028203 0.329124 -0.033374 0.463660 -0.080855 0.065895 0.059759 0.020382 0.183588 0.016244 0.085497 0.173638 0.087041 -0.086512
sent_173 -0.196895 0.677943 -0.652221 -0.114106 0.721920 -0.353111 0.445684 -0.573249 -0.855197 0.763056 -0.193181 -0.340045 0.003957 -0.548055 0.449820 -0.397538 0.137749 0.909546 0.234420 -0.035497 0.500131 -0.285985 -0.480834 -0.871319 0.069815 1.353004 0.937125 0.383409 -0.165332 0.833564 -0.952165 0.274135 0.191965 0.455406 0.259458 -0.185843 -0.622270 0.019514 0.473437 0.752061 -0.096643 0.510013 0.179530 0.024181 -0.108430 -0.138813 0.366470 0.023819 -0.200139 -0.591129
sent_174 -0.596151 -0.036186 0.044176 -0.052451 0.303948 -0.214525 -0.191437 0.393462 0.073288 0.345760 0.031877 -0.142454 0.203970 -0.032636 -0.210872 0.098056 0.175120 0.053738 0.025864 -0.066301 -0.249858 -0.658848 -0.062978 -0.895628 -0.065858 0.155859 -0.137264 0.041192 0.254207 -0.095180 -0.183027 0.140629 0.039989 0.193187 -0.359011 -0.360620 -0.257180 0.292266 -0.167954 -0.057884 0.396178 0.317174 0.351611 0.121473 0.228677 0.071683 0.121697 -0.206191 0.765848 -0.337531
sent_175 1.037769 -0.020880 0.050720 -0.316807 0.086701 0.287517 -0.446402 0.453097 -0.225245 -0.105663 0.343939 0.191104 0.062141 -0.292575 -0.343133 -0.052037 -0.537522 0.350370 -0.264889 -0.370233 0.404120 -0.739606 -0.167283 -0.160506 0.862466 0.539243 0.001185 0.667725 0.119085 -0.136440 -0.140173 -0.557701 -0.591778 -0.620800 0.032256 -0.131550 -0.160109 1.084202 -0.894718 0.835187 0.631075 -0.242613 -0.328008 -0.187840 -0.075110 -0.464406 -0.127094 0.605718 0.389728 -0.694935
sent_176 -0.260125 -0.078181 0.149919 -0.242883 0.410675 0.248473 0.063268 0.330203 -0.249414 0.084668 -0.192042 0.033089 -0.012823 0.066317 -0.364774 0.025461 -0.195961 0.321140 -0.556119 -0.047628 0.284109 0.037264 -0.146308 -0.274827 0.498101 0.103766 0.306455 0.244104 -0.156775 -0.170671 -0.047046 -0.319897 0.027292 -0.291160 0.432301 0.083783 -0.158044 0.341123 0.052867 0.419693 -0.377409 -0.373578 -0.235097 0.344994 -0.101385 0.512668 -0.287231 0.622170 -0.044677 -0.111517
sent_177 0.101344 0.197724 -0.032499 -0.266167 0.153559 0.002482 -0.541197 -0.337356 -0.016782 -0.205669 0.188136 -0.060586 0.208630 -0.027052 -0.100355 0.192262 -0.038536 -0.054332 -0.009755 -0.455373 -0.085682 0.139149 -0.321736 -0.108512 -0.098414 -0.071071 -0.220143 -0.214550 0.134409 0.022581 0.432937 -0.087377 0.123516 -0.165754 0.301167 0.048156 0.215050 0.253175 -0.068253 -0.018875 -0.348129 -0.147098 -0.055332 0.032762 0.227525 0.009109 -0.173421 -0.233160 -0.143881 0.169973
sent_178 -0.419111 -0.806655 0.137308 -0.202925 0.225500 0.227607 -0.677951 0.958062 -0.726610 0.697092 -0.071585 0.320118 -0.177799 -0.068618 -0.079516 1.203811 0.243295 0.163905 0.141488 -0.023997 1.065311 -1.264503 -0.550988 -0.309212 0.873491 0.419388 -0.139538 -0.102131 0.100872 -0.552054 -0.432269 -0.474656 -0.134470 -0.626670 0.077073 0.095444 -0.045618 0.389718 0.784418 0.149970 0.367052 -0.062337 -0.161387 -0.353489 0.466722 -0.265806 0.094558 0.316774 0.551122 -0.081865
sent_179 0.749251 0.118321 -0.183501 0.194249 0.952068 -0.393324 -0.058108 -0.026478 -0.342283 0.464696 0.260837 0.047104 0.213664 -0.739275 -0.482767 -0.347992 -0.388003 0.401682 -0.673485 0.042993 0.292134 -0.149226 0.341835 -0.270953 0.665782 0.406247 -0.407879 0.446361 -0.130721 0.597365 0.116586 -0.520320 0.043137 0.277054 0.269996 0.120519 -0.193358 0.203725 -0.059876 -0.429085 0.559349 0.560523 -0.192935 -0.185865 -0.101897 -0.365051 -0.126346 -0.026878 0.734786 -0.037284
sent_180 -0.473866 -0.081365 0.722010 0.519505 -0.071200 -0.320523 0.062228 0.550122 0.150949 0.270477 -0.391322 0.538202 -0.409406 0.396278 -0.164786 0.389906 -0.235791 -0.355313 0.394768 0.220314 -0.253852 0.078437 -0.247656 -0.470379 1.120389 0.408799 0.065326 0.205498 -0.373304 -0.065257 -0.599666 -0.428642 0.180781 -0.157800 -0.366600 0.170971 0.192136 0.685827 -0.447246 0.358020 -0.469822 0.188982 0.289675 -0.259759 0.326634 -0.252424 -0.015452 -0.122756 0.679263 0.019386
sent_181 0.131636 0.142628 -0.142156 -0.170471 -0.336705 0.040064 0.449247 0.074037 -0.127038 -0.405567 0.391726 -0.074089 -0.019045 0.122550 0.081471 -0.163560 -0.018003 -0.118624 -0.008315 -0.388281 -0.433380 0.972927 0.236461 0.279241 -0.052872 -0.294998 -0.406675 0.043328 0.364564 -0.378711 0.326067 0.119792 -0.359766 -0.634106 -0.042895 0.419736 -0.045031 -0.147776 0.631349 0.661986 -0.511300 -0.557257 -0.095605 -0.035455 0.425786 0.197640 -0.038961 -0.021464 -0.269659 -0.100323
sent_182 -0.049622 0.335914 0.182664 0.207557 0.056910 0.176592 -0.331892 0.093308 -0.163183 0.265028 0.143935 -0.110189 0.564976 0.330587 0.011221 -0.251144 -0.338844 -0.227691 0.316182 -0.406014 0.263693 -0.458394 -0.070926 -0.726731 0.309321 0.120209 0.357612 0.264224 0.218849 -0.304956 -0.137499 -0.399080 0.254834 -0.143623 0.734226 -0.151765 0.208309 0.079218 0.033751 -0.312663 -0.028498 0.059560 0.237508 -0.036960 0.661008 -0.241648 -0.603810 -0.154685 0.206175 0.280664
sent_183 -0.104460 0.012989 0.306204 0.298936 -0.224340 0.591788 -0.258731 0.346628 -0.081767 0.094982 0.103366 -0.054456 0.306592 0.111285 0.188495 -0.502630 -0.356009 -0.139753 0.207531 0.002712 0.153303 -0.501407 -0.209572 -0.649340 0.342179 0.461934 0.397840 -0.123775 -0.198300 0.013975 -0.283224 -0.250891 0.216182 -0.396265 -0.093004 -0.191459 0.314471 0.417554 -0.438569 -0.256420 0.391022 0.369151 0.133046 -0.153051 0.419782 -0.231874 -0.553894 0.039921 0.569981 -0.027124
sent_184 0.478252 -0.102515 -0.562020 -0.683668 0.469513 0.723980 0.186217 0.532701 0.227591 0.387673 -0.290384 0.103070 0.431549 0.274735 -0.490778 0.443419 -0.177643 -0.151320 -1.180307 -0.311129 -0.255637 -0.268017 -0.187655 -0.621482 0.301487 0.314166 0.464357 0.298880 -0.493929 -0.293070 -0.195853 -0.386307 -0.061917 0.014233 0.054458 0.006458 -0.469708 0.170064 -0.376840 0.777720 -0.022563 -0.361391 0.028192 0.020327 0.327832 -0.055279 0.395093 0.161356 0.238868 -0.266296
sent_185 -0.331673 0.414652 -0.434669 0.019942 0.314431 0.186939 0.141762 -0.064465 -0.348623 0.238740 0.053358 -0.026569 0.063053 -0.233270 -0.268917 0.218577 -0.033745 -0.385339 0.182227 -0.275811 0.101173 -0.025905 0.131688 -0.739681 -0.107575 0.532763 -0.021375 -0.481161 0.388975 0.167391 0.016372 -0.121795 0.148000 -0.171003 -0.226323 0.116831 -0.191349 0.413593 0.414752 -0.066525 0.003359 0.077126 0.246976 -0.498185 0.252164 0.130124 -0.119864 -0.032209 -0.118679 0.156479
sent_186 -0.277274 -0.158289 0.408318 -0.075867 0.329521 0.398055 0.303437 -0.121320 -0.221845 0.127137 -0.154143 -0.002646 0.312741 -0.049569 0.305533 -0.127371 -0.335344 0.077014 0.036178 -0.272614 -0.006182 0.172338 -0.144326 -0.281360 0.169742 0.790876 0.262423 0.491081 -0.063188 0.510357 -0.088913 0.136996 -0.188802 -0.209251 -0.555595 0.473134 -0.013741 0.510008 -0.158168 -0.025112 -0.357472 -0.103929 0.513102 0.165779 0.636411 -0.053804 -0.362359 -0.263537 0.350158 -0.177644
sent_187 0.334193 -0.097113 -0.022562 0.149122 -0.190521 -0.156688 0.170299 0.072734 0.580073 0.209848 0.094248 -0.429779 -0.467752 0.096649 -0.036625 -0.192659 -0.249389 -0.150528 -0.057750 0.122666 -0.077309 -0.259014 0.968997 0.517049 0.052605 0.092143 -0.006603 -0.436547 -0.113833 -0.331632 0.673619 0.005403 0.095983 -0.037920 -0.138644 -0.017763 0.153604 -0.297910 0.407768 0.144703 -0.123421 0.194043 -0.087801 0.119723 -0.221455 0.630782 -0.272543 0.175568 -0.794677 0.204518
sent_188 -0.578641 0.458291 -0.184076 0.147394 0.829930 -0.504804 0.288209 -0.335252 -0.655238 0.550409 -0.093806 -0.430968 0.137323 -0.478390 0.410530 -0.658882 0.628408 0.675470 0.222825 -0.422818 1.001315 -0.241374 -0.505380 -0.419474 0.323247 0.965914 0.562678 -0.154401 -0.369796 0.466471 -0.957663 -0.179927 0.229741 -0.189433 0.354991 -0.045875 -0.452997 0.226551 0.811406 0.817557 -0.175308 0.144952 0.102921 -0.303229 0.066599 -0.407980 -0.087831 0.190093 0.196742 -0.275740
sent_189 0.086813 -0.145421 -0.326281 -0.060524 -0.172179 -0.022321 0.456522 0.567965 -0.293903 -0.197277 0.353018 -0.308356 0.088182 -0.033375 -0.573881 0.377900 -0.056250 0.177304 0.126408 -0.431145 0.524722 -0.356640 0.042289 -0.672005 0.175256 0.043919 0.114522 -0.420435 0.137491 0.060288 0.461639 -0.301395 0.214266 -0.630302 0.652536 -0.404495 -0.814716 0.273241 -0.124381 0.416527 0.196402 -0.082447 -0.114384 0.081422 0.404089 -0.226599 -0.215973 0.297170 0.027238 0.182801
sent_190 -0.125428 -0.231572 -0.232624 0.114670 0.004249 0.123354 -0.048775 0.078824 0.113687 0.058590 0.111321 -0.087564 0.200989 0.072972 -0.137207 0.152898 -0.123472 -0.096303 0.115630 0.206775 0.135773 -0.287556 0.162851 -0.305547 0.038689 -0.330016 -0.245804 0.093313 -0.210974 -0.045353 0.312585 0.036553 -0.354807 -0.157162 0.229738 0.104898 -0.039480 0.472205 -0.341024 0.252912 0.118351 -0.227165 -0.164348 0.202186 -0.153379 -0.105095 -0.027489 0.014455 -0.243239 -0.106216
sent_191 0.231557 -0.084957 0.366357 -0.032573 0.041987 -0.354781 -0.045348 0.087115 0.493435 -0.126853 0.051396 -0.229865 -0.134303 0.187550 -0.121428 -0.078551 -0.320546 0.143608 0.337646 -0.090352 -0.018836 0.103710 0.287106 0.186169 0.404898 -0.288048 -0.148744 -0.175287 0.145269 -0.199738 0.261195 0.603324 -0.180455 0.298868 0.179412 -0.323934 -0.122685 -0.075852 0.124924 -0.205594 0.198950 0.042694 -0.213704 0.143750 -0.066793 0.515424 0.093739 -0.051951 -0.368959 0.017278
sent_192 -0.362827 -0.631397 0.117717 -0.212699 0.342027 0.018667 0.032324 -0.142351 0.260035 -0.448187 -0.037273 -0.139385 -0.699301 -0.165566 0.064886 0.054032 -0.293018 -0.201670 0.215290 -0.133203 0.003711 0.072553 0.115618 -0.444673 0.592549 -0.233426 0.560881 -0.416234 0.102882 -0.219068 0.593813 -0.197227 0.146748 -0.464407 0.192433 -0.644780 -0.080143 0.277813 0.037824 0.001218 0.009476 -0.405082 0.291620 -0.441328 0.232053 0.128232 0.189610 -0.078743 0.524268 0.263041
sent_193 0.767675 -0.371393 -0.248336 0.131162 -0.307694 0.213677 -0.427002 0.341969 -0.291538 -0.018061 -0.035411 0.326375 0.291257 0.159104 -0.529861 0.259086 -0.349941 -0.038132 -0.129244 0.112761 0.304876 0.063197 -0.269227 -0.222406 -0.052235 -0.576897 0.556611 0.084707 -0.150302 0.124261 0.388498 -0.201260 -0.447310 0.057475 0.203729 -0.254332 0.648082 0.090467 -0.557783 0.008340 -0.539801 0.239962 -0.424698 -0.121528 -0.076097 0.628549 0.088127 0.017685 1.116491 -0.044661
sent_194 -0.139896 0.070444 -0.267195 0.018833 0.222315 0.875045 -0.104648 0.897549 -0.117908 -0.079918 -0.299492 0.080030 0.127971 -0.360966 -0.175527 -0.368219 -0.781718 -0.852124 -0.534305 0.140654 0.406413 -0.164385 -0.569207 -0.578931 0.162716 0.603167 0.493915 0.479432 0.165705 0.027525 -0.782241 -0.356742 -0.307789 -0.030525 -0.384946 0.652235 -0.183922 0.021828 -0.395876 -0.665547 -0.062611 0.089359 -0.372378 0.568955 0.434605 -0.504359 0.183248 0.587606 1.330670 0.131573
sent_195 -0.136787 0.460175 -0.096816 0.157895 0.471837 0.688074 -0.044889 -0.019521 -0.085530 0.372957 -0.300578 -0.479139 -0.576824 0.006958 -0.332268 0.178587 0.324717 0.045320 -0.041882 0.047015 0.267597 -0.526061 -0.474447 -0.277654 -0.023290 0.131592 0.071336 0.465168 0.317383 0.511008 -0.371615 -0.658120 -0.274664 -0.223094 0.090178 0.061484 -0.075055 0.681292 -0.162953 -0.302145 0.802357 0.259681 0.144387 -0.068975 0.435773 -0.039356 0.314501 -0.194229 0.341580 -0.036391
sent_196 -0.221676 0.157706 0.305584 0.299494 0.521080 0.072463 -0.155393 0.271899 0.195932 0.289568 -0.753107 -0.493719 0.082675 0.127134 -0.056756 -0.045079 0.179880 0.175794 0.322669 -0.264744 -0.004765 -0.255416 -0.138120 -0.785412 0.058320 -0.168888 0.057024 0.515377 -0.152787 0.313300 -0.108612 -0.002426 -0.176186 0.206874 0.196199 -0.069064 -0.046894 0.606344 -0.139234 0.119813 0.186001 0.066817 -0.036570 0.261287 -0.120117 0.266528 0.124969 -0.102404 -0.111769 -0.270760
sent_197 -0.050882 -0.161013 0.318249 0.038288 -0.150233 -0.231119 0.036759 0.030544 -0.553129 0.456227 -0.345503 0.240414 0.781243 0.082078 0.432012 -0.643023 0.185319 -0.047760 1.288898 -0.947900 0.592472 0.245697 -0.857149 0.008422 0.651983 0.159695 -0.084694 -0.496034 -0.293041 0.660546 -0.471274 -0.030623 -0.622355 -0.651262 0.638580 -0.440814 0.009741 0.568625 -0.228823 0.122717 0.034481 0.408702 0.277997 0.052805 1.080999 -0.140778 0.252941 -0.096484 0.481875 0.402842
sent_198 0.573823 0.002057 0.163396 0.019658 1.079367 0.263758 -0.240000 0.475409 0.166699 0.000006 0.674146 -0.104957 -0.335113 -0.186447 -0.202008 -0.116409 -0.049408 0.264859 -0.087416 -0.053386 -0.008625 -0.781816 -0.214914 -0.670135 0.999771 -0.173704 0.007971 0.212006 -0.198438 0.309375 -0.114094 -0.215737 0.098865 0.349631 0.492458 -0.314386 -0.307191 0.679435 -0.558452 0.653993 0.449309 -0.060993 0.037045 -0.194694 0.382186 0.211797 -0.217718 -0.039310 0.252518 0.097745
sent_199 0.054071 -0.285767 -0.245792 -0.445407 0.254476 0.026606 -0.103632 -0.469898 -0.051846 0.452785 -0.190906 0.321737 0.655171 0.175455 -0.098628 -0.068038 -0.608579 -0.320219 -0.572310 0.133023 -0.025894 0.218663 -0.004331 -0.256954 0.931345 0.335712 -0.120589 0.762765 -0.186481 -0.447261 0.239769 -0.479592 -0.088068 -0.030729 -0.090704 0.667080 -0.560590 0.494229 -0.738293 0.177123 0.282841 -0.236764 0.067063 0.153039 0.038790 -0.152144 -0.015923 0.210178 -0.172992 -0.109659
sent_200 -0.039284 -0.430122 -0.166050 -1.035593 0.345896 0.706415 0.067153 0.248205 -0.180573 -0.094996 0.117253 0.140419 -0.275569 0.181037 -0.144558 -0.088130 -0.658271 -0.700162 -0.783041 0.160098 0.119639 -0.023775 -0.060922 -0.073288 0.162495 0.588524 0.407810 0.171091 -0.635340 -0.211143 -0.325857 -0.726441 -0.022579 -0.367263 -0.189154 -0.014231 -0.158785 0.662730 -0.291132 0.529722 -0.077515 -0.030949 -0.282491 0.241106 0.085645 0.043485 -0.086472 0.780514 0.087165 -0.240044
sent_201 0.126236 0.059965 -0.294095 0.389163 0.421957 -0.076442 0.393463 0.146333 -0.416355 0.455972 0.218246 -0.430688 0.528030 -0.189205 0.317798 -0.013543 -0.183314 -0.098241 0.470171 -0.619858 0.450274 0.022350 -0.261195 -0.137851 -0.068827 -0.684391 0.366849 -0.088477 0.103139 -0.208450 -0.348319 0.130000 0.181103 0.296456 0.424857 -0.408443 -0.285902 -0.019044 0.053522 -0.025189 0.207407 -0.575068 -0.051413 -0.450788 0.498055 -0.125249 -0.387354 -0.561754 0.176437 -0.274679
sent_202 -0.232471 -0.377463 0.013294 -0.247806 -0.230826 -0.365365 0.117893 0.103343 0.151935 -0.375785 0.149767 -0.115947 0.259027 -0.018358 -0.218755 0.055956 0.067088 0.173230 0.533471 -0.047925 -0.053741 -0.141972 0.016559 0.105945 0.070316 -0.181425 0.299990 -0.075193 -0.007056 -0.431798 0.413567 0.145960 -0.171217 -0.006657 -0.121250 -0.078895 0.300161 0.103972 0.325580 0.472645 -0.204320 0.226677 0.071146 -0.194848 -0.389082 0.384982 0.159827 -0.042493 -0.043933 -0.055332
sent_203 -0.347867 0.031802 0.261837 0.601067 0.032999 -0.116926 0.185957 0.438351 0.058343 0.320411 -0.001892 -0.413432 0.002985 0.098292 0.311279 -0.258251 0.184255 -0.034586 0.422583 -1.030557 0.545192 -0.294533 -0.393132 -0.615993 0.347342 0.237879 -0.069662 -0.164238 0.007169 0.138320 0.025310 -0.036946 -0.030572 -0.317311 -0.083447 -0.250188 -0.563749 0.387157 0.183748 -0.335642 0.347612 -0.125499 0.121396 -0.279190 0.325370 -0.032357 -0.342021 -0.284443 -0.124890 0.088743
sent_204 0.131650 0.005819 -0.297072 -0.021697 -0.211156 -0.148134 -0.019580 0.295741 -0.029027 0.141652 -0.006332 0.032408 0.103277 0.079026 0.086849 0.016279 -0.025580 0.180136 0.082658 -0.202396 0.036511 -0.082687 -0.095778 -0.403196 0.017005 -0.237481 -0.300452 0.032366 0.049476 -0.091901 0.270724 -0.129402 -0.024291 -0.084198 -0.026671 -0.106930 0.012391 0.103197 -0.100829 -0.125705 -0.077162 0.162805 -0.026432 0.093693 0.029232 -0.034503 0.195635 -0.052615 0.083744 -0.026438
sent_205 0.498159 -0.229406 0.196553 0.218820 0.002934 -0.330181 -0.161502 0.902708 -0.303492 -0.185350 0.600180 0.222389 0.062479 -0.466931 -0.305815 0.915721 -0.274288 0.631843 -0.325415 -0.354387 1.189025 -0.487755 -0.760552 -0.108561 0.914887 0.279021 -0.868504 0.338788 -0.026450 -0.021871 -0.141490 -0.788265 -0.278161 -0.196739 -0.315665 -0.412512 -0.249550 1.090412 0.650107 -0.452254 0.661360 0.454168 0.351877 0.103023 -0.097769 0.122156 0.051975 0.466887 0.636051 -0.517819
sent_206 -0.493819 -0.148784 0.216744 0.146428 0.511208 -0.034098 0.156502 0.170821 -0.069765 0.120460 -0.397682 -0.002516 -0.113662 -0.450678 -0.229263 0.375072 -0.231884 0.404754 -0.164685 -0.099640 -0.139774 -0.151025 -0.534543 -1.009134 0.872986 -0.077016 0.322747 0.378305 -0.399275 0.286152 -0.052923 -0.175013 -0.131765 0.257917 0.164529 0.090419 -0.048892 0.397801 -0.522314 -0.249130 0.391011 0.476222 0.668522 -0.175721 0.649715 -0.226601 0.280647 -0.281859 0.876640 0.368906
