SVM-light Version V6.20
0 # kernel type
3 # kernel parameter -d 
1 # kernel parameter -g 
1 # kernel parameter -s 
1 # kernel parameter -r 
empty# kernel parameter -u 
117 # highest feature index 
2 # number of training documents 
2 # number of support vectors plus 1 
0 # threshold b, each following line is a SV (starting with alpha*y)
1 1:0.0021020295 2:-0.001218848 4:0.00071268616 5:0.00012982932 6:0.00062702136 7:0.0010362417 9:0.00058462552 10:0.00051091006 11:0.00050699041 12:0.00039803731 13:0.0035569249 14:-0.00010306304 15:-0.00027195609 16:-0.00091976055 17:-0.0016525486 18:-0.0010368121 19:-0.0024650181 20:0.00030192675 21:0.0016557847 22:-0.0011634401 23:0.00080281892 24:0.00044173538 25:-0.00013434883 26:0.00045008503 27:0.000588072 28:0.00088271493 29:0.0014473066 30:0.00054962462 31:0.00042104584 32:-0.0024353703 33:2.2985635e-06 34:-0.00018721912 35:-0.00012398179 36:-0.00033612005 37:0.0026660978 38:-0.0023996078 39:-0.00044104387 40:-0.00098772638 41:-0.00098346325 42:0.0014205819 43:0.0021259121 44:4.4899709e-05 45:-0.00048604485 46:-0.00081096089 47:-0.00048283703 48:-0.00073168799 49:0.00086131087 50:-0.0019118637 51:0.00066574285 52:-0.00026286198 53:-0.00058287138 54:0.0003597863 55:-0.00039841479 56:-0.00051120791 57:-0.00078426307 58:-0.00052164402 59:0.0015067783 60:-0.0015654884 61:-3.9252613e-05 62:-5.0542571e-05 63:-0.0015194383 64:-0.00038413782 65:0.00095808064 66:0.002059377 67:-2.8429813e-05 68:-0.00011189692 69:-2.7837954e-05 70:-1.3296847e-05 71:2.2351565e-05 72:-6.0047732e-06 73:-1.7331404e-05 74:-8.8740908e-06 75:2.4629084e-05 76:-4.7812006e-05 77:5.3137001e-06 78:-6.3259744e-05 79:-1.345858e-05 80:0.00014126069 81:-1.0020388e-05 82:-1.4496161e-05 83:9.2866096e-05 84:3.2354867e-05 85:-0.00010870158 86:-8.6719796e-05 87:-1.8297214e-05 88:1.3014908e-05 89:0.00010724611 90:1.1339022e-05 91:-3.4797344e-05 92:4.7164314e-05 93:3.7067104e-05 94:-2.9497944e-05 95:4.2941683e-05 96:-2.2185548e-05 97:0.00012465818 98:5.0528984e-06 99:4.7728525e-05 100:-1.793951e-05 101:-7.2896378e-06 102:0.00011655062 103:-0.00028744451 104:8.6708489e-05 105:-3.4600653e-05 106:-1.8833343e-06 107:0.00023496211 108:2.8644654e-05 109:4.102915e-05 110:-0.00017198727 111:-5.7490986e-05 112:6.0321636e-06 113:6.9392503e-05 114:-3.3578679e-05 115:3.3690583e-05 116:-9.686633e-05 #
