sent_0 0.098450 0.524863 -0.268150 0.515143 0.764110 0.409599 -0.193020 0.376888 -0.043944 0.681775 0.127098 0.136736 0.242597 0.085591 0.424521 0.265034 -1.177259 -0.928670 -0.467202 -0.050422 0.001412 0.259252 -0.300027 0.095379 -1.699779 -0.693314 -0.447530 0.273498 0.780532 0.159959 -0.138547 0.560203 0.375879 -0.851036 -0.529039 -0.289129 0.390772 0.345724 -0.059439 0.299999 0.616068 0.180429 0.596381 0.235401 0.391535 -0.018170 -0.469975 -0.236844 -0.026003 -0.006744
sent_1 -0.444757 1.190565 0.095725 0.438120 0.600576 0.165160 0.620015 0.269287 0.357481 0.550518 0.276963 0.063600 -0.308528 -0.304398 0.266826 -0.234240 -1.495226 -0.500685 -0.466773 0.167316 0.668438 -0.117563 0.272353 -0.748910 -1.095668 -1.180721 0.088938 -0.516671 0.118184 0.369894 -0.503960 0.305217 0.198334 -0.542142 -0.336176 -0.507755 0.394518 0.261513 -0.069697 0.496478 0.151627 -0.038443 0.371987 0.607981 0.369038 -0.342090 -0.624016 -0.583687 0.305805 -0.188385
sent_2 -0.108239 0.780026 -0.242694 0.487080 0.243444 0.409505 0.281333 0.383884 0.749801 0.357418 -0.288830 0.487078 -0.304051 -0.132747 0.459354 0.261032 -1.186981 -0.693378 -0.052222 0.017709 0.457372 -0.027099 -0.140797 -0.156968 -0.756991 -0.794525 0.016014 0.146090 0.546839 0.012236 -0.443996 0.479031 0.290156 -0.787443 -0.222602 0.120201 0.241869 0.286343 -0.075835 0.656731 0.703981 -0.423321 0.192153 0.548447 0.041314 -0.496191 -0.457253 -0.641698 0.116810 -0.401006
sent_3 -0.151524 0.729448 0.163019 0.364167 0.774212 0.028023 0.265710 0.533840 0.191966 0.343984 0.055545 0.670834 0.030120 0.399223 0.293571 0.525272 -0.889102 -0.607213 -0.357129 0.531162 0.200009 0.288769 -0.231026 -0.230527 -1.253781 -0.349714 0.609346 0.115236 0.136915 0.170449 -0.185909 0.616162 0.593485 -1.414877 -0.378920 -0.357995 0.495860 0.338736 0.076748 0.396954 0.342186 -0.599861 0.467998 0.525208 0.223317 -0.237114 -0.733922 0.062225 0.080500 -0.053955
sent_4 0.506433 1.149676 0.173935 0.493445 0.582635 0.157390 -0.103798 -0.064083 0.519821 0.639621 -0.115146 0.383662 -0.016745 0.351740 -0.015515 0.535612 -0.302385 -0.757229 -0.372779 0.292681 0.462365 0.457332 0.128409 0.278425 -1.228635 -0.423851 0.767289 0.068368 -0.150449 -0.140626 -0.284087 0.551582 0.804311 -1.364187 -0.235904 -0.344885 0.512787 0.157485 0.428283 0.511930 0.280775 -0.240265 0.344015 0.455731 0.107577 -0.048531 -0.596410 -0.547071 0.093224 0.428337
sent_5 0.004581 0.529863 -0.486384 0.539371 0.611687 0.071056 -0.206347 0.451688 -0.020607 0.771888 -0.094124 0.046853 0.376579 0.235160 0.329585 0.138000 -1.301842 -0.837845 -0.446588 0.065386 0.034782 0.058277 -0.281369 0.087612 -1.685533 -0.858521 -0.121138 0.335223 0.854061 0.022542 -0.107733 0.681564 0.361383 -1.028810 -0.565621 -0.164717 0.482409 0.342608 -0.273573 0.376973 0.754643 -0.119843 0.561148 0.330523 0.598436 0.109984 -0.414118 -0.503787 -0.152979 0.028132
sent_6 -0.084726 0.543686 0.472974 0.378122 -0.259472 0.155734 0.242739 0.302005 0.258815 0.376979 -0.250783 0.169647 0.272436 -0.268932 0.276031 0.043127 -0.679059 -0.175352 -0.586120 0.670617 -0.238338 -0.330579 0.122394 -0.345475 -1.029861 -0.597639 -0.261023 -0.173304 0.213557 -0.044098 -0.049605 0.562984 0.258331 -0.953402 0.347591 -0.280909 -0.086980 -0.131918 0.044915 0.616655 0.967035 -0.719859 0.256936 0.037682 0.258882 -0.356333 -1.098015 -0.124043 0.066015 -0.441206
sent_7 0.489421 -0.243061 -0.113828 0.602629 0.543274 0.059618 0.081027 0.573155 -0.768963 0.372574 0.033937 -0.952290 0.696741 -0.517382 0.436779 0.238780 -1.245772 -0.655696 -0.006562 -0.536104 -0.723455 0.110258 -0.047120 -0.323923 -0.396568 -0.425924 -0.608392 0.118141 0.472931 0.361705 -0.385529 0.809548 -0.021034 -0.264874 -1.400622 0.453302 0.750054 0.879190 -0.363541 0.041320 0.342934 -0.159291 0.433695 0.430161 0.221528 0.274994 -0.273337 0.023968 -0.339444 0.395052
sent_8 0.466655 -0.183937 -0.111010 0.554614 0.611011 0.085367 0.073071 0.570799 -0.741198 0.483489 0.081341 -0.894394 0.923499 -0.382830 0.647249 0.258171 -1.165753 -0.771585 -0.054472 -0.286706 -0.736021 0.106548 -0.125272 -0.315850 -0.471976 -0.347440 -0.704043 0.127558 0.516980 0.471671 -0.266404 0.811698 0.113022 -0.288844 -1.471820 0.457806 0.708119 0.845590 -0.382585 -0.016586 0.275069 -0.175236 0.521979 0.390404 0.320064 0.335780 -0.225711 -0.063000 -0.464036 0.352679
sent_9 0.307279 -0.232137 -0.220271 0.527654 0.601420 0.006724 0.040635 0.396855 -0.685182 0.357199 0.096821 -0.836406 0.636148 -0.405843 0.440360 0.223681 -1.371408 -0.698268 0.140505 -0.423103 -0.674780 0.100007 -0.112915 -0.162659 -0.430340 -0.525081 -0.629674 0.211558 0.464077 0.404012 -0.187793 0.707078 -0.097453 -0.113126 -1.276825 0.567255 0.833718 0.598611 -0.572317 -0.253429 0.469314 -0.181880 0.403254 0.392812 0.288047 0.308747 -0.186641 -0.148309 -0.407939 0.439416
sent_10 0.232611 0.242528 -0.176314 0.271523 0.327926 -0.237121 0.119836 0.298014 -0.613183 0.148789 0.027604 -0.735106 0.627850 -0.637654 0.406124 0.111861 -1.153541 -0.365081 -0.232049 -0.640036 -0.634894 0.336564 -0.183379 -0.684389 -0.214243 0.086330 -0.601495 -0.270051 0.445951 0.184082 -0.458940 0.324575 -0.022590 -0.343039 -0.761635 0.831735 0.820196 0.828810 -0.109927 0.085859 -0.059989 -0.044442 0.802070 0.468518 0.181878 0.370428 -0.717352 0.059930 0.338624 0.316447
sent_11 0.240720 0.020019 0.207795 0.352029 0.181921 -0.151695 0.256873 0.089140 -0.116403 -0.189391 0.150776 -0.781460 0.830119 -0.269739 0.665782 0.226656 -0.915795 -0.420057 0.191844 -0.163341 -0.581878 0.417936 -0.044617 -0.138240 -0.146911 0.064715 -0.199169 -0.150738 0.154382 0.568487 -0.279257 0.255828 0.264269 -0.418281 -0.893478 0.409070 0.578197 0.479603 -0.078866 -0.102586 -0.090323 -0.303104 0.479894 0.330331 -0.084085 0.042330 -0.680379 -0.160160 0.070524 0.172985
sent_12 -0.011212 -0.048605 -0.126021 -0.003333 0.769690 -0.390750 0.191618 0.737795 -0.836077 -0.058724 0.192195 -0.661540 0.974799 -0.614783 0.207498 0.342899 -1.432506 -0.861093 -0.117694 -0.330719 -0.470943 -0.086390 -0.318164 -0.460506 -0.528140 -0.291609 -0.752900 0.057215 0.218496 0.488824 -0.012134 0.738339 0.311086 -0.157366 -1.067086 0.524694 0.663518 0.622587 -0.532359 0.080878 0.109117 -0.043428 0.196435 0.324008 0.518895 0.510083 -0.525252 -0.276961 -0.084030 0.325797
sent_13 -0.783919 0.336268 0.176585 0.386836 0.146080 -0.148541 -0.725809 -0.100169 -0.748646 -0.514367 0.392522 0.759768 -0.770253 0.118535 -0.131083 0.145309 0.429997 0.417548 -0.055153 -0.005315 -0.596251 -0.150893 0.190668 0.860336 -0.671792 0.440579 0.075327 0.092242 -0.069541 0.244854 0.247581 -0.662177 -0.023514 -0.328775 0.440177 -0.275208 0.386875 0.144336 0.332139 -0.568195 -0.006913 0.577986 -0.226750 -0.330069 -0.304269 0.205601 0.415210 0.483295 -0.427205 -0.238147
sent_14 -0.651390 0.790549 -0.136854 0.578183 -0.299835 0.189337 -0.697597 -0.030625 -0.420094 0.243865 0.441433 0.895622 0.246523 0.636533 0.079240 -0.597139 0.102932 0.174238 0.284885 -0.790362 -0.940985 -0.461621 0.367078 0.397506 -0.215605 -0.095806 -0.663362 0.326320 0.352179 0.008574 0.277792 0.194557 0.145021 0.010002 0.538451 -0.631315 0.290842 -0.322409 -0.231255 -0.620348 -0.382149 -0.287721 0.647229 0.225100 0.006157 0.010884 0.623432 0.258976 -0.625251 -0.503947
sent_15 -0.920075 0.279362 0.161768 0.516872 0.054823 -0.024674 -0.994071 -0.277579 -0.437591 -0.533424 0.075436 0.895730 -0.889997 0.236297 -0.046749 -0.176934 0.284766 0.592204 0.196932 0.064162 -0.513358 -0.103464 0.185789 0.964038 -0.429147 0.427480 0.249433 0.083152 0.170926 0.441258 -0.042783 -0.689758 0.160218 -0.366375 0.781975 -0.274085 0.370010 0.202261 0.269200 -0.589421 0.052902 0.671445 -0.227043 -0.152723 -0.353982 0.107138 0.385711 0.418465 -0.407656 -0.306050
sent_16 -0.976262 -0.041293 0.486557 0.167644 0.153469 0.208325 -0.529006 0.280121 -0.811782 -0.789036 0.876329 0.314998 -0.431900 -0.024911 -0.525267 0.224196 0.649102 -0.016331 0.062243 -0.109461 -0.187575 -0.034594 0.178603 0.537949 -0.226956 0.716051 -0.143976 0.382926 0.027746 0.074080 0.568938 -0.452053 0.021955 -0.756153 0.874490 0.142814 0.126990 0.691560 0.468842 -0.611444 -0.256096 0.399264 -0.092904 -0.001668 -0.364297 0.593220 0.451423 0.300480 -0.815833 -0.500710
sent_17 -0.523153 0.109215 0.642369 0.335747 -0.238480 0.147773 -0.922078 -0.002557 -0.869025 -0.508076 0.711395 0.454474 -0.211910 -0.093490 -0.521418 0.041377 0.540554 0.319660 -0.041713 0.196202 -0.306596 0.105349 0.400065 0.733404 -0.356362 0.023510 -0.626021 0.290930 -0.006171 0.098657 0.641235 -0.181853 0.255473 -0.502650 0.720115 0.329469 0.314725 0.294487 0.067975 -0.396370 0.052655 0.537073 0.008081 0.150202 0.061887 0.546981 0.766092 0.648085 -0.356721 -0.843596
sent_18 -0.246989 0.625495 -0.147851 0.341004 -0.220566 -0.053049 -0.347446 -0.227275 -0.449934 -0.596961 0.908691 0.153099 -0.015626 0.419288 0.056724 0.033907 0.035945 -0.000772 -0.067026 -0.050551 -0.452253 -0.131273 -0.254063 0.545663 -0.564095 0.075950 -0.180179 0.485383 0.162450 -0.046894 0.296217 0.171695 0.005626 -0.265674 0.572152 0.157869 -0.122155 0.165367 0.153847 -0.471401 -0.148723 0.450282 0.078219 0.063746 0.141218 0.325002 0.390332 0.513447 -0.383443 -0.317150
sent_19 -0.194979 0.013617 -0.067631 0.573793 -0.206687 -0.047606 0.234557 0.366928 -0.683019 0.632710 -0.887632 -0.270493 -0.350891 -0.335665 -0.193262 0.248892 -0.337765 0.040601 -0.623053 0.098038 0.484720 0.206638 -0.419629 -0.319812 0.081748 0.276935 -0.594817 0.183227 -0.138129 -0.470084 -0.202822 -1.069147 0.279841 -0.168229 -0.134991 0.645294 0.128987 0.312057 -0.281100 0.288289 -0.090368 -0.456496 0.723739 1.317605 0.317865 -0.757563 -0.357980 -0.034784 0.180224 -0.693483
sent_20 -0.306215 -0.282533 0.305498 0.511258 0.035102 -0.443561 0.258090 0.414593 -0.794144 -0.027504 -0.597763 0.177531 0.067297 -0.259962 0.010616 0.179019 -0.650730 -0.277399 -0.657582 0.485113 -0.295995 -0.221647 -0.250253 -0.150523 0.259016 0.478536 -0.303461 0.477205 -0.197947 -0.115154 0.142424 -1.151743 0.068418 -0.175261 -0.168328 0.215541 0.315403 0.197298 0.112545 0.657544 -0.428923 -0.118865 0.999012 1.193749 0.021885 -0.736311 -0.881700 -0.668767 -0.274426 0.071291
sent_21 -0.182924 -0.027920 0.182776 0.632811 0.199656 -0.554423 -0.219479 0.050332 0.040347 0.359257 -0.316829 -0.116517 -0.097226 0.147818 0.193942 0.113745 -0.297405 -0.019806 -0.532623 0.625563 0.605007 0.187900 -0.667317 -0.372583 0.363257 0.352558 -0.273603 0.403080 -0.423452 0.036716 0.031401 -0.900967 0.263859 -0.008405 -0.271720 0.604285 -0.077806 0.364265 -0.137395 0.030496 0.109475 -0.212147 -0.037972 1.039421 -0.131369 -0.667273 -0.281622 -0.005327 -0.238758 0.280404
sent_22 -0.496693 -0.347472 0.012288 0.587903 -0.046733 -0.270037 0.213481 -0.230453 -0.335954 -0.071375 -0.268229 -0.056333 0.104919 0.272004 0.004203 0.212966 0.051527 -0.272780 0.085811 -0.079449 0.145064 0.454963 -0.455397 0.067557 0.401777 0.306440 -0.148672 0.136633 -0.118957 -0.207258 0.117107 -0.435192 -0.088989 -0.288952 -0.144869 0.074328 0.340692 -0.159887 0.047764 0.233651 0.286630 -0.386447 0.404437 0.955087 0.222116 -0.630928 -0.114941 -0.046014 -0.150979 -0.155950
sent_23 -0.464667 -0.271947 0.055906 0.644895 0.011791 -0.140280 0.273715 -0.116606 -0.343100 0.060220 -0.340135 -0.044227 0.096046 0.234799 -0.025039 0.269217 -0.026483 -0.256355 0.018306 0.056791 0.079116 0.417270 -0.507706 0.045230 0.342723 0.251116 -0.247436 0.195464 -0.197078 -0.103440 0.004265 -0.482474 -0.129516 -0.327541 -0.148428 0.076980 0.388021 -0.042786 -0.035445 0.223654 0.275972 -0.349288 0.463213 0.999242 0.178392 -0.603178 -0.154858 -0.123674 -0.309171 -0.130968
sent_24 0.234522 -0.371737 -0.016081 -0.335934 -0.462473 0.012203 -0.338761 -0.396640 0.010638 0.447582 -0.225801 0.207012 0.180154 0.434218 -0.091249 -0.250976 0.055757 -0.047438 -0.474047 0.201190 -0.593334 -0.238586 0.090653 -0.334829 -0.056841 -0.538435 -0.384860 -0.496552 -0.732282 -0.288783 0.294260 -0.042893 -0.054942 0.205324 0.484592 -0.365121 0.361430 -0.286274 -0.358582 0.182732 0.482798 -0.105121 -0.075156 0.279469 0.039293 -0.126510 -0.074692 -0.256146 -0.955270 -0.284003
sent_25 0.708024 0.814472 -0.343722 0.202949 -0.488120 -0.188392 -0.170385 -0.064058 -0.469737 -0.338503 -0.321096 -0.580955 0.869052 0.230087 -0.853685 -0.255569 0.467262 0.637136 0.625485 0.376680 -0.096364 -0.540069 0.251989 -0.364584 1.011981 -0.124857 0.792091 0.144790 0.592631 -0.194554 0.422364 0.166208 1.147764 -0.602683 -0.477730 1.143571 -0.344767 -0.359713 -0.632263 -0.387863 -0.122979 0.341293 0.846204 -0.965109 -0.856438 0.176903 -0.556893 -0.340232 1.271495 0.605133
sent_26 0.096873 -0.406835 -0.184729 0.094728 -0.417855 -0.448776 0.073897 -0.398691 -0.504849 0.206391 0.053175 -0.188885 -0.270558 0.815967 -0.039818 -0.336766 1.604228 -0.601870 0.737307 0.071504 -0.730283 0.081579 -0.034212 -0.448161 1.240853 -0.022295 0.037164 -0.172514 0.029062 -0.142271 -0.268840 -0.467580 0.733803 -1.279160 0.633662 -0.170205 0.254204 -0.044637 0.009185 0.110726 -0.134023 -0.297791 0.498209 0.461384 -0.275471 0.088801 -0.498912 -0.510360 0.284736 -0.209499
sent_27 0.444621 0.106918 -0.692671 0.319893 -0.280320 0.006438 0.210969 -0.278209 -0.858091 0.130983 0.058349 -0.750573 0.709209 0.391767 -0.239184 0.040900 0.321206 -0.003090 0.353874 -0.269571 0.306741 -0.528807 -0.584027 0.020165 0.522358 0.150221 0.596260 0.507272 0.770150 -0.207891 0.288073 0.064443 1.179035 -0.474779 0.009374 0.870234 -0.191980 -0.449656 0.040717 -0.306222 -0.184218 0.219055 -0.119276 -0.267237 0.029184 0.468333 -0.246855 -0.364006 1.115088 0.098732
sent_28 0.687368 0.448082 -0.560941 0.536893 -0.677107 0.006647 -0.269331 0.487383 -0.317992 -0.087624 -0.070310 -0.786002 0.979283 0.500115 -0.885354 -0.014094 0.212410 0.960427 0.724255 0.264428 -0.037891 -0.732133 0.264089 -0.367735 0.745450 -0.278363 0.906296 0.429635 0.499802 -0.267620 0.430564 0.230717 1.448127 -0.388046 -0.548660 1.368360 0.007848 -0.302727 -0.389469 -0.613169 -0.499823 0.127359 0.744617 -0.887857 -0.626658 0.235951 -0.742484 -0.104668 1.301961 0.404322
sent_29 -0.802964 -0.867796 0.487155 0.466696 0.105940 -0.581396 -0.357507 0.683183 -1.015666 -0.573087 -0.186341 -0.370824 -0.457150 -0.075747 -0.608679 -0.271508 0.970961 0.008805 -0.001895 -0.178719 -0.173026 -0.370878 0.128860 -0.320312 0.479180 0.251252 0.493224 0.426940 0.158610 0.120193 -0.344101 -1.309975 0.515878 -1.020155 0.094485 0.262121 0.613165 0.291962 -0.110007 -0.114142 -0.094593 0.236111 -0.051296 -0.660384 -0.252230 0.967172 -0.027326 0.142659 0.404807 -0.001212
sent_30 0.678735 0.362134 -0.436111 0.256533 -0.748110 -0.112463 -0.225646 0.425623 -0.517804 0.062224 -0.143042 -0.606737 0.862563 0.509106 -0.900343 -0.272838 0.282178 0.794044 0.538631 0.278076 -0.075782 -0.665021 0.181842 -0.348564 0.793232 -0.277233 0.924123 0.431082 0.507567 -0.380522 0.520477 0.006519 1.383355 -0.497495 -0.315109 1.027344 -0.023430 -0.287548 -0.428936 -0.426295 -0.178442 0.193012 0.798077 -0.869010 -0.649425 0.218525 -0.580723 -0.081118 1.118191 0.397413
sent_31 0.388079 0.149785 -0.186154 0.160444 -0.403283 0.028161 0.265136 0.022641 -0.255916 0.044022 -0.165697 -0.533567 0.590379 0.520991 -0.501298 -0.014178 0.535559 0.111760 0.065240 0.014824 -0.238504 -0.747485 -0.346759 -0.318909 0.480613 0.435398 0.670514 0.354964 -0.045070 -0.371161 0.465388 0.130527 0.806954 -0.378740 -0.066816 0.572297 0.346769 -0.273828 -0.137456 -0.132090 -0.128804 0.100596 -0.044353 -0.302694 -0.619822 0.181465 -0.235838 -0.113011 0.962621 0.608029
sent_32 0.666044 0.337210 -0.391657 0.077921 -0.656358 -0.076551 -0.262007 0.257352 -0.267901 -0.023362 -0.138860 -0.728707 1.027707 0.501069 -0.767978 0.056185 0.163133 0.634272 0.546241 0.336043 0.060979 -0.509921 0.240136 -0.229401 0.858822 -0.153627 0.852359 0.354929 0.377575 -0.186446 0.567176 0.184119 1.382376 -0.336181 -0.284324 1.126843 -0.200931 -0.271200 -0.374949 -0.546252 -0.262679 0.184401 0.694954 -0.851325 -0.671754 0.109324 -0.412600 -0.237497 1.183755 0.526638
sent_33 0.412834 0.385078 -0.290630 0.153893 0.066754 0.080220 0.200223 -0.194132 -0.326306 0.193289 0.077311 -0.337004 0.118845 0.483398 -0.313105 -0.031880 0.530033 -0.093414 0.390006 0.062434 -0.078482 -0.676602 -0.142794 -0.252933 0.329641 -0.159910 0.167197 0.641858 0.641403 -0.436762 0.066114 -0.584755 0.492667 -0.602633 0.013696 0.824864 -0.236115 0.087846 -0.086866 -0.157951 -0.347541 0.265488 0.017565 0.132535 -0.186639 0.447865 0.242387 -0.015800 0.549838 0.064143
sent_34 -0.153618 -0.120213 0.036144 0.451744 -0.392564 -0.407773 -0.191395 0.204339 -0.465608 -0.619732 0.002334 -0.508441 -0.059241 -0.112007 -0.789245 -0.026694 0.444874 0.052009 0.427625 0.064227 0.053398 -0.616380 -0.083857 0.102511 0.027743 -0.308488 0.488976 -0.008211 0.271450 -0.269153 -0.277998 -0.071129 0.531728 -0.357818 0.391958 0.696396 0.257839 0.024536 -0.078137 -0.635817 -0.100395 0.084320 0.286885 -0.432336 0.059782 0.567557 -0.694551 -0.122272 0.529545 -0.172578
sent_35 0.170304 -0.644094 0.401667 0.725114 0.117405 -0.564495 -0.645639 -0.660495 0.198643 -0.118601 -0.366288 1.118737 1.333211 -0.405668 -0.224521 -0.706574 -0.566330 0.021637 0.464301 0.490114 0.006642 -0.934925 0.615644 -0.986058 0.248893 -0.486908 -0.239936 0.595253 0.274317 0.193518 -0.122705 0.954786 -0.060302 -0.293530 0.522674 -0.719298 -0.376122 -0.122344 -0.765507 -0.500706 -0.247067 -0.021696 0.058266 0.369206 -0.314945 0.500505 -0.370279 -0.223388 -0.624761 0.321702
sent_36 0.244294 -0.667506 0.480151 0.688777 0.193437 -0.645811 -0.578423 -0.586870 0.283002 -0.010676 -0.215138 1.244919 1.278385 -0.325360 -0.488546 -0.599534 -0.485705 -0.108078 0.387057 0.453208 -0.045489 -0.851218 0.633522 -1.015869 0.471190 -0.425740 -0.179442 0.705015 0.231140 0.248088 -0.122500 1.095943 -0.101219 -0.220153 0.705828 -0.737001 -0.259088 -0.169614 -0.756206 -0.487141 -0.123653 0.071706 -0.002579 0.247218 -0.294931 0.575818 -0.291634 -0.301852 -0.897636 0.338072
sent_37 0.018722 -0.428390 0.365124 0.618551 -0.137642 -0.278129 -0.461616 -0.246863 0.271169 0.087363 -1.024972 0.928501 0.752659 -0.565162 0.288985 -0.513008 -0.482508 0.121445 0.497548 -0.002081 0.040630 -0.349808 0.218823 -0.420396 -0.428900 -0.209035 0.597849 0.565190 -0.084959 0.148385 -0.332950 0.177468 -0.118968 -0.002784 -0.246662 0.475684 0.087512 0.345853 -1.028021 -0.035030 -0.066262 -0.354399 -0.449559 0.392560 -0.429590 0.286940 0.070875 -0.411559 -0.160981 0.146546
sent_38 0.186744 -0.164737 0.036968 0.135987 -0.271402 -0.167087 -0.997985 -0.392098 0.421272 -0.284002 -0.737654 1.132744 1.156951 -1.156891 -0.399241 -0.272036 -0.020170 0.318533 0.725525 0.218771 0.003459 -0.350109 0.383333 -0.633621 -0.535412 -0.661812 0.233167 0.714606 0.261141 -0.310056 -0.684005 0.429855 0.177392 0.362971 0.039566 -0.218110 -0.112116 -0.387400 -1.291337 -0.208956 -0.293502 0.073460 -0.538302 1.286348 -0.849011 0.470523 -0.076670 -0.740807 -0.962883 0.498870
sent_39 0.255951 -0.597804 0.380340 0.691445 0.143009 -0.591427 -0.692220 -0.658556 0.151015 0.032170 -0.349002 1.297599 1.098129 -0.392044 -0.246190 -0.521665 -0.629309 -0.057931 0.617771 0.436975 -0.118671 -0.936188 0.561636 -1.156983 0.372191 -0.399889 -0.252913 0.589208 0.366857 0.343363 -0.103366 1.350550 -0.005754 -0.244209 0.512564 -0.745838 -0.343631 -0.146507 -1.031637 -0.661491 -0.134445 0.002724 0.099854 0.471854 -0.347356 0.498775 -0.353640 -0.427392 -0.881741 0.303276
sent_40 0.425206 -0.468710 -0.048793 0.195180 -0.176390 0.099769 -0.885658 -0.258574 0.440583 -0.232557 -0.620375 0.994236 0.991786 -1.170301 -0.178367 -0.381277 -0.112460 0.463345 1.030662 0.559165 0.037140 -0.239853 0.317411 -0.659718 -0.526499 -0.295856 0.366417 0.449058 0.396306 -0.345645 -0.898314 0.587174 0.404547 0.277092 -0.208745 -0.473436 -0.098921 -0.460520 -1.536742 -0.218118 -0.229076 0.067188 -0.441166 1.065739 -0.706077 0.298196 -0.286608 -1.118939 -1.161037 0.313247
sent_41 -0.025777 -0.033454 0.207146 0.422645 -0.202261 -0.513951 -0.407843 -0.189300 0.080639 -0.013650 -0.532646 0.578879 0.511836 -0.514939 0.026600 -0.364984 -0.411199 -0.095033 0.241135 0.122439 0.111320 -0.037190 0.148183 -0.334720 -0.297075 -0.209196 0.407325 0.366083 -0.243097 -0.272622 -0.522279 0.191626 -0.129954 -0.213808 -0.364866 0.245308 -0.180221 0.036243 -0.723950 -0.064153 -0.205151 0.083901 -0.389099 0.044947 -0.145140 0.377503 -0.191859 -0.182288 -0.164912 0.291252
sent_42 -0.504421 0.420561 0.148094 0.629779 -0.999990 1.292986 0.087799 0.566136 0.539418 -0.136620 0.264689 -0.336486 -0.071127 0.321389 -0.324886 0.309788 -0.184622 0.233414 -0.737582 -0.146624 -0.600095 -0.407779 0.081838 0.365825 0.185939 0.483932 0.245399 -0.211708 -0.461853 -0.142484 -0.231894 -0.453014 0.341801 -0.457364 1.013395 0.512723 -0.594485 -0.042819 0.024621 -0.607024 -0.423247 -0.581189 -0.251553 0.024335 -0.375284 -0.851889 0.710124 0.159009 -1.014580 -1.018816
sent_43 -0.282428 0.133169 -0.207460 0.135972 -0.383980 0.753047 0.117117 0.266173 0.440414 -0.472926 0.254871 0.196109 -0.054024 0.394341 -0.105355 0.408831 -0.471956 0.317528 -0.318858 0.101312 -0.327805 0.075580 -0.350454 0.567390 -0.424207 0.245753 0.206368 -0.520002 0.146258 0.080770 0.025462 0.304041 -0.033026 -0.061968 0.968125 0.103457 -0.620962 0.238125 -0.036537 -1.016043 -0.655769 -0.010650 -0.316014 -0.594299 0.321176 -0.914790 0.759385 0.461636 -0.472245 -0.464903
sent_44 -0.166329 0.197549 -0.514046 0.355015 -0.328751 0.767986 -0.012855 0.223605 0.603059 -0.361888 0.092127 0.210862 0.154967 -0.072251 -0.076773 0.439775 -0.430650 0.294485 -0.454365 0.278398 -0.272122 0.332681 -0.326057 0.492766 -0.099821 0.197507 0.169607 -0.475434 -0.010732 0.250358 0.463827 0.316761 0.088801 -0.092026 0.698253 0.179081 -0.498822 -0.196276 0.069717 -0.727687 -0.607415 0.009109 -0.412923 -0.590953 0.117649 -0.831478 0.482514 0.145831 -0.310192 -0.437737
sent_45 -0.278450 0.200642 0.062306 0.244401 -0.275217 0.739143 0.070860 0.373077 0.510417 -0.358914 0.053608 0.301552 -0.112480 0.122743 -0.116770 0.325609 -0.546938 0.453764 -0.666474 0.164257 -0.270344 0.188264 -0.016026 0.443196 0.043605 0.435757 -0.080400 -0.592328 0.255596 0.108629 0.011447 0.130830 0.378347 0.068268 0.779979 0.393395 -0.667189 0.217287 0.052590 -0.953600 -0.815275 0.067834 -0.387591 -0.693596 0.426606 -0.870804 0.567558 0.142791 -0.347909 -0.519874
sent_46 -0.351849 -0.007480 -0.566184 -0.124813 -0.401202 0.800749 0.343269 0.333731 0.422303 -0.780367 0.734218 -0.117139 0.423331 0.391961 -0.452682 0.112900 -0.353001 0.899927 -0.410033 0.407447 -0.320867 -0.174556 -0.161037 0.118240 0.520376 0.867126 0.774903 -0.154830 0.127095 -0.430666 0.391263 0.595377 1.023825 -0.327652 0.920464 0.652328 -0.510963 -0.037072 -0.337053 -0.269772 -0.969507 0.123230 -0.032578 -0.838643 -0.316729 -0.732987 0.858689 -0.025101 -0.248172 -0.696898
sent_47 -0.255723 0.275427 -0.190058 0.268687 -0.548152 0.976660 -0.212004 0.596153 0.565454 -0.588756 0.285815 -0.008795 0.305516 0.226428 -0.274851 0.244190 -0.478656 0.324497 -0.260744 0.055846 -0.714509 0.535828 -0.152942 0.436646 -0.191181 0.490448 0.017513 -0.164626 0.189481 -0.116894 0.270818 0.516813 0.099284 -0.179533 0.857319 0.329600 -0.317903 0.103638 0.158139 -0.522231 -0.354453 0.022809 -0.389693 -0.330777 -0.023485 -1.175025 0.700667 0.271317 -0.806072 -0.267116
sent_48 -0.826139 0.588811 -0.275974 0.498438 -0.545483 0.761997 0.097317 0.682972 0.382238 -0.464858 0.372726 0.194332 0.330513 0.144118 0.432995 -0.518198 -0.428112 0.270029 -0.200177 0.221643 -0.855125 0.253217 -0.213741 0.079329 0.587548 0.240356 -0.531072 -0.802110 0.065521 0.642658 0.591701 0.557811 -0.104472 -0.215167 0.724784 -0.246985 -0.089915 -0.639348 -0.056883 -0.661822 -0.572730 -0.330783 -0.162383 -0.409356 0.268077 -0.885728 0.409292 -0.580648 -1.024091 -0.433048
sent_49 -0.407454 0.159860 -0.529266 0.410253 -0.055095 1.010211 0.383816 0.408973 1.316742 -0.075968 0.271352 0.235713 -0.182624 0.131398 -0.284126 0.528407 -0.308650 0.663496 -0.886928 0.529880 -0.143171 -0.151450 0.536924 0.615064 -0.144834 -0.010768 0.065088 -0.507715 -0.030186 0.291874 0.122445 0.914500 0.450847 -0.195126 0.462171 -0.203842 -0.264786 -0.369696 -0.341877 -0.476365 -0.435425 -0.460979 -0.246997 -0.292692 0.239937 -0.469422 0.805215 0.311296 -0.724167 -0.804613
sent_50 0.367878 -0.300807 -0.250776 -0.434090 -0.512965 -0.346071 0.293536 -0.574135 0.055717 0.571312 0.034562 0.070306 -0.127007 -0.146164 0.473729 -0.119461 -0.726219 0.369805 0.882644 -0.385837 0.035330 0.411576 -0.144483 -0.543328 -0.996924 -0.030399 0.096736 -0.647365 -0.696604 0.288228 -0.102145 0.493003 0.307373 -0.017160 0.402053 0.489290 0.191751 -0.971679 0.031167 -0.089784 0.723480 0.870045 -0.420234 -2.055607 -0.746619 0.206031 -0.497614 -0.543311 0.296892 0.585821
sent_51 0.328197 -0.448159 -0.373019 -0.450544 -0.229297 -0.430425 0.437197 -0.383842 -0.201148 0.258611 -0.095992 -0.052138 -0.290820 0.274804 -0.219359 0.218467 0.110143 0.286014 0.455799 -0.662894 0.634241 -0.398152 -0.135493 -0.716044 -0.778453 0.274042 0.198193 -0.028967 -0.895599 -0.160301 0.124181 0.294852 0.282970 0.503907 0.300765 0.020200 0.301696 -0.625038 -0.107131 -0.001537 0.707845 0.833467 -0.077211 -1.448419 -0.863756 -0.041224 -0.332720 -0.524127 0.324459 0.518714
sent_52 0.161446 -0.100879 -0.415630 -0.268867 -0.370294 -0.489548 -0.026550 -0.558323 -0.686602 0.441130 -0.132022 0.602702 -0.340073 0.284407 0.199604 -0.426990 -0.181891 0.370248 1.240788 -0.636122 0.207056 -0.269726 0.085851 -0.715783 -0.582906 0.219500 0.204915 0.456729 -0.435636 0.552101 -0.318966 0.480002 0.638198 -0.238043 0.751996 0.345159 0.477483 -0.993883 0.074142 0.542741 0.307683 0.457725 -0.298604 -1.841103 -0.420552 0.103740 -0.343301 0.175394 0.298207 0.350637
sent_53 0.090365 -0.536098 0.032742 -0.483036 -0.259315 -0.468969 0.942727 -0.539042 -0.208840 0.522090 -0.386300 0.054156 -0.164292 0.068974 -0.024416 -0.428747 -0.705834 0.421933 0.622968 -0.431111 0.083481 -0.077609 -0.154460 -0.592717 -1.025940 -0.114786 0.097462 -0.142046 -0.557695 0.008608 -0.256370 0.052153 0.033152 -0.473484 0.233726 -0.181980 0.742917 -0.489141 -0.133163 0.488899 0.841532 0.447904 -0.215134 -1.601068 -0.319897 -0.308097 -0.509521 -0.070523 0.617947 0.196690
sent_54 0.556184 -0.652242 0.104822 -0.457192 -0.260146 -0.361120 0.163890 -0.630323 -0.211187 0.604941 0.186996 0.338502 0.130766 0.119056 0.083823 -0.177760 -0.794478 0.145542 0.925454 0.207207 0.320979 0.164012 -0.109053 -0.488021 -0.797664 0.009925 0.251508 -0.291016 -0.316820 0.353445 0.328056 0.387102 0.053867 -0.001646 0.394014 0.222769 0.411827 -0.580094 -0.104520 -0.018074 0.218910 1.013374 -0.556783 -2.251042 -0.468440 -0.096180 -0.577242 -0.683684 0.425701 0.419893
sent_55 0.331595 0.191304 -0.252759 -0.674151 -0.017434 -0.523753 0.091491 -0.652443 -0.231587 0.324286 -0.134377 0.084036 -0.166976 -0.132202 0.113234 -0.237836 -0.386630 0.505368 0.610862 -0.431072 0.163331 0.252411 0.163781 -0.742690 -0.986565 0.124154 0.442029 -0.114416 -0.315975 0.237585 -0.398617 0.263696 -0.308053 0.165478 0.523007 0.361993 0.541201 -0.331097 -0.337963 0.218416 0.852959 0.763739 -0.216040 -1.483083 -0.675415 0.154034 -0.509479 -0.313088 0.538886 0.508929
sent_56 0.402752 -0.185833 -0.118066 -0.476464 0.071169 0.088257 0.349949 -0.369977 -0.440045 0.495678 0.270649 0.300457 -0.153073 -0.330009 0.075034 -0.537696 -0.444830 0.204800 0.994629 -0.165293 0.285442 -0.041540 -0.037439 -0.615520 -0.913284 0.145840 0.260558 -0.324335 -0.735622 0.194148 -0.092466 0.614773 -0.006173 -0.234139 0.506338 0.208058 0.137519 -0.581833 0.138470 0.291785 0.692317 0.724750 -0.372459 -2.082016 -1.092676 0.159090 -0.359666 -0.151723 0.169052 0.763260
sent_57 0.336772 -0.089788 0.187603 -0.141857 -0.084604 -0.206347 0.447318 -0.185080 -0.325849 0.517805 0.451984 0.172830 -0.293319 0.357859 0.036592 -0.537381 -0.415276 0.054708 0.618779 -0.093737 0.185542 0.118150 0.363587 -0.773442 -0.647404 0.063075 -0.074340 -0.281446 -0.437865 0.643565 0.261478 0.529854 0.055080 -0.016171 0.423703 0.334955 0.309029 -0.549060 -0.222157 0.101437 0.785706 0.392812 -0.158486 -1.387149 -0.495011 0.223101 -0.257871 -0.513255 0.433655 0.374627
sent_58 0.152434 0.583792 -0.049277 -0.627346 0.171535 -0.953567 0.259776 -0.086306 -0.839230 0.412907 0.189844 -0.490016 0.320057 0.386067 -0.622192 0.006680 -0.902627 1.222434 0.127834 -0.730600 0.647393 -0.329328 0.479365 -1.655776 -0.335638 0.054518 0.446148 -0.555727 -0.821655 0.055984 -0.843387 0.610267 -0.113392 1.251079 -0.043716 -0.042368 -0.325410 -0.659288 -0.143215 0.050530 1.443530 1.601651 -0.266836 -2.052999 -1.311390 0.078448 -0.678438 -0.364338 0.628644 0.207032
sent_59 0.207356 -0.157717 -0.221841 -0.448931 -0.368318 -0.406232 0.477173 -0.457559 0.024970 0.628383 0.308304 0.413820 -0.078078 0.250231 -0.194627 0.116226 -0.011146 0.450676 0.582926 -0.202192 0.280767 0.168531 0.155737 -0.773552 -0.995910 0.033345 0.378894 -0.379247 -0.466964 0.129597 0.021602 0.929140 -0.045515 0.123791 0.428395 0.153262 0.255998 -0.439057 0.104003 0.038510 0.320428 0.603629 0.047405 -1.802996 -0.749860 -0.270397 -0.521340 -0.440138 0.608840 0.375010
sent_60 0.156193 -0.370808 -0.188279 -0.294305 0.481616 0.320191 0.447628 0.514118 0.358329 -0.432234 0.820855 -0.293917 0.951005 -0.028987 -0.037635 -0.242340 -0.702798 0.559673 -0.683356 0.574910 -0.368614 0.074735 -0.811241 0.741759 -0.258793 0.737441 0.201018 -0.419953 -0.183411 -0.039390 -0.056533 -0.155901 -0.135227 0.594428 0.010448 -0.488359 0.328151 -0.171007 -0.025047 -1.086605 -0.532862 -0.802149 -0.563940 0.680901 0.013471 -0.554700 -0.002592 -0.263843 -0.388282 0.301245
sent_61 -0.071324 -0.409398 -0.655342 0.086745 0.331130 0.295487 0.503583 0.776373 0.114571 -0.708260 0.338123 -0.271457 1.027412 -0.426660 0.075749 -0.209519 -0.471297 0.643665 -0.646716 0.521849 -0.314447 -0.053747 -0.644373 0.533503 -0.389491 0.058651 0.348969 -0.381520 -0.161601 0.133025 0.155435 0.182680 -0.273229 0.270168 0.165255 -0.688830 0.542856 -0.565930 0.465031 -0.530364 -0.543047 -0.319473 -0.074532 0.759339 -0.044085 -0.456165 0.316234 -0.021790 -0.713015 0.309541
sent_62 0.187899 -0.383434 -0.097410 -0.100029 0.399315 -0.021340 0.386313 0.501816 -0.178589 -0.705074 0.523257 0.029578 0.942680 -0.776621 0.114299 -0.195803 -0.354034 0.612141 -0.469234 0.599562 -0.588027 -0.455588 -0.462906 0.599463 -0.158229 0.406722 0.248321 -0.449915 -0.347768 -0.405919 0.476868 0.490025 -0.337147 0.077545 -0.116599 -0.837083 0.214568 -0.317948 0.049713 -0.214917 -0.228509 -0.558370 -0.304260 1.115746 -0.149056 -0.290152 0.300951 -0.362610 -0.246768 0.069526
sent_63 0.285946 -0.280377 -0.273769 0.128243 0.269569 0.339297 0.418179 0.541684 0.340142 -0.723887 0.634564 -0.219832 0.746048 -0.031419 0.077688 -0.184062 -0.278243 0.731984 -0.456514 0.427170 -0.735325 0.140459 -0.717799 0.383433 0.322315 0.215470 -0.076088 -0.475356 0.165446 0.043666 -0.039277 -0.127248 -0.258892 -0.026183 0.145771 -0.646024 0.272379 -0.251883 -0.036100 -0.532774 -0.182769 -0.778757 -0.095594 0.773631 0.015405 -0.478386 -0.207063 -0.314473 -0.501537 0.254037
sent_64 0.066684 -0.309996 -0.535689 0.520249 0.157088 0.196889 0.421420 0.736877 0.167768 -0.937678 0.344800 0.301752 0.898897 -0.436272 0.017639 -0.765249 -0.437767 0.060559 -0.382683 -0.011677 -0.209890 -0.154760 -0.392989 0.716397 -0.080839 0.103348 0.000356 -0.198506 -0.357507 0.532538 0.278906 -0.165966 -0.268939 0.186900 0.354836 -0.523448 0.846957 -0.605600 0.351094 -0.509257 -0.725240 -0.542483 -0.268329 0.142443 0.163435 -0.323308 0.369144 0.015168 -0.185347 0.138044
sent_65 0.198797 -0.189871 -0.724254 0.437076 0.169764 -0.035787 0.508406 0.284683 0.572563 -0.377803 0.627828 -0.599678 0.848156 -0.268355 -0.179204 0.404709 -0.491935 0.816257 -0.530128 0.677064 -0.165229 0.336529 -0.409712 0.601268 -0.288578 -0.054467 0.045142 -0.438049 0.089299 0.001850 0.163631 0.019626 -0.061820 -0.386961 0.303446 -0.829645 0.847189 -0.087059 0.366929 -0.784285 -0.010774 -0.453282 -0.609193 0.490159 -0.170569 -0.265610 -0.119387 -0.105316 -0.250186 0.278325
sent_66 0.208309 -0.020972 -0.453796 0.035948 0.071984 0.135188 0.130087 0.638181 0.279352 -0.655239 0.824314 -0.168003 0.540142 -0.192718 -0.073871 0.000745 -0.520616 0.481810 -0.346227 0.242325 -0.120152 0.338856 -0.515543 0.739682 -0.152960 0.494493 0.245226 -0.357080 -0.077407 -0.053860 0.310518 -0.118439 -0.285104 0.004044 0.144299 -0.476628 0.156537 -0.558328 0.093443 -1.031178 -1.008856 -0.614648 -0.220981 0.403608 -0.328148 -0.675854 0.055419 -0.318521 -0.218843 0.103982
sent_67 -0.727361 -0.101521 -0.675727 0.378734 0.470404 -0.062485 -0.009321 1.520405 -1.058315 0.821246 -0.687066 -0.670304 0.427886 0.086311 -0.006997 -0.938957 -0.044511 0.400337 -0.534098 -0.780621 0.245570 1.328482 -0.089650 0.223557 0.168048 0.833742 0.492566 -0.256054 0.388461 -0.451955 -0.050522 0.996964 0.391908 0.051864 -0.094589 0.088190 0.787746 -0.091129 0.194532 0.572992 -0.389659 1.142566 -0.012555 -0.288028 -0.182611 0.077705 -0.338130 0.692611 0.755037 -0.435064
sent_68 -0.044940 -0.069657 -0.349879 0.206002 0.135121 0.214672 -0.330637 0.304498 -0.190641 0.246087 -1.065734 -0.401081 0.140203 -0.006075 -0.214924 -0.368470 0.177329 -0.195794 0.417114 -0.047037 0.074268 -0.001423 -0.241728 -0.240607 -0.163940 0.260196 0.044363 0.019776 0.568519 0.380348 0.229539 0.723723 0.158343 0.152630 0.104122 0.185894 0.431643 -0.398161 -0.002600 -0.281556 -0.193723 0.359104 0.243784 -0.141028 -0.160074 -0.133505 0.331345 -0.343578 0.994155 -0.413161
sent_69 -0.176486 -0.265101 -0.568498 -0.177877 0.117336 0.228129 -0.128960 0.746252 0.737298 -0.039571 -0.658837 -1.377345 -0.521666 -0.042042 -0.612203 -0.235908 0.665041 0.047754 -0.079505 0.123321 0.170189 -0.034009 0.018164 -0.504261 1.025440 0.491235 -0.058205 0.270219 1.024244 0.339535 0.246248 0.970378 0.218797 0.379349 0.011205 0.350123 0.718062 -0.092054 0.406085 0.035701 -0.521155 0.136671 -0.141840 -0.460575 -1.056050 -0.870190 0.159657 0.538625 0.933765 -0.417065
sent_70 -0.612604 -0.186876 -0.618398 0.217871 0.294569 0.407063 -0.141057 -0.217257 -0.301985 0.457448 -0.214337 -0.634965 -0.218048 -0.220634 -0.276885 -0.084415 0.119979 -0.330563 0.131132 0.221223 0.309112 0.615946 -0.399553 -0.241523 0.078542 0.413933 0.011289 0.125980 0.402488 0.503370 0.514782 1.263267 -0.080419 0.156774 0.051893 0.152646 0.197294 0.158159 -0.263106 -0.322036 -0.454710 0.149711 -0.184791 -0.179405 0.182257 -0.460964 0.336417 0.591999 1.050974 -0.125338
sent_71 -0.393412 -0.270946 -0.525402 0.179119 0.332813 0.069578 -0.107395 -0.083111 -0.220514 0.627627 -0.390017 -0.304826 -0.494898 -0.154082 -0.418209 0.053333 -0.232812 -0.320172 0.098607 -0.154607 0.432735 -0.269560 -0.361379 -0.520805 1.167020 0.424097 0.031258 0.015324 0.844001 0.604655 0.324151 1.347806 -0.220065 0.276090 -0.320826 0.318531 0.682879 -0.272064 0.236849 0.072405 -0.412649 0.289059 0.098152 0.019085 -0.650696 -0.628247 0.317888 0.655179 1.107307 -0.550537
sent_72 0.036150 0.342048 0.656694 0.429877 -0.430269 0.249492 -0.518045 -0.890605 0.219486 1.132982 -0.823814 -0.023753 0.218431 0.815681 0.330431 -1.181602 0.583769 -0.245281 0.635642 -1.051884 -0.611752 -0.818596 0.350659 -0.261897 0.432383 -0.387608 -0.849891 0.097234 -0.279373 0.294470 -0.336864 0.196059 -0.133901 0.891178 -0.771886 -0.332691 0.149938 -1.192481 -0.241324 0.187260 -0.525743 -0.704076 0.413448 0.145170 0.342371 -0.158675 -0.738557 0.087379 0.277415 -0.056066
sent_73 -0.378662 -0.107934 0.704820 0.081027 -0.477876 -0.106328 -0.682364 -0.783414 -0.154895 0.172627 -0.374276 0.413898 -0.005739 0.526751 0.395454 -0.273703 0.761932 -0.172737 0.437681 -0.381164 0.031105 -0.295922 0.214936 0.402493 0.126045 0.008148 -0.301501 0.159393 -0.667435 0.080509 0.134294 -0.342871 -0.172081 0.294226 -0.410059 0.562938 0.378869 -0.586677 0.277179 0.651726 0.041934 -0.260815 -0.452791 -0.090437 0.589617 0.031822 -0.227159 0.695741 -0.251271 0.415058
sent_74 0.338039 0.149646 0.454503 0.315419 -0.057623 0.573020 -0.025670 -1.113563 0.047294 0.674454 -0.321955 -0.029129 -0.059125 0.482682 0.351200 -0.222363 0.132288 -0.391991 0.443176 -0.298144 0.179112 -0.205312 0.115528 0.281775 -0.909483 -0.153177 -0.066305 0.170328 -0.106984 0.151146 -0.648635 0.502610 0.478747 -0.625486 -0.376012 0.171532 -0.308364 -0.499687 -0.179510 0.879373 0.535378 -0.857901 0.214351 0.022834 0.684570 0.199588 -1.296121 -0.088268 0.610330 0.215194
sent_75 0.303954 -0.445867 0.120115 0.877665 -0.171995 0.573580 0.180258 -0.859336 0.240985 0.261719 -0.465377 0.178501 -0.041075 0.574258 0.447201 -0.826078 0.646178 -0.157649 0.431468 -0.401040 0.068320 -0.210086 0.381360 0.072377 0.279103 -0.069388 0.021238 0.006652 -0.111861 0.134245 0.063769 0.716313 -0.279443 1.207861 0.096568 0.071737 0.526493 -0.337355 -0.102219 0.470644 -0.315379 -0.875412 -0.295749 -0.214432 0.742383 -0.180038 -0.733334 0.408446 0.131324 -0.499527
sent_76 -0.115155 -0.153949 0.224666 0.561944 -0.117062 0.605175 -0.026605 -1.305297 -0.103709 0.496694 -0.199005 0.057123 0.063177 0.364780 0.090471 -0.623569 0.524212 -0.539211 0.544964 -0.242843 0.053854 0.187449 0.206868 -0.114147 -0.031210 0.052474 -0.345358 0.385759 -0.778867 0.286763 0.154890 0.668383 0.029744 0.658815 -0.480372 0.122541 0.029000 -0.587410 -0.118904 0.548487 -0.288655 -0.602835 -0.498216 0.027937 0.609976 -0.161464 -0.444033 0.474231 0.125592 0.112784
sent_77 0.032009 -0.617077 -0.481020 -0.466939 -0.505342 -0.083349 0.689126 -0.487036 -0.716767 0.499695 -0.498957 -0.121098 0.102454 0.729799 0.296993 -0.744304 0.792957 -0.716823 0.043906 0.048397 0.304209 -0.168227 -0.153411 -0.452877 0.096386 -0.318880 -0.624745 0.067151 -0.712733 0.518209 -0.828122 -0.349310 0.662614 0.171867 -0.020692 0.314527 0.700905 -1.259254 0.204826 1.092235 0.607536 -0.738310 -0.895009 -0.113266 0.883888 -0.507967 -0.787408 0.533949 0.438265 -0.040898
sent_78 0.527028 -0.933879 -0.021555 0.280930 -0.233957 -0.852718 0.333602 0.172018 -0.184432 -0.042176 0.736791 -0.281784 0.210048 -0.721439 0.562037 -0.007053 -0.944836 0.073736 -0.009169 -0.107747 -0.485997 -0.289268 0.257249 -0.063797 0.960485 -0.345177 -0.428504 0.461932 0.509797 -0.027936 -0.058047 0.126392 -0.772243 0.330733 0.473108 -0.028139 -0.785289 0.518352 -0.339031 -0.085899 -0.695607 0.380635 -0.507728 -0.135665 0.100689 -0.800471 -0.009871 0.181611 0.803316 0.210117
sent_79 0.313790 -0.871219 -0.199285 -0.090755 0.798956 0.753323 0.564005 0.171474 0.002081 -0.066805 -0.189120 -0.696065 -0.285174 -0.846805 0.115722 -0.349240 0.258753 -0.241204 -0.314529 0.257737 -0.080686 0.955787 -0.071322 -0.727623 -0.372218 0.782219 0.461832 0.844081 0.490109 0.212806 0.349911 0.528149 -0.979103 0.700244 -0.501466 -0.085730 0.048465 1.748711 0.531523 1.670881 -0.762236 0.284887 -0.509391 0.242738 -0.015331 0.096979 0.469277 0.118735 0.143836 -0.279231
sent_80 0.168725 -0.611283 -0.180722 0.373436 0.258174 -0.047943 -0.216943 -0.217487 0.166521 0.290694 -0.303651 0.357680 0.360856 0.509456 0.149481 -0.352734 -0.294394 -0.369956 -0.056032 0.191356 -0.206641 -0.029110 0.864411 -0.149391 -0.015385 0.053142 -0.807180 0.445629 0.393270 0.267045 0.148719 -0.060265 -0.707110 -0.257870 0.732636 -0.247350 0.399931 0.268152 -0.177016 -0.069771 -0.481358 -0.966722 -0.097595 -0.359967 -0.063906 -0.229627 -0.047792 -0.038042 0.210159 0.162880
sent_81 0.203245 -0.546365 -0.636098 0.223243 0.138221 0.060788 -0.158136 0.083402 0.237138 0.114447 -0.076502 -0.092947 0.318469 0.200649 -0.187000 -0.176634 -0.155136 -0.028506 0.313810 0.085138 0.084236 0.297931 0.006660 -0.411929 0.325186 0.448398 -0.077894 0.475951 0.624228 0.124082 0.268123 0.393385 -0.400226 0.254424 -0.278890 0.000058 0.090414 0.271135 -0.044549 0.074884 -0.355796 0.087176 -0.045921 -0.358726 -0.361253 -0.529527 0.270079 0.446095 0.546542 0.062317
sent_82 0.129425 -0.656122 -0.563997 0.606893 0.385183 0.339471 -0.098273 0.375425 0.227042 0.334459 -0.006941 0.152019 0.031183 0.256470 -0.289141 0.072348 -0.675900 0.121778 0.675350 -0.017546 -0.089751 0.087910 -0.139321 -0.187211 0.368585 0.124792 -0.161573 0.045556 0.087427 0.369928 -0.012985 -0.160698 -0.232169 0.155221 -0.235430 -0.083050 -0.355497 0.372263 0.092741 -0.041828 -0.376301 -0.369131 0.382972 0.016578 0.369588 -0.167115 0.113539 -0.405931 0.245826 -0.151124
sent_83 0.126233 -0.850015 -0.541293 0.574885 0.517643 0.296686 0.284072 0.240373 0.046030 0.470326 0.320332 0.541559 0.112212 0.071926 0.124302 0.508358 -0.324794 -0.025335 0.680712 -0.184764 -0.486893 0.131327 -0.092328 -0.139104 0.160423 0.232676 -0.024945 0.381554 0.230403 0.487775 -0.572365 0.277307 -0.356025 0.030418 -0.265335 0.380966 -0.327115 0.433547 0.084718 -0.051034 -0.364475 -0.332875 -0.332570 -0.192762 -0.001957 -0.738029 0.083785 0.273986 0.156243 -0.502671
sent_84 -0.224408 -0.678335 -0.154686 0.627999 0.177721 0.258904 0.257401 -0.043929 0.424830 0.602552 -0.399914 0.532600 0.232012 -0.532422 0.001114 0.445917 -0.577689 0.358885 -0.097354 -0.364078 -0.134109 0.754061 0.011873 0.423570 -0.796944 -0.158025 0.140868 0.476542 -0.045544 0.032781 -0.033399 1.015582 0.732076 -1.408459 0.113589 -0.428733 0.610372 0.230476 0.443914 0.950521 0.421987 -1.073680 -0.253359 -0.088146 0.114635 -0.108694 -0.422988 0.037795 0.333645 0.135405
sent_85 -0.296819 0.061209 -0.907567 -0.591650 0.441675 0.311870 0.103564 0.184773 -0.388036 0.408586 -0.039099 -0.006688 -0.624494 -0.747761 0.448330 -0.081554 -0.355109 -0.153753 -0.463426 0.208166 0.744709 0.051017 0.223914 -0.562249 -0.138104 0.614957 0.414686 -0.237949 0.333411 -0.080356 0.540709 0.016528 -0.556381 0.521786 -0.450629 -0.444664 -0.620284 -0.148672 0.261792 0.126047 -0.805926 0.799752 0.050384 0.187266 0.336369 -0.182100 0.348279 0.079996 0.085696 -0.055085
sent_86 -0.659561 -0.147752 -1.005909 -0.053640 0.123281 0.053824 0.326629 0.384266 -0.424891 0.178986 0.315360 0.101638 -0.310229 -0.811498 0.245397 -0.358460 -0.139314 -0.027803 -0.079494 0.244907 1.027459 0.215408 0.010246 -0.291181 0.052932 0.568567 1.033185 -0.472609 0.460174 0.646060 0.528220 0.047641 -0.269663 0.600292 -0.348803 -0.144133 -0.820379 0.158756 0.141675 0.302602 -0.539630 1.091227 -0.349643 -0.034516 0.470000 -0.243265 0.245452 -0.140087 0.261246 -0.146908
sent_87 0.112407 0.136772 -0.902461 -0.340387 -0.571246 0.586950 -0.348195 0.292921 -0.542285 0.404424 0.062249 -0.582160 -0.165174 0.067175 0.472232 -0.395793 -0.102962 -0.152526 -0.820891 -0.096701 0.446314 -0.797765 0.647178 -0.816343 -0.127172 0.898204 0.495255 -0.171902 -0.224554 0.210348 0.211193 -0.628569 -0.273355 -0.064224 0.289602 0.042423 -0.884936 -0.308977 0.459284 0.095289 -0.194182 0.019209 0.399574 -0.143282 -0.407711 -0.028782 0.535957 0.546515 -0.609393 -1.011975
sent_88 -0.319626 -0.234373 -0.916802 -0.549574 0.157281 0.374832 0.314205 0.311749 -0.372049 -0.107841 -0.530545 0.019666 0.992374 -0.131654 0.395927 -0.005690 -0.280066 -0.055472 -0.184009 0.703737 0.899958 -0.037394 -0.243529 -0.694102 -0.536409 -0.382325 1.085932 0.129185 -0.011411 0.230212 0.727323 0.013203 -0.631736 1.189917 -0.247098 -0.635730 0.405111 -0.567364 0.233927 -0.000179 -0.023933 0.457955 -0.481072 0.877410 -0.089333 -0.288308 0.458029 -0.430470 -0.865138 0.157662
sent_89 -0.736792 -0.201137 -0.846950 -0.720858 0.103140 0.395572 0.425664 0.714403 0.258753 0.148424 -0.575215 -0.946730 -0.610933 -0.164682 -0.021320 -0.387756 0.177134 0.084823 -0.249611 0.372981 0.639078 0.192763 0.059111 -0.948317 1.070781 0.369222 0.457120 0.341598 0.865460 0.349194 0.292396 0.829674 -0.039594 0.591507 -0.010501 -0.517061 0.632207 0.100859 0.824160 0.503071 -0.804917 0.664976 -0.501967 -0.139891 -0.842696 -0.667333 0.106824 0.070859 0.363250 -0.668834
sent_90 -0.288821 -0.090365 -0.696132 -0.172587 -0.020655 0.431153 0.286517 0.447202 -0.353377 -0.034790 0.236590 -0.065027 -0.309540 -0.545219 0.442704 -0.762615 -0.296384 -0.341175 0.046842 0.157031 0.822817 -0.139322 0.329702 -0.610660 -0.260428 0.217298 0.695288 -0.393935 0.292906 0.192831 0.616305 -0.013338 -0.765415 0.918904 -0.416956 -0.176800 -0.214771 0.104716 0.333671 0.065800 -0.224683 0.493653 -0.164164 -0.009618 0.240258 0.014000 0.110973 -0.367947 0.164366 0.131103
sent_91 -0.535947 -0.181212 -0.956787 -0.898822 0.216148 0.060266 0.543082 0.348600 -0.557650 -0.011284 -1.193401 -0.206103 -0.014462 -0.496360 0.266637 -0.508675 -0.191063 0.245475 0.022688 0.210677 0.684050 -0.140214 0.181668 -0.205873 0.524001 0.402701 0.678407 -0.487131 0.115725 0.020843 1.024501 0.753603 -0.389411 0.929421 -0.027974 -0.535328 -0.260464 -0.821431 0.459607 0.285445 -0.497266 0.623182 -0.342354 1.425805 0.144559 -0.111257 0.356220 -0.015029 -0.658636 0.259300
sent_92 0.160067 -0.082357 0.162429 -0.352051 0.175724 0.924434 1.091454 -0.059082 0.026326 -0.017834 0.763925 -0.277077 0.037564 -0.199606 1.182809 0.220604 -0.053220 0.368513 -0.576770 0.267006 -0.640904 0.490726 -0.360651 1.023308 0.138657 0.310452 -0.082867 -0.628920 -0.420583 0.061771 -0.053247 -0.190911 -0.168864 -0.239430 -0.232736 -0.214364 0.152386 -0.124315 -0.418452 0.252213 -0.165740 -0.280988 0.278655 0.284086 -0.123069 -0.293052 -0.416385 0.431069 -0.156818 -0.003483
sent_93 -0.331919 0.476995 -0.103674 -0.390897 -0.232590 1.240417 0.664271 -0.209537 0.422767 0.002756 0.431375 -0.558926 0.107771 -0.004323 0.736036 0.311256 -0.107176 0.727965 -1.088301 0.148112 -0.773788 0.247349 0.005536 0.427576 -0.048697 0.094996 -0.368705 -0.750062 0.359087 -0.114548 -0.224669 0.368254 0.390114 -0.947152 0.244431 -0.660841 0.928888 -0.507097 -0.058187 0.126979 0.397129 0.048210 0.045490 0.311856 0.686736 0.317795 -0.272913 -0.177144 -0.170805 0.253014
sent_94 0.327289 -0.069854 -0.422002 -0.719890 0.450803 0.661317 0.910955 0.027275 0.415811 0.151821 0.731987 -0.272249 -0.077309 -0.139161 0.737488 -0.157195 -0.093642 0.113973 -0.515300 0.614303 -0.658940 0.504134 0.022001 0.690766 -0.624690 0.187642 0.068311 -0.372486 -0.401702 -0.151494 -0.051892 -0.530864 0.018017 -0.212706 0.246352 -0.457762 0.360433 -0.337637 -0.221360 -0.476016 -0.438281 -0.538406 0.263235 -0.358443 -0.057783 0.833850 0.386494 0.158353 -0.313078 -0.234895
sent_95 0.523115 0.296579 -0.099403 -0.660783 0.589922 1.096493 0.684529 -0.059013 0.978932 0.320742 0.538403 -0.038555 -0.317047 -0.221342 0.843024 0.174261 0.014860 -0.134726 -0.576369 0.449460 -0.366053 0.341836 -0.055136 0.740735 -1.093920 0.043139 0.570769 0.000889 -0.062250 0.129246 -0.565912 0.288602 0.141594 -1.495847 0.170117 -0.449824 0.052336 -0.377293 0.369454 0.631041 0.199785 -0.656608 0.286671 -0.066755 0.181168 0.490200 -0.468632 0.096183 0.156721 0.095277
sent_96 0.266405 -0.255943 -0.181200 -0.011607 -0.154121 1.296918 1.266244 -0.238289 0.548279 -0.098289 0.559314 0.015404 -0.558073 0.153531 0.924947 0.066836 0.225308 -0.020249 -0.351215 -0.034577 -0.952042 0.633450 -0.343722 -0.004487 -0.136777 0.578537 0.255158 -0.418161 -0.686857 -0.183612 -0.887271 -0.360051 0.549944 0.048256 0.148875 -0.306824 0.554368 -0.717589 -0.012657 0.322407 -0.284848 -0.146619 0.228421 -0.118403 0.038889 0.313177 -0.547732 0.813103 -0.431643 -0.134294
sent_97 0.049177 -0.107645 0.066211 -0.293168 0.469725 0.915398 1.196903 0.125999 0.674533 -0.087441 0.642165 -0.311486 -0.061269 0.041351 0.786986 -0.520755 -0.189818 0.244159 -0.492298 0.606294 -0.763778 0.226774 0.418813 0.785876 -0.026102 0.250119 -0.403053 -0.519546 -0.364429 0.160586 -0.080119 -0.319446 -0.094679 -0.306232 0.212269 -0.585007 0.490483 -0.179674 -0.225416 -0.034923 -0.396532 -0.297170 -0.030508 -0.258296 0.079643 0.440358 0.117358 0.134645 0.054852 0.083286
sent_98 0.333401 -0.130107 -0.209586 -0.419791 0.487004 0.767261 0.402360 0.254152 0.501931 0.049639 0.584017 -0.086607 0.016593 -0.135493 0.533186 0.309724 0.237077 0.016342 -0.751784 0.648659 -0.524218 0.340027 -0.016806 0.790831 -0.656274 0.356710 0.111564 -0.268651 -0.583175 -0.181124 -0.445366 -0.295491 -0.072721 0.009166 -0.299383 -0.489179 0.354531 -0.233020 0.120979 -0.102086 -0.333234 -0.248680 -0.233046 -0.135944 0.102830 0.369686 0.319567 0.460382 -0.065736 0.192907
sent_99 0.098097 -0.411694 -0.682722 -0.198067 0.106522 -0.529809 0.092517 0.284039 -0.357203 0.331292 -0.135089 -0.163723 -0.010299 -0.389839 -0.113828 0.278428 -0.154067 -0.721096 0.885105 -0.631696 -0.263377 -0.055807 0.213955 0.411665 0.443485 -0.293004 0.011818 -0.059372 0.836173 0.237762 -0.187369 1.092337 -0.424587 0.197782 0.198809 -0.013791 0.409109 0.086374 0.655708 0.915683 -0.594766 -0.586966 -0.230614 0.017732 -0.343729 -0.629833 -0.302014 0.560912 0.225764 -0.348201
sent_100 0.335366 -0.634471 -0.723904 -0.518499 0.345113 0.463547 0.178079 -0.286629 0.782305 -0.407619 0.239164 0.164635 -0.390563 0.079016 -0.093204 0.363336 0.110610 0.024664 0.597311 0.238553 0.522088 0.394681 0.993147 0.514174 0.830042 -1.044118 -0.048130 -0.515194 0.337000 -0.005533 0.147236 0.339584 -0.078519 0.437156 0.179972 0.122743 -0.064270 0.315056 -0.046441 0.114345 -1.135798 -0.337177 -0.094672 -0.388917 -0.200298 -0.679756 0.416335 -0.254721 0.782889 -0.221805
sent_101 -0.047427 -0.703292 -0.826600 0.567487 0.338725 0.151997 0.188968 -0.300790 0.198596 0.338030 0.108873 -0.338402 -0.356841 -1.010456 -0.255203 0.169664 0.286543 -0.305641 0.103660 -0.327090 0.200731 0.278579 0.094941 0.058547 0.961441 0.044864 0.224580 0.500541 1.002632 -0.050877 -0.380786 0.975271 -0.830718 0.863167 -0.300842 0.050317 0.562695 0.443651 0.753833 0.316910 -0.782855 -0.458822 -0.684337 -0.099931 -0.491358 -0.673968 0.747598 0.585254 0.110810 -0.428922
sent_102 -0.608535 0.306379 -0.871062 -0.375436 0.372439 0.305471 0.598700 0.774464 0.146146 0.681370 0.258134 -0.901787 -0.493923 -0.617217 -0.270092 -0.305004 -0.310342 -0.373542 0.591429 -0.173920 0.841571 -1.349743 0.134365 -0.732383 0.652404 0.048824 -0.346641 -0.083918 0.590308 1.308256 -0.534305 0.056830 -0.591283 1.156646 -0.110420 0.625733 0.455806 0.299274 0.228499 0.410709 -0.984302 0.061608 -0.280241 0.506935 -0.160265 -0.996856 0.741130 -0.443790 0.080662 -0.478277
sent_103 -0.271741 -0.050004 -0.498944 0.312186 0.948566 0.489681 0.124133 -0.026136 -0.032561 0.051772 -0.043013 -0.222950 -0.216957 -0.360535 -0.210132 -0.152037 -0.064896 -0.064577 -0.063307 -0.112313 -0.300171 0.048632 0.584442 0.180042 0.588998 -0.648861 -0.428669 0.205733 0.273371 0.293787 0.211685 1.063078 0.035068 0.486815 0.412975 -0.033675 -0.036797 0.380797 0.738292 0.437422 -0.848408 -0.267901 -0.555233 0.285211 -0.276933 -0.403334 0.529885 0.550406 -0.652015 -0.044116
sent_104 -0.258061 -0.422803 -0.628559 0.339216 0.467704 -0.023409 0.263748 -0.010589 -0.107102 -0.126421 -0.026070 -0.228132 -0.045161 -0.449687 -0.521084 0.134015 -0.194923 -0.635187 0.551457 -0.374973 -0.043861 0.186051 0.445747 -0.044477 0.758868 -0.101240 0.176308 0.089046 0.340873 0.171359 -0.156532 0.646055 -0.352784 0.689752 0.382565 0.008906 0.418843 0.750715 0.145149 0.294414 -0.701150 -0.318251 -0.102184 0.027981 -0.650562 -0.637246 0.453359 -0.116711 -0.071754 -0.237170
sent_105 0.312600 -0.377761 -0.397334 -0.066137 -0.141354 0.381949 0.229437 0.058128 -0.177805 -0.167399 0.045120 0.391677 0.097333 -0.569306 -0.477445 -0.229487 -0.397976 -0.433468 0.625792 -0.334105 -0.325422 0.441537 0.538844 0.329274 0.376240 -0.240751 0.471546 -0.178649 0.526490 0.353839 0.019881 0.598249 -0.151288 0.279030 0.117052 0.118533 0.880611 0.185276 0.009392 0.918254 -0.207931 -1.015593 -0.755569 -0.103588 -0.579334 -0.425860 0.300822 -0.352122 -0.120441 0.341003
sent_106 0.237851 0.410263 0.114904 0.280258 0.063488 0.004373 0.590308 -0.135762 0.149853 -0.466832 0.071641 -0.284407 -0.035906 0.478091 -0.005653 0.614467 -0.183214 -0.839559 -0.124765 -0.126051 0.124714 -0.000492 -0.051229 0.269679 0.092894 -0.015244 0.124534 -0.227377 0.176041 -0.123642 -0.313239 0.159771 -0.157227 -0.056680 -0.028964 0.013446 0.209496 0.335345 0.480175 0.203073 -0.068922 -0.211652 0.269510 0.155179 -0.180922 -0.099064 0.334447 -0.459994 0.327886 -0.129983
sent_107 -0.005027 0.409342 0.028317 0.766040 0.164493 -0.145422 0.820460 0.034513 -0.208161 -0.524003 -0.379162 0.468639 0.346847 0.146208 0.303193 -0.441283 -0.662845 -0.748472 -0.107902 -0.256598 0.338683 -0.324254 0.036542 0.677650 0.103375 -0.223261 0.075192 0.250963 -0.645654 0.448195 -0.079395 0.134788 0.215471 -0.021214 0.284801 -0.004916 0.530478 0.511181 0.756490 0.022313 -0.764607 -0.265226 0.267337 0.188403 0.488049 -0.342258 0.691143 -0.145551 0.106857 -0.002787
sent_108 -0.118529 0.365706 0.130372 0.474782 -0.041789 -0.118458 0.523401 -0.417004 -0.043151 -0.377703 0.165494 -0.492431 0.365852 0.332728 -0.095490 0.785980 -0.580857 -0.809457 -0.479972 -0.262391 0.302975 -0.247687 -0.675757 0.266199 -0.121855 0.364170 -0.151282 0.075172 0.237259 -0.213939 -0.684860 0.290581 0.259249 -0.155803 -0.510102 0.101740 0.191505 0.523606 0.427653 0.405233 0.066459 0.114182 0.397035 0.165712 -0.437159 0.247901 0.120441 0.235852 0.294977 0.126452
sent_109 0.123530 0.295360 -0.076915 1.039835 0.142820 0.082116 0.736482 -0.055066 -0.093724 0.389724 -0.167285 -0.126644 -0.405172 0.153154 -0.230386 1.044683 -0.520644 -0.362821 -0.524855 -0.215096 0.289819 -0.634605 -0.078432 0.116543 0.170881 0.088169 -0.144641 -0.258409 0.053180 -0.304668 -0.781676 -0.199210 0.327519 -0.106439 0.304362 0.141834 -0.088455 0.573374 0.502594 0.697017 0.411494 0.229237 0.463552 0.822852 0.236702 -0.510939 -0.169216 -0.128829 0.211249 -0.639433
sent_110 0.099854 0.393986 0.145466 0.382148 -0.049199 0.407452 1.160146 -0.751356 -0.506904 -0.061548 -0.152131 -0.376297 0.379614 0.480544 -0.166575 0.731956 -0.169505 -0.816235 -0.821298 0.473221 0.378091 -0.301712 -0.247121 0.023754 0.359209 0.693820 0.241565 0.168098 -0.317929 -0.255965 -0.707865 -0.261990 0.850238 -0.273867 0.051803 0.231201 0.001256 0.362842 0.290568 0.357558 0.174906 0.431066 0.025078 0.336425 -0.195636 -0.730043 -0.002386 0.165548 -0.072393 -0.430341
sent_111 0.308348 0.554179 1.035358 0.109974 -0.241635 0.174237 -0.278800 -0.274175 -0.967839 0.636496 -1.329431 -0.869509 -0.620397 1.122937 -0.005982 0.036541 -0.017403 -0.332002 -0.315724 0.202323 -0.665663 -0.199993 -0.359847 -0.577079 0.501618 0.339035 0.096826 0.400762 -0.038795 -0.340503 -0.161696 -0.827764 0.577994 0.856098 -0.283034 -0.397000 -0.100336 0.611783 0.022494 -0.099638 0.226325 -0.269761 0.048286 -0.456596 -0.301911 -0.901238 0.181727 -0.220819 -0.638458 -0.518544
sent_112 0.582267 -0.205270 0.312635 0.381990 0.146849 0.026432 0.454221 -0.078738 0.425717 0.963600 -0.014322 0.173222 0.341306 0.253846 -0.088109 0.492402 0.237286 -0.213752 0.103673 -0.023565 -0.127797 1.159100 -0.062177 -0.106102 -0.707308 1.094323 0.719419 0.352795 0.417380 0.123281 -0.851137 -0.002234 0.532127 -0.791773 -0.286196 -0.622893 1.114810 -0.001710 0.047491 0.451998 0.554773 -0.477888 -0.242700 0.373514 -0.212136 0.889603 -0.116617 -0.001212 -0.039352 0.554424
sent_113 0.589933 -0.255460 0.298568 0.476642 0.151601 0.004559 0.467602 -0.051702 0.379080 0.864783 -0.049607 0.162404 0.384496 0.245070 -0.125347 0.383448 0.284301 -0.237972 0.073149 0.058395 -0.079898 1.023972 0.027251 -0.116843 -0.731791 1.004009 0.641788 0.421888 0.360203 0.154413 -0.798216 -0.063315 0.458549 -0.691672 -0.209351 -0.588758 1.011406 -0.012063 0.072795 0.450659 0.369141 -0.471618 -0.205756 0.405748 -0.195498 0.915130 -0.134624 -0.038088 -0.083200 0.542739
sent_114 -0.167168 -0.111341 0.315009 0.984654 -0.245110 -0.282482 0.244208 0.069415 0.322205 0.752835 -0.120758 -0.070165 0.381333 0.076785 0.258001 0.321378 -0.679203 -0.335718 -0.202572 -0.184622 -0.483426 1.195148 0.220128 0.000493 -0.771811 0.961713 0.313224 -0.284414 0.236834 -0.493327 -0.439390 0.735651 1.193679 -1.693997 -0.375081 -0.617390 1.838488 -0.013668 -0.505746 0.839162 1.152580 -0.827027 0.345029 -0.251150 -0.302171 0.447239 -0.819538 -0.374600 0.297229 0.423905
sent_115 0.194721 -0.259678 0.183328 0.814110 0.262450 -0.094956 0.042819 -0.242621 0.266805 0.889315 -0.753436 -0.140710 0.652227 0.588764 0.107089 0.343224 -0.517247 -0.188019 0.037158 -0.309561 -0.639740 0.859098 0.164372 -0.710698 -0.587054 0.303994 0.377471 -0.247139 0.781199 -0.127250 -0.621269 0.259084 0.640681 -0.531926 -0.171396 -0.503912 1.314342 0.183422 0.050078 0.256391 0.881386 -0.508960 0.217886 0.294018 -0.200593 0.341841 -0.203226 -0.033364 -0.535306 -0.319598
sent_116 0.289364 -0.713482 0.422268 0.713486 0.183519 -0.034761 0.288747 0.326497 0.351254 0.367822 -0.447761 -0.033777 0.253507 0.584170 -0.219750 0.131314 -0.323712 0.147143 -0.527125 -0.028187 -0.834098 0.296782 0.390233 -0.056794 -0.158743 0.387612 0.517026 -0.229927 0.909188 -0.150835 -0.897049 0.592426 0.801681 -1.502518 -0.608762 -0.721028 1.474570 0.104054 -0.171425 0.728320 0.969120 -0.855470 -0.809435 1.181362 0.318746 0.325611 -0.608313 -0.479745 0.004183 0.005131
sent_117 -0.025304 -0.104211 -0.008603 -1.088861 -0.113633 0.588548 0.038086 -0.037244 -0.119958 0.657587 0.553456 0.336526 0.111237 0.134466 -0.080978 0.252233 0.121176 -0.138099 -0.116493 0.682269 0.385509 0.127712 0.385009 -0.584619 -0.196487 -0.473674 0.234563 0.478005 -0.300283 -0.012325 0.059987 0.473722 0.338225 -0.657844 0.909540 0.135389 0.480150 -0.285700 0.103639 -0.072814 -0.803625 -0.099607 -0.611897 -1.197944 -0.674973 -0.576951 -0.221480 0.160284 0.245249 -1.112411
sent_118 0.112517 -0.083835 -0.059201 -0.863725 -0.371968 0.509246 0.018296 -0.193421 -0.014619 0.642712 0.693629 0.177892 0.048728 0.432317 -0.269080 -0.193350 0.339760 0.225428 0.218451 0.098308 0.252414 0.285251 0.557708 -0.597804 -0.577542 -0.417017 0.412114 -0.308796 -0.323533 -0.399820 0.403448 0.018437 0.067085 -0.339907 0.857862 0.353315 0.827206 -0.218452 0.066152 -0.042547 -0.084156 0.381138 0.095136 -1.656201 -0.820748 -0.192094 -0.470719 -0.092832 0.319080 -0.660222
sent_119 0.270917 0.240868 -0.212684 -0.874361 -0.217274 0.118412 0.082092 -0.245384 -0.133862 0.433142 0.720095 0.002686 -0.244564 0.157680 -0.277773 0.112377 0.273092 -0.252485 -0.054131 0.399800 0.235523 -0.021308 0.482704 -0.129049 -0.122308 -0.355755 0.086280 0.404952 -0.254510 -0.054968 0.143029 0.155817 0.044954 -0.823868 0.625587 0.413756 0.344747 -0.321121 0.120038 -0.039894 -0.623021 -0.100766 -0.271073 -0.779640 -0.635691 -0.300766 -0.301350 0.129658 0.489215 -0.534061
sent_120 0.060658 -0.152545 -0.128787 -0.944013 -0.392105 0.953053 -0.303939 -0.356634 -0.473187 0.676964 0.674637 0.129595 0.181698 -0.474887 -0.054648 -0.298034 0.250493 -0.006019 0.297127 0.705032 -0.033895 0.271179 0.154045 -0.550211 -0.128864 -0.704276 0.043855 -0.178473 -0.430177 -0.275936 0.245417 -0.015545 0.010464 -0.706034 0.938296 0.243765 0.673697 -0.011533 0.063192 -0.094995 -0.141882 0.274153 -0.157685 -1.616910 -1.029790 0.067339 -0.804777 -0.315307 -0.068517 -0.987745
sent_121 0.187114 0.527294 -0.333622 -0.676545 -0.033375 0.530318 0.019945 -0.036223 -0.409671 0.414049 0.567059 -0.168809 0.553109 0.398671 -0.291636 -0.426587 0.147593 -0.137143 0.108859 0.060256 0.208508 -0.115800 0.481920 -0.726774 -0.218617 -0.554870 -0.258628 0.241120 -0.363545 -0.305555 0.059093 0.441106 -0.174781 -0.116683 0.855724 -0.118631 0.762202 -0.550148 0.232338 -0.236254 0.162744 0.247585 0.059371 -1.339682 -1.060070 0.002057 -0.162211 0.033302 0.302630 -0.469956
sent_122 0.299671 0.242064 -0.214107 -0.682308 -0.250837 0.149531 -0.003367 -0.039771 -0.163979 0.572445 0.506391 0.279359 0.007987 0.321075 -0.323090 0.208456 0.401577 -0.331291 0.118524 0.268254 0.306462 0.343055 0.511574 0.095662 -0.128635 -0.440779 0.254237 0.207751 -0.019027 -0.242964 0.083654 0.337172 0.095720 -0.858224 0.486206 0.479471 0.363407 -0.476318 0.101562 -0.264639 -1.029299 0.034409 -0.047308 -0.859985 -0.379834 -0.396630 -0.176328 0.068594 0.304606 -0.534180
sent_123 -0.017475 0.203381 -0.263233 -0.494705 -0.281025 0.202305 0.069620 -0.077813 -0.249123 0.514517 0.635328 0.087179 -0.117431 0.370466 -0.264233 0.137779 0.295245 -0.338381 -0.004885 0.645426 0.440105 0.083874 0.715934 -0.148463 -0.269152 -0.423457 0.126994 0.079483 -0.027438 -0.219926 0.021030 0.027481 0.043387 -0.713746 0.494290 0.424135 0.671576 -0.294321 -0.009451 -0.140610 -0.820243 -0.121546 -0.011513 -0.901616 -0.352503 -0.514858 -0.139000 -0.049861 0.130556 -0.572450
sent_124 -0.885482 -0.792850 0.816546 0.458945 0.073850 -0.957390 -0.310956 -0.697823 -0.387364 -1.145947 0.550486 0.867258 -0.587070 0.585858 -0.436665 -0.944851 0.679011 -0.334172 0.282636 0.427924 0.660977 0.038130 -0.187036 -0.662570 0.245335 0.234300 -0.066665 -0.795642 0.780905 0.436262 0.370267 -0.274622 -0.896633 0.388117 0.055482 -0.207542 0.664217 -0.395204 -0.229465 -1.201554 0.683290 -0.012672 0.367419 0.361400 0.730847 0.134568 -0.237200 0.244251 0.084253 0.107159
sent_125 -1.161964 -0.468377 1.223145 0.360993 0.060808 -0.788837 -0.172490 -0.786593 -0.622522 -1.022745 0.305044 1.024498 -0.638517 0.059610 -0.621321 -0.915064 0.798817 -0.103146 0.100581 0.813929 0.304905 -0.094478 -0.791598 -0.105750 0.273590 0.661514 0.344104 -0.281514 0.527291 0.427275 0.504030 -0.596443 -0.108847 -0.199861 0.112277 -0.297050 0.596722 -0.451829 -0.097588 -1.077180 0.660415 0.470195 0.537853 0.007600 0.479291 0.139738 0.133302 0.496736 0.196879 0.117606
sent_126 -0.490468 -0.330868 1.158981 0.369712 0.126954 -0.731334 -0.391527 -0.690387 -0.025073 -0.934354 0.162443 1.231030 -0.524773 0.140765 -0.276161 -0.780228 0.664328 -0.027194 0.637714 0.942309 0.420747 0.382735 -0.863038 0.150799 0.290930 0.533284 -0.023104 -0.434689 0.500122 0.627776 0.455903 -0.389273 -0.559596 -0.124692 -0.362409 -0.344917 0.861584 0.042538 -0.093320 -1.151352 0.626715 0.309079 0.333046 0.259946 0.350516 0.119994 -0.154632 0.574806 0.485456 0.183726
sent_127 -1.007229 -0.460493 1.154036 0.424116 -0.100478 -0.838307 -0.473219 -0.004108 -0.260757 -1.137297 0.284585 0.912204 -0.657108 0.184998 -0.515417 -0.757412 1.136833 0.051574 0.116032 0.437911 0.134922 -0.014976 -0.322538 -0.164773 0.058550 0.143847 -0.592517 -0.282589 0.519244 0.734291 0.687004 -0.333754 -0.221585 -0.087237 -0.255937 -0.196811 0.997255 -0.211275 0.353293 -1.160977 0.435748 0.318701 0.292483 0.356361 0.586095 0.254107 -0.107089 0.593598 0.199964 0.150570
sent_128 -1.116400 -0.487737 0.833246 0.315756 0.070927 -0.725362 -0.835492 -0.491832 -0.761885 -0.865140 -0.106731 1.367787 -1.060338 0.267398 -0.516475 -0.862806 0.596214 0.168049 0.458728 0.211039 0.018628 0.281617 -0.172199 0.141510 -0.228976 0.264780 0.090880 -0.261686 0.319020 0.710260 0.080234 -1.183600 -0.450044 0.049761 -0.306478 -0.852378 0.934853 -0.197934 -0.010834 -1.047108 0.603006 0.692927 -0.140779 -0.147384 0.326530 0.231171 -0.486849 0.397008 0.264052 -0.019456
sent_129 0.299148 -0.122735 0.638388 0.188182 -0.816286 0.854731 -0.049169 0.010604 -0.763906 0.224695 -0.752007 -0.422172 0.154922 -0.615004 -0.225146 0.450605 0.017892 0.121968 0.044957 -0.334397 -0.168299 -0.082506 -0.742968 -1.018718 -0.653133 -0.143644 0.587351 -0.396092 0.140509 0.286531 -0.667906 0.217347 1.052872 0.399158 0.304429 0.790306 -0.098519 -0.158628 0.384244 0.278919 0.720617 0.426619 -0.201250 -0.073557 -0.263832 -0.013144 -0.401000 0.645452 -0.329355 -0.323335
sent_130 -0.135221 -0.124722 -0.173308 0.273836 -0.475946 0.647610 -0.165613 0.084012 -0.411609 -0.186772 -0.495040 -0.546717 0.531646 -0.672036 -0.169794 0.337771 -0.459525 0.358743 -0.365865 -0.110731 -0.491421 -0.119772 -0.207103 -0.322725 -0.335406 0.529031 -0.161273 -0.580256 -0.250332 -0.009968 0.271439 0.303537 0.998660 -0.107669 0.374861 0.646648 -0.120278 -0.250113 0.100348 0.298578 -0.470281 -0.143932 0.095521 0.224075 -0.491300 -0.343515 0.325288 0.209067 -0.549339 -0.510692
sent_131 0.006602 -0.077138 0.616779 0.724340 -0.687548 0.450741 -0.309544 0.288124 -0.020994 0.985553 -1.115901 0.074777 0.419199 -0.076936 0.099611 -0.334148 0.147299 0.177596 0.735005 -0.709439 -0.799436 -0.577611 0.127909 -0.661985 0.453529 -0.100148 -0.150564 -0.114561 0.480039 0.106755 -0.653719 0.251068 0.869811 0.802330 0.013668 0.108552 0.463873 -0.361901 0.244612 0.154665 -0.588316 -0.170588 0.441453 0.177491 -0.293992 -0.076408 -0.232794 0.086057 0.210945 -0.455976
sent_132 0.077162 -0.524017 -0.037510 0.660383 -0.748262 0.213530 0.043684 -0.219852 -1.038155 0.617273 -0.767795 0.079460 -0.091546 -0.024412 0.092995 0.167115 0.799370 0.136365 0.113995 -0.247033 -0.502714 -0.073491 0.380441 -0.675789 1.039232 0.149192 0.052971 -0.290939 -0.140310 -0.271927 -0.181338 -0.253678 0.974031 -0.606882 0.418011 0.438025 0.517775 -0.085857 0.320363 0.752194 -0.138320 0.018478 0.190863 0.493702 -0.348316 -0.135562 -0.383091 -0.059640 -0.218556 -0.383336
sent_133 0.168164 -0.355841 0.412979 0.760940 -0.713010 0.882904 0.291640 0.254779 -0.455952 0.439961 -0.875260 -0.645640 0.157257 -0.182191 -0.116161 -0.023370 0.109248 0.599422 -0.280338 -0.354020 -0.585804 -0.294859 -0.422161 -0.726552 -0.194318 0.594672 0.585481 -0.348889 0.100538 -0.102617 -0.745980 -0.236974 1.390341 0.539828 0.059167 1.145465 0.434114 -0.346626 0.069972 0.806182 -0.125304 0.682660 0.110689 0.291926 -0.032835 -0.143329 -0.782977 0.451885 -0.070657 0.323263
sent_134 0.052267 -0.476803 0.189424 0.374880 -0.730315 0.557150 -0.107480 0.387084 -0.385636 0.194592 -0.682077 -0.205750 0.131363 -0.457396 -0.582166 0.395804 0.208777 0.091827 0.375118 -0.336594 -0.126394 0.048252 -0.029855 -0.330650 -0.168834 0.015081 0.126236 -0.105533 0.149835 0.195194 -0.495365 -0.187455 0.677967 0.467675 0.152825 1.057173 -0.010498 -0.021562 -0.000424 0.400598 0.003478 0.046748 -0.190389 -0.114982 -0.295631 0.179279 -0.193482 0.074486 0.361047 0.145268
sent_135 -0.636075 0.462276 -0.659846 1.124232 0.540721 0.850487 0.145162 1.170241 -1.196512 -0.247635 0.295595 0.776187 1.032871 -0.756445 0.524729 -0.604108 -0.093691 0.817183 -0.791227 0.271276 0.033076 1.387414 0.084609 0.761935 -0.135727 0.208448 0.139847 -0.616418 -0.222763 -0.147688 0.263084 1.337803 0.343796 -0.678826 0.678183 0.275192 -0.912265 0.093549 1.043845 -0.885014 -0.710607 0.407967 -0.419222 -0.137918 -0.371254 -0.641102 0.506360 0.741495 -0.772262 -0.388944
sent_136 -0.099747 0.705862 -0.722097 0.707051 -0.431236 0.552634 0.302812 -0.055051 -0.269899 -0.878594 0.538176 1.057854 0.889062 -0.557919 0.364192 0.214953 -0.421976 0.247552 -0.427247 0.596198 -0.336560 0.410926 -1.038396 0.728924 0.220334 0.589653 -0.164289 -0.589029 -0.063620 0.126640 0.218465 1.538941 -0.287100 -0.489316 0.576276 -0.037763 -0.698111 -0.107918 0.512082 -0.877763 -0.358869 -0.253596 -0.371324 -0.808834 -0.496208 -0.603779 0.822827 0.378179 -1.220655 -0.918609
sent_137 -1.017079 -0.522549 -0.600604 1.122292 -0.549222 0.394567 -0.053445 0.262416 -0.528456 -1.120259 0.285391 1.084684 0.259273 -0.497094 0.032103 -0.317436 0.218044 0.141341 -0.463738 -0.044585 -0.264231 0.147274 -0.053315 0.486522 0.489990 -0.141075 0.346020 -0.281124 0.191676 -0.026034 0.490949 1.474423 0.334890 -0.391567 0.988251 -0.172157 -0.577135 -0.474383 0.774609 -0.485311 -0.100193 -0.277065 -0.523818 -0.214601 0.166327 -0.506657 0.123599 0.054873 -1.426651 -1.025409
sent_138 0.084635 0.896759 -0.281488 0.320500 0.054974 1.055011 0.203205 0.258524 0.243024 -0.374279 0.337533 0.613945 0.276931 -0.278177 0.193633 -0.178071 -0.642876 0.541654 -0.607071 0.381736 -0.446917 0.410710 -0.353863 0.891154 -1.039395 0.107831 0.106396 -0.360027 0.149065 -0.236695 0.068087 1.398748 0.499020 -1.288752 0.671866 0.006055 -0.739998 -0.551865 0.609246 -0.566863 0.248532 -0.640717 -0.132748 -0.511997 -0.044554 -0.618310 0.153260 0.358689 -0.454148 -0.264822
sent_139 -0.494906 0.493641 -0.367760 0.239219 -0.016219 0.260950 -0.017551 0.166702 -0.178094 -0.915946 0.564403 0.345736 0.521005 -0.201368 0.039663 0.006304 -0.217644 0.555540 -0.476806 0.568833 -0.330625 0.287684 -0.504262 1.022240 -0.019978 0.153549 -0.116489 -0.470615 0.070609 0.182701 0.548585 0.780563 0.287572 -0.657036 1.150784 0.163621 -0.903826 -0.362710 0.563785 -1.155538 -0.199352 -0.057835 -0.260372 -0.752243 -0.189682 -0.731252 0.473341 0.457481 -1.027197 -0.991852
sent_140 -0.237557 0.509924 -0.696532 0.279217 -0.243672 0.629341 0.247906 0.537432 -0.458437 -0.626492 0.134558 0.895567 0.686008 -0.622379 0.148018 -0.083898 -0.090155 0.261418 -0.747663 0.554418 -0.550815 0.238011 -0.357590 0.527442 -0.027888 0.361175 -0.295560 0.084867 0.190552 -0.057121 0.317679 0.638261 0.201241 -0.286889 0.809041 -0.058995 -0.700014 -0.388622 0.628908 -0.808959 -0.820134 -0.529042 0.131856 -0.708171 -0.442384 -0.486291 0.847232 0.851590 -0.659052 -0.693884
sent_141 -0.655282 0.065749 0.828491 -0.127589 0.226986 -0.085393 -1.278735 0.137539 -0.302638 0.078100 -1.104756 0.018441 -1.035222 1.271602 0.414220 0.137833 0.592105 0.470959 0.007775 -0.208594 -0.356360 -0.174676 0.242882 0.307902 -0.812886 -0.530345 0.041846 -0.263306 -0.278229 0.944900 -0.922334 -0.647082 -0.181154 0.134991 -0.264907 -0.054573 0.939712 0.371736 0.647503 0.026815 0.536058 0.186668 -0.177479 -0.431606 -0.359402 -0.261587 -0.364270 0.053728 -0.358775 0.266675
sent_142 -0.249551 0.375273 1.628896 -0.332636 0.266414 0.064462 -1.104344 -0.518454 -0.467514 0.624947 -1.245031 -0.223349 -0.552423 1.657108 -0.377809 -0.066791 0.912505 -0.273019 0.086873 0.590263 -0.662663 -0.102594 0.292375 0.007930 0.343245 -0.305101 -0.558992 -0.208491 -0.158194 0.832215 -0.956811 -0.171172 0.563881 0.658354 -0.436453 -0.135189 0.539521 0.145098 0.197400 0.384602 0.897725 -0.054135 -0.248926 -0.210195 -0.407378 -0.576622 -0.024811 -0.031729 -0.531747 0.010642
sent_143 -0.024158 0.285631 0.988066 0.030286 0.053381 0.287138 -0.798206 -0.195315 0.200342 0.146759 -0.610110 -0.375789 -0.339334 1.243339 0.450140 0.896854 0.762618 -0.210696 0.108765 0.165577 0.141594 -0.160781 -0.010340 0.250164 -0.810805 -0.517894 -0.460485 -0.106693 -0.649992 0.848093 -0.955248 -0.083876 0.127894 -0.061679 -0.552997 0.455613 0.283326 0.443234 0.673567 -0.124079 0.146987 -0.115387 -0.368955 -0.089520 0.059151 -0.295309 0.120612 -0.015632 -0.409291 0.507185
sent_144 -0.407323 0.155807 0.703478 0.324820 0.383104 0.335705 -1.031267 -0.005449 0.109327 0.007024 -1.153269 -0.413824 0.058300 1.444301 0.712604 0.374693 0.731667 0.179749 0.045078 0.054641 -0.022431 -0.382488 0.340123 -0.124637 -0.756447 -0.786045 -0.300667 -0.116205 -0.530759 0.660421 -0.660336 0.135214 -0.127722 0.173277 -0.133170 0.178823 0.828147 0.210906 0.494292 -0.054936 0.180576 -0.128089 -0.262256 0.033492 -0.206324 -0.027709 0.193758 0.028858 -0.666339 0.291983
sent_145 -0.084646 -0.115833 0.734100 -0.108244 0.021020 0.019108 -0.760331 0.160513 0.099728 -0.011823 -0.389047 -0.280207 -0.500266 1.443726 0.698797 0.165766 0.581256 -0.186476 0.470019 -0.163732 -0.048364 -0.503147 0.084303 0.310418 -0.482744 -1.004985 -0.183275 -0.491506 -0.244595 0.523124 -0.763048 -0.262204 -0.566244 0.364697 -0.332332 0.207162 0.463933 0.387373 0.198723 -0.441682 0.069227 -0.350755 -0.375930 0.132434 0.032512 -0.229810 -0.066648 -0.641638 -0.423121 0.261343
sent_146 -0.227991 0.361336 0.671472 -0.378168 0.251575 0.299689 -0.614443 -0.062427 -0.065391 0.225867 -0.538025 -0.290219 -0.198750 1.452825 0.394758 0.100431 0.707525 0.156950 0.121150 -0.098004 -0.053317 -0.371091 0.146972 -0.303738 -0.893808 -0.748259 -0.132689 -0.197963 -0.740124 0.540711 -0.680990 0.259227 -0.431606 0.367896 -0.118918 0.023730 0.799138 0.186546 0.417090 0.021575 0.792666 -0.072162 -0.061001 -0.452478 -0.296412 -0.385860 -0.127429 -0.315083 -0.508660 0.495084
sent_147 -0.471983 0.019528 0.150461 -0.283043 0.364872 0.631566 0.659394 0.459186 1.333676 -0.119303 0.368666 0.050217 -0.130384 -0.594455 0.892348 -0.182701 -0.909299 -0.081016 -0.994464 -0.031732 -0.365927 0.524529 0.058958 0.594954 -0.518209 -0.441882 0.147352 -0.495931 -0.144186 -0.141020 -0.159535 0.535558 1.013803 -1.310241 -0.080026 -0.430820 0.312078 0.010349 -0.382353 0.521815 0.219367 -0.400516 0.383635 0.325731 0.360222 0.125204 -0.367724 0.205859 -0.143329 0.213585
sent_148 0.129797 0.383943 0.007376 -0.437067 -0.008702 0.572246 0.089625 0.175464 0.761045 0.427751 0.246357 0.002492 -0.014859 0.372377 0.436434 -0.563452 -0.179556 0.185225 -0.257233 -0.040741 -0.740202 -0.284192 0.572588 0.093242 0.113360 -0.568962 -0.585335 -0.170824 0.198772 -0.003894 -0.360783 0.230662 -0.046755 0.311716 -0.149259 -1.049241 0.571624 -0.614713 -0.505846 -0.467219 -0.359871 -0.753730 0.930228 0.395181 0.319107 0.259783 -0.198572 -0.039023 -0.360928 -0.436819
sent_149 -0.113035 0.440504 -0.409576 -1.432422 0.401437 -0.021100 0.115358 0.186202 0.027964 -0.170392 1.523436 -1.121727 0.163393 0.293277 -0.042394 0.152216 -0.693810 0.713283 -0.623466 -0.367564 0.240854 -0.207675 0.882012 -0.463688 0.004850 -0.186725 0.149164 -1.094238 -0.513587 -0.486206 -0.496140 0.372307 0.115304 0.709477 -0.163743 -0.300432 -0.216715 -0.195160 -0.868245 0.095543 0.855286 1.029813 0.367947 -1.323717 -0.626875 0.108941 -0.235412 -0.012281 0.287865 -0.149119
sent_150 0.126311 -0.082585 -0.294097 -0.952792 -0.040400 0.429694 0.289115 -0.000673 0.780118 -0.215521 0.812253 -0.226863 0.078847 -0.203925 0.459958 0.248136 -0.031100 -0.374802 -0.338908 0.398679 0.008217 0.551459 0.000188 0.699986 -0.177775 -0.111411 0.025471 -0.382962 -0.125050 -0.377922 -0.007972 0.068170 0.060224 -0.135700 -0.150383 -0.279119 -0.104990 0.379047 -0.473901 -0.150544 -0.594252 -0.019830 0.418094 -0.126549 0.121620 -0.304153 0.043559 0.201213 -0.329145 -0.106461
sent_151 -0.024231 0.143789 -0.996020 -0.853335 0.450956 0.668773 0.232953 0.682358 0.288816 -0.014153 0.842561 -0.459406 0.372002 -0.045752 0.604492 0.071134 -0.972126 -0.548294 -0.892885 0.182008 -0.510831 0.073187 -0.167093 0.318382 -0.387889 -0.047419 -0.898592 -0.261350 0.584858 -0.188547 -0.029747 0.353661 -0.293997 -0.170133 -0.347401 0.095227 -0.065528 0.115193 -0.911110 0.075510 -0.631131 0.147953 0.547601 -0.311721 1.057815 0.668212 0.065683 -0.232659 0.014503 -0.088569
sent_152 -0.096243 -0.299471 0.121103 0.119267 -0.393078 0.309053 0.376521 0.031899 -0.417033 0.289122 -0.736960 -0.507089 -0.338412 -0.004337 0.395817 0.338537 -0.218780 -0.636853 -0.521474 -0.271489 0.124534 -0.730717 0.090435 -0.856379 0.550697 0.585809 -0.544195 0.431284 -0.445717 -0.162515 -0.528220 -1.658001 0.227978 -0.075954 0.207650 0.980881 -0.835295 0.659344 0.017215 -0.337999 -0.117103 0.161515 0.213881 -0.058607 -1.187104 -0.296672 0.671001 0.809260 -0.249403 -1.576209
sent_153 -0.590054 -0.469873 0.733971 0.347326 0.177386 -0.039212 -0.347190 0.165818 -0.026866 -0.080725 -0.345329 0.181982 0.549460 -0.098298 0.158895 0.048375 0.088179 -0.594059 -0.231537 -0.062763 0.525751 0.064517 -0.451857 -0.251652 0.736543 0.321386 -0.097008 0.144163 0.243091 0.090177 -0.135263 -0.767578 0.176591 -0.182886 -0.130524 0.130430 0.160647 0.171368 0.549663 -0.146883 0.529688 0.308846 -0.054309 -0.027035 -0.211334 0.233745 0.557666 0.228334 0.527609 -0.450449
sent_154 0.019743 -0.851281 0.068161 0.664795 0.334159 0.367734 0.180600 0.195352 0.412132 -0.546258 -0.274032 -0.038710 0.366311 0.289502 0.307016 -0.805093 -0.206667 -0.224549 -0.267161 0.065899 0.298672 0.215218 0.324534 -0.095458 0.447794 -0.448704 0.269379 0.007797 0.676241 0.152939 0.309685 0.398186 0.103359 1.124131 1.016356 -0.371829 0.538346 0.370681 -0.071098 0.039067 0.225233 -0.147828 0.029026 -0.156222 0.180503 -0.348658 0.007438 0.201557 -0.012115 -0.675784
sent_155 -0.079626 -0.404426 0.106167 0.011243 0.079928 -0.440329 0.227732 -0.197346 0.210128 0.131005 -0.128508 -0.147591 0.670237 -0.581493 0.362550 -0.026826 0.001942 -0.561597 -0.651547 0.283343 0.222028 -0.046392 -0.213722 -0.244329 0.215030 0.681245 0.010014 -0.023108 0.031652 0.413327 0.002188 -0.447273 -0.457536 -0.537147 -0.108568 0.525111 0.047382 0.121087 0.270493 -0.193575 -0.003878 0.108272 -0.091775 -0.144545 -0.397980 -0.241144 0.443847 0.704380 0.407884 -0.291510
sent_156 -0.280238 -0.412573 -0.133479 0.035386 0.133023 -0.615367 0.283679 0.456725 -0.349830 0.278142 -0.138854 -0.834245 0.324325 -0.688055 0.965403 0.403186 -0.065249 -0.142980 -0.817847 0.034835 -0.384868 -0.045350 -0.384474 0.205107 1.109590 -0.367728 -0.222313 0.693826 0.035684 -0.301948 0.473895 -0.013993 0.341370 0.434190 0.079016 -0.400264 -0.327783 -0.366525 0.788899 0.460958 0.174925 0.523946 0.021357 -0.034275 -0.030694 -0.796341 -0.068704 0.543750 0.583226 -0.288720
sent_157 -0.286991 -0.071452 0.379253 0.098350 0.153918 -0.077171 -0.124492 -0.067018 -0.028307 0.094967 -0.172515 0.137325 0.763812 -0.362206 0.126138 0.016664 0.127504 -0.937169 -0.305944 0.323970 0.499137 0.050760 -0.386935 0.021058 0.174061 0.367846 -0.055658 0.233519 -0.061580 0.158736 -0.082593 -0.618775 0.086234 -0.577720 -0.370865 0.289167 0.326509 0.024960 0.281075 -0.088601 0.076060 0.424661 -0.184622 -0.126718 -0.376109 -0.111628 0.455006 0.445463 0.417751 0.084518
sent_158 -0.496100 -0.316213 0.386063 0.133972 0.047081 -0.328301 -0.119467 -0.392109 0.157695 -0.179904 -0.391069 -0.090692 0.578660 0.086523 0.080923 -0.054880 -0.124569 -0.832199 -0.247836 0.292365 0.781633 0.000214 -0.220887 0.178619 0.315551 0.509460 -0.289938 -0.099267 0.004636 0.367712 0.009282 -0.650034 -0.258533 -0.473950 -0.383249 0.393694 0.202630 0.148293 0.250729 -0.349522 0.094300 0.465613 -0.442008 -0.073918 -0.125261 -0.252534 0.525178 0.035398 0.363845 -0.066111
sent_159 -0.490816 -0.071447 0.366311 0.412621 0.254764 0.210008 -0.380828 -0.562543 0.055682 -0.764067 0.045271 0.278075 0.184760 0.975123 -0.502724 -0.493420 0.108760 0.478018 0.476709 0.189990 0.123899 -0.447628 -0.235120 -0.211430 0.251107 0.063644 -0.458598 -0.290483 0.285533 0.300187 0.553524 0.030307 -0.307575 -0.084214 1.028699 -0.737480 0.490684 -0.424257 0.139959 -0.624892 -0.077359 -0.021791 0.079758 -0.012204 0.422764 0.853806 -0.358966 -0.353766 -0.805975 -0.065961
sent_160 -0.225888 0.170459 0.637157 0.141727 -0.093904 0.197916 -0.777114 -0.325118 0.331698 -0.643061 0.107342 0.283137 -0.212361 0.736880 -0.800838 -0.052323 0.268356 0.715851 0.156008 -0.094389 0.376486 0.060904 -0.606413 0.490273 0.033145 0.242897 -0.577013 -0.339190 -0.136136 0.205371 0.528814 -0.609590 -0.184633 -0.008717 0.328581 -0.172804 0.299936 -0.347294 0.159200 -0.878674 -0.153139 0.192757 0.132590 0.289761 0.597090 0.658942 0.302120 0.210944 -0.470128 0.694495
sent_161 -0.422567 0.121107 0.328836 0.294044 -0.108632 -0.193779 -0.420206 -0.377732 0.214730 -0.897370 0.895837 0.402414 0.017815 0.672296 -0.119224 -0.220070 0.053925 0.506209 0.366316 -0.258767 0.605941 -0.411801 -0.235218 0.091923 0.033914 0.120632 -0.015574 -0.619675 0.218000 0.351560 0.450508 -0.739221 -0.759590 -0.130501 0.607393 0.031231 -0.043401 -0.737916 -0.005947 -1.218705 -0.433248 0.104600 -0.247541 0.467947 0.727584 0.214793 -0.002405 -0.687583 -0.071116 0.481417
sent_162 -0.549094 0.198625 0.801674 0.606386 -0.209462 -0.560076 -0.477566 0.204160 0.024027 -1.086059 0.780925 -0.014799 -0.147940 0.069750 -0.576395 -0.338249 0.233285 0.587168 0.316673 -0.167906 0.416314 -0.133261 -0.411431 -0.064285 -0.157064 0.155040 -0.651011 -0.285696 0.201489 0.406681 0.919857 -0.319899 -0.356820 -0.404852 0.593492 -0.234614 0.391518 -0.271066 0.273805 -0.818673 -0.055149 0.393537 0.512140 0.583188 0.681843 1.021096 -0.187144 0.002783 -0.377158 -0.001846
sent_163 -0.473099 0.095816 0.266380 0.147928 0.012938 -0.198982 -0.400495 -0.659031 0.023910 -0.974403 0.786127 0.322507 -0.153191 0.604553 -0.250743 -0.546164 -0.060154 0.374531 0.372079 -0.354184 0.678390 -0.291802 -0.434054 0.152270 0.223502 0.090986 -0.349585 -0.648248 0.186340 0.329571 0.323343 -0.604320 -0.749459 -0.113174 0.505750 -0.065574 -0.067831 -0.769306 -0.119986 -1.017490 -0.253314 0.096600 -0.183214 0.523520 0.652563 0.399693 -0.052407 -0.362693 -0.160950 0.539461
sent_164 -0.714025 0.163028 0.600290 0.486334 -0.355375 -0.041335 -0.689988 -0.578347 -0.218807 -0.807986 0.468837 0.132159 -0.227625 0.608640 -0.968329 -0.049592 0.320706 0.717420 -0.107536 -0.364817 0.223757 -0.025735 -0.138266 0.405706 -0.214882 0.339012 -0.226247 -0.296334 0.173078 0.341471 0.752575 -0.596185 -0.024962 -0.117690 0.423338 -0.408413 0.258808 -0.472539 0.161020 -0.601051 -0.352546 0.436101 -0.124501 0.534824 0.634926 0.821109 0.484595 0.111025 -0.209835 0.591244
sent_165 0.499408 -0.412907 0.719182 0.510306 -0.146695 -0.916716 -0.034936 0.098980 -0.192134 0.550633 0.264137 -0.226035 0.540399 -1.204291 0.115765 0.373332 -0.322193 -0.162601 -0.482359 0.265906 -0.765599 -0.571123 -0.455661 1.050379 -0.044349 -0.667525 -0.508059 -0.091300 0.088824 -0.523891 0.296990 0.460649 0.123346 0.179842 0.507408 -0.389078 -0.551473 0.222235 0.618392 0.291560 -0.041589 0.417873 -0.595362 0.152418 -0.499757 -0.600448 -0.258998 0.637046 0.305198 -0.437461
sent_166 0.572061 -0.547651 0.466290 0.565513 -0.279770 -0.797918 -0.067662 0.647618 -0.552280 1.390610 0.234399 -0.251114 0.076183 -1.492919 0.401331 0.442707 -0.066535 -0.184217 -1.011950 -0.057419 -0.708074 -0.796466 -0.110179 1.046010 0.115631 -0.542867 -1.072110 -0.352443 0.471053 -0.151344 -0.111169 0.009965 -0.089583 0.268393 0.697286 -0.293712 -0.518289 0.390317 0.574234 0.112055 0.068015 0.738541 0.122320 0.243592 -1.062610 -0.915427 -0.281296 0.809753 0.586752 -0.577797
sent_167 0.299134 -0.310090 0.688654 0.320317 -0.588840 -1.190703 -0.008677 0.447648 -0.150721 0.699903 0.627007 -0.418999 0.365884 -1.199742 0.451587 0.082670 -0.086395 -0.473835 -0.788344 -0.113897 -0.831186 -0.657493 -0.018963 0.862818 0.237748 -0.567346 -0.513310 -0.377283 0.491360 -0.145764 0.116909 0.235503 -0.220903 0.316996 0.481964 0.222821 -0.533074 0.405216 0.264784 -0.164991 0.207410 0.747462 -0.465115 -0.248933 -0.751067 -0.620702 -0.332392 0.984061 0.223932 -0.573101
sent_168 0.648026 -0.531010 0.498219 0.586022 -0.288783 -0.646045 -0.164149 0.788935 -0.503613 1.202870 0.354058 -0.383737 -0.009381 -1.599294 0.541766 0.353421 -0.039655 -0.098691 -0.986027 -0.188728 -0.580541 -0.833076 -0.009524 0.989171 0.240530 -0.500875 -1.133475 -0.227415 0.460944 -0.087348 -0.037306 -0.082756 -0.138217 0.358811 0.645203 -0.259553 -0.430790 0.284145 0.534626 0.080176 0.189061 0.757936 0.061540 0.228599 -1.116510 -0.874040 -0.448854 0.748528 0.686324 -0.741922
sent_169 0.789407 -0.478594 0.718076 0.195766 -0.648697 -1.116898 0.131768 0.863014 -0.344222 1.135118 0.599559 -0.174963 0.203417 -1.164841 0.154874 0.215271 0.186337 -0.089934 -0.859381 0.301736 -0.688016 -1.097088 0.104168 0.530631 0.607543 -0.479335 -0.932751 -0.453780 0.249229 -0.206714 -0.193264 0.303923 -0.281874 0.055218 0.664407 -0.348560 -0.461795 0.385740 0.498376 0.078739 0.186345 0.580932 -0.000715 0.310460 -0.652630 -0.353003 -0.409761 0.877368 0.671131 -0.310907
sent_170 0.549523 -0.391264 0.596951 0.111911 -0.310957 -1.130776 0.005542 0.208407 -0.187183 0.512513 0.298036 -0.190122 0.152541 -0.858865 0.650130 0.310461 -0.195482 -0.029402 -0.724059 -0.190477 -1.037705 -0.918482 -0.322255 0.767916 0.386266 -0.551997 -0.567695 -0.277004 0.372033 -0.109144 0.097424 0.422548 -0.206219 0.154337 0.507970 -0.046602 -0.580076 0.389671 0.262888 -0.163528 -0.081445 0.475757 -0.722372 -0.165691 -0.418986 -0.700609 -0.256689 0.519733 0.226657 -0.474326
sent_171 0.491129 0.092449 0.919915 0.373980 -0.277629 -1.034811 -0.217775 0.582264 -0.090932 0.586784 0.550454 -0.374959 0.437996 -0.845377 0.499713 0.229237 -0.166905 -0.309200 -0.838065 0.115480 -1.048342 -0.737902 -0.350952 0.700341 0.370883 -0.734722 -0.544955 -0.087985 0.266444 -0.085179 -0.294184 0.371847 -0.222529 0.253412 0.853782 -0.183171 -0.540003 0.542769 0.610505 0.191831 0.155839 0.622171 -0.669454 -0.360717 -0.338945 -0.523207 -0.275633 0.863878 0.083349 -0.235226
sent_172 0.564518 -0.432810 0.759961 0.351943 -0.226545 -0.969151 0.020437 0.209553 -0.089796 0.829953 0.260352 -0.151552 0.501926 -1.189604 0.112782 0.535145 -0.323377 -0.329703 -0.538967 0.222994 -0.759824 -0.589401 -0.509808 1.088740 -0.071717 -0.539085 -0.660420 -0.091010 0.279112 -0.508118 0.152669 0.420239 0.042180 0.198772 0.520638 -0.382917 -0.571171 0.360494 0.646123 0.092054 -0.099722 0.577648 -0.546294 0.187735 -0.552386 -0.628591 -0.134981 0.702228 0.400995 -0.479071
sent_173 0.601381 -0.039575 0.649580 0.196545 -0.861764 -1.348935 -0.171652 0.629539 0.184520 0.888551 0.683486 -0.559373 0.826502 -1.023348 0.524137 0.332766 -0.475362 -0.263587 -1.239866 0.133420 -1.026269 -0.712819 -0.160818 0.800609 0.210015 -0.810322 -0.499813 -0.007198 0.317741 0.185566 -0.167769 0.661233 -0.158106 0.032920 0.905148 -0.320116 -0.552821 0.526586 0.130742 -0.047519 0.167532 0.799853 -0.685072 -0.083779 -0.741080 -0.762228 -0.715128 0.838360 0.117665 -0.633610
sent_174 0.695482 -0.525694 0.572253 0.561126 -0.501767 -1.382716 0.011385 0.854858 0.131178 0.878792 0.941226 -0.181315 0.176949 -0.774190 0.399373 0.271079 -0.285840 -0.349868 -0.587414 -0.131235 -1.006994 -0.586056 -0.405253 0.696727 0.135974 -0.796371 -0.837091 -0.331190 0.535559 0.139738 0.159993 0.438878 0.188970 0.060163 0.733359 -0.336465 -0.768396 0.439253 0.379106 -0.195377 0.068147 1.011621 -0.661693 -0.310781 -0.178547 -0.427129 -0.581230 0.684368 0.712597 -0.121538
sent_175 -0.665432 0.337013 0.492267 -0.009382 -0.063089 -0.230065 -0.902529 -0.442078 -0.756157 -0.473556 1.097849 0.050159 -0.406671 0.837608 -0.733076 -0.022054 0.597050 0.474674 0.038889 -0.517137 -0.157330 0.323353 0.267878 0.455013 -0.048889 0.249844 -0.295353 -0.025711 0.394052 0.089560 0.936618 -0.526726 0.316124 -0.027897 0.343147 -0.057142 0.611335 -0.108594 -0.005876 -0.721562 0.388167 0.151795 -0.553402 -0.315411 0.663751 0.592797 0.904207 -0.071818 -0.701713 0.273286
sent_176 -1.093261 0.420017 0.198601 0.321743 -0.033510 -0.081976 -0.893025 -0.278238 -0.083504 -0.493671 0.537320 0.570025 -0.623071 0.344989 -0.536079 0.061908 0.296530 0.550754 0.560317 -0.764642 0.092504 0.119428 -0.357519 -0.147270 0.193926 0.560907 -0.457602 0.153607 0.930103 0.153374 0.689866 -0.089774 0.005877 -0.220492 0.862470 0.136347 0.196856 -0.328255 0.309825 -1.126271 0.105224 0.106678 -0.231860 0.157723 0.283105 0.666587 0.582949 0.227755 -0.538920 -0.189226
sent_177 -1.035151 0.346231 0.249452 0.380901 -0.101538 -0.255378 -0.905781 -0.043466 -0.729816 -0.575543 0.289138 0.477240 -0.936025 0.635773 -0.479278 -0.522613 0.181233 0.871082 0.025772 -0.401888 0.054742 0.065822 0.031717 0.478551 -0.136363 0.306319 -0.009086 -0.141216 0.471687 0.106421 0.157208 -0.768006 -0.091672 -0.134562 0.506367 -0.340242 0.496199 -0.460541 0.021454 -0.543590 0.434357 0.299734 -0.185101 -0.472870 0.384214 0.633424 0.098163 0.146888 -0.498788 -0.070022
sent_178 -0.974296 0.221236 0.230128 0.455568 -0.105887 -0.205840 -0.992319 0.071233 -0.498361 -0.387995 0.195498 0.532023 -0.916223 0.653060 -0.491954 -0.552921 0.246515 0.910142 0.128221 -0.467858 -0.047778 -0.014803 0.181591 0.495809 -0.317941 0.127198 -0.052832 -0.081032 0.267275 0.187075 0.324493 -0.795174 0.085491 -0.004021 0.489644 -0.218576 0.460632 -0.354572 0.149392 -0.652418 0.284271 0.312411 -0.236318 -0.459292 0.338348 0.412618 -0.036109 -0.021541 -0.414388 0.077280
sent_179 -0.759172 0.473184 0.129464 0.526560 -0.334636 -0.007465 -0.665015 -0.190036 -0.362638 -0.387016 0.624901 0.296036 -0.437460 0.687685 -0.456933 0.036817 0.233171 0.662166 -0.132459 -0.672538 0.301911 0.081703 -0.133192 0.182711 0.014018 0.078146 -0.343036 -0.331109 0.447140 -0.131595 0.963350 -0.282223 0.089336 -0.188091 0.600942 0.156880 0.170105 -0.469983 -0.087656 -0.816097 0.199621 0.059755 0.012779 -0.080783 0.485050 0.459479 0.551343 0.139581 -0.680802 -0.174378
sent_180 -0.540753 0.570180 0.582525 0.508894 -1.022889 0.237893 -0.758067 -0.212885 -0.305703 -0.390787 0.252643 0.168168 0.003346 0.802051 -0.546385 0.093772 0.097045 0.425315 -0.600194 -0.603898 -0.675891 -0.308898 -0.174861 -0.009343 0.230887 0.359641 -0.044239 0.125860 0.451897 0.126194 0.982166 0.264875 -0.094911 -0.455933 0.924466 0.578675 0.167210 -0.267258 0.021166 -0.306648 0.604149 -0.209972 -0.016283 -0.323199 0.461925 0.827115 0.579344 0.535767 -1.060143 -0.794814
sent_181 0.682799 -0.087775 -0.119496 0.429444 -0.091828 0.696109 0.392140 -0.574214 -0.535695 0.146826 0.232012 0.463622 0.115915 0.097890 0.142584 -0.475775 -0.178259 -0.210602 -0.364453 0.092920 -0.815510 -0.503508 -0.435162 -0.094432 -1.077564 -0.136800 0.180105 0.316287 -1.046203 -0.358720 -0.681927 -0.179206 0.362798 -0.031479 0.456345 -0.734235 -0.386974 -0.232114 0.541060 0.446448 0.499819 0.150550 0.111385 -0.122708 0.097036 -0.637606 0.222272 0.198050 -0.599581 -0.549482
sent_182 0.704605 0.016300 -0.253866 0.259682 0.505945 0.274694 0.380927 -0.433579 -0.897634 0.259196 0.685851 0.387172 0.298581 0.052937 0.537280 -0.075394 -0.387433 -0.049597 0.114448 0.846337 -0.115267 -0.792011 -0.570473 0.660701 -0.053286 0.223681 -0.129594 0.332905 -0.538151 -0.346137 -0.556682 -0.283102 0.465814 -0.417326 -0.000813 -0.398870 -0.287579 -0.459436 0.865238 0.178399 0.121216 -0.051664 -0.064379 0.199872 0.295010 -0.793404 -0.509053 -0.240445 0.040118 0.182079
sent_183 0.421420 -0.227500 -0.552263 0.064245 0.261338 0.322443 0.310246 -0.496999 -0.931713 0.046591 0.788930 -0.079503 0.246957 0.371468 0.300696 -0.523400 0.107816 -0.120866 -0.018165 0.338314 -0.254940 -0.432539 -0.187091 0.334456 -0.250299 0.227591 -0.236280 0.406106 -0.355650 -0.617277 -0.429479 -0.853012 0.781569 -0.449490 0.387054 -0.325237 -0.189666 -0.574298 0.421109 0.135280 0.145739 0.298644 0.040580 0.133214 0.318265 -0.674139 -0.059451 -0.192854 -0.038097 -0.099054
sent_184 0.426347 -0.564147 -0.570386 0.009834 -0.182258 -0.053371 0.249636 -0.537302 -1.129380 0.444298 0.192591 0.527765 -0.035395 0.535194 0.083092 -0.556780 0.772537 -0.025416 0.084085 0.233081 -0.468784 -0.202712 0.003607 -0.075606 0.560628 -0.041133 -0.342328 0.242456 -0.762259 -0.321557 -0.211042 -0.644461 0.332005 -1.098895 0.898015 -1.041041 0.288244 -0.560370 0.655479 0.542749 0.125556 -0.300595 0.646175 0.258153 -0.200354 -0.538668 -0.569643 -0.511863 -0.340073 -0.622395
sent_185 0.362757 0.358013 -0.782465 0.121095 0.212271 0.018149 0.226496 -0.351840 -0.813204 0.213237 0.279655 -0.032963 0.539017 0.350754 0.407126 -0.606432 -0.152780 -0.175782 -0.062231 0.241149 -0.085757 -0.478018 -0.414459 0.576400 0.107631 0.190225 -0.222678 0.269813 -0.531323 -0.480931 -0.470575 -0.480936 0.784065 -0.334765 0.117475 -0.093389 -0.130298 -0.464679 0.745338 0.198514 -0.002345 -0.188370 0.237477 -0.141819 0.004813 -0.810869 -0.674747 -0.188761 0.117460 0.161701
sent_186 0.569636 -0.546072 -0.436763 -0.005401 -0.063764 0.186025 0.262120 -0.577653 -1.020479 0.323655 0.424990 0.348402 -0.244055 0.504748 0.009305 -0.595131 0.749410 -0.243071 0.057679 0.129120 -0.501245 -0.150754 0.047076 -0.102347 0.610313 -0.150545 -0.182049 0.359195 -0.529024 -0.377210 -0.140308 -0.623434 0.522265 -1.248846 0.580670 -0.979391 0.256748 -0.418750 0.637937 0.344877 0.050940 -0.241069 0.487727 0.137355 -0.127086 -0.486203 -0.610981 -0.599506 -0.381248 -0.650056
sent_187 0.331849 -0.076309 -0.302242 0.256738 -0.139276 0.279961 0.232179 -0.156811 -0.340848 0.087869 0.529130 0.301866 -0.129540 0.313076 0.133150 -0.368838 0.182555 0.049059 0.062062 -0.145821 -0.368357 -0.280471 0.144478 0.797726 -0.456654 0.009476 -0.112154 -0.149102 -0.547809 -0.291811 -0.183277 -0.491242 0.025227 -0.368645 0.258788 -0.674373 -0.093840 -0.184867 0.605824 -0.010001 0.015128 -0.173762 0.001319 -0.331261 0.267175 -0.692035 -0.190777 -0.259848 0.223169 0.147661
sent_188 -0.051545 -0.091654 -0.528347 -0.009519 0.329839 -0.106681 -0.376079 0.561021 -0.872099 0.168531 0.123732 0.161824 0.271096 -0.488771 0.066365 -0.231567 -0.755616 0.203831 -0.390939 0.567234 0.580258 0.320055 -0.135232 0.275834 0.101131 -0.565101 0.559341 -0.545742 -0.485289 -0.199462 1.057157 0.530981 -0.041817 0.141253 -0.014491 -0.348604 -0.565399 0.160354 0.995830 0.034168 -0.851397 0.317679 -0.275025 0.267430 -0.113113 -0.904710 -0.199093 -0.317291 -0.613513 -0.782827
sent_189 -0.392752 0.067148 -0.833307 -0.875485 0.301631 -0.036923 -0.187062 0.201142 -0.648589 -0.312446 -0.843839 -0.235031 0.361382 -0.013883 0.185307 -0.053629 -0.773881 1.035187 -0.640577 0.416547 0.378649 0.507055 0.077293 -0.674974 -0.368863 -0.119732 1.143639 -0.268989 0.186244 0.459853 1.065975 0.257107 -0.582240 0.550415 0.409783 -1.172049 -0.817215 -0.941776 0.688241 0.342268 -0.645782 0.020701 -0.138298 0.212388 -0.360273 -1.062802 0.073938 0.085068 -0.907924 -0.215126
sent_190 -0.220314 0.384492 -0.701232 -0.348904 0.178870 0.114846 0.009644 0.316631 -0.560317 0.716340 0.320393 -0.170606 0.183086 0.120920 0.029798 -0.135277 -0.451243 -0.099191 -0.141183 0.621620 0.300949 0.516118 -0.357159 -0.181444 -0.214372 -0.271719 0.273328 -0.675243 0.124187 0.188333 0.732836 0.135394 0.263362 -0.242978 0.301404 -0.069682 -0.454383 -0.244449 0.720530 -0.534601 -0.657120 -0.296148 -0.265462 -0.341215 0.050372 -0.827041 0.076097 -0.555541 -0.570270 -0.567284
sent_191 0.006325 0.350248 -0.783249 -0.911612 0.375064 0.379868 -0.407867 0.325571 -0.367090 0.339828 0.289227 -0.101244 0.238415 -0.326621 0.147804 -0.339363 -0.491038 0.197696 -0.169184 0.430901 0.560906 0.811200 -0.194262 -0.383280 -0.219562 -0.174750 0.340080 -0.744686 -0.174730 -0.400420 0.601227 0.244030 0.022512 -0.100228 -0.062422 -0.074871 -0.419999 0.009677 0.659069 -0.270757 -0.837084 -0.040964 0.072617 -0.936957 -0.378448 -0.558032 -0.369445 -0.565379 -0.564227 -0.483470
sent_192 -0.619428 0.408920 -0.650896 0.086258 0.309097 0.722117 -0.070271 -0.083103 -0.728198 0.278279 0.277935 -0.225236 0.129341 -0.387577 0.035797 -0.740144 -0.401403 -0.209625 -0.341499 0.507997 0.159041 0.772159 -0.058082 -0.145759 0.147375 -0.235215 0.210575 -0.272922 -0.236310 0.244413 0.776762 0.949946 -0.005598 -0.021120 -0.087698 0.065683 -0.406930 -0.010743 0.914739 -0.329920 -1.055843 -0.219461 -0.507425 -0.190523 0.191006 -0.918029 0.006482 0.006590 -0.539362 -0.513529
sent_193 -0.001903 0.362519 -0.650561 -0.586126 0.405294 -0.082861 -0.461735 0.593428 -0.718815 0.054156 0.753677 0.363687 0.264060 -0.491629 0.565756 0.104322 -0.625219 0.141155 -0.603041 0.830816 0.613436 0.513247 -0.139637 -0.307346 0.114132 -0.009886 0.699283 -0.650236 0.123168 -0.158258 0.366708 0.084636 -0.237076 -0.200725 -0.178614 -0.088363 -0.715484 -0.030294 0.782226 -0.858053 -1.195798 -0.197644 -0.047282 -0.498844 -0.231454 -0.814183 -0.442552 -0.642892 -0.543221 -0.335683
sent_194 -0.467938 0.277088 -0.359664 -0.269687 0.549754 0.248419 -0.222508 0.405345 0.529641 0.031574 -0.335656 -0.349634 0.808206 0.038715 0.177873 -0.867568 -0.410429 -0.205224 -0.419077 0.760686 -0.127150 -0.204313 0.281340 -0.096346 -0.050493 -0.702812 0.028361 -0.827257 0.274511 -0.005935 0.484745 0.747084 -0.047753 -0.570431 0.273030 -0.199192 0.015584 -0.406889 0.582582 -0.642340 -0.343277 -0.257537 -0.351489 -0.222136 -0.114135 -0.841240 -0.164190 -0.895414 -0.887994 -0.525607
sent_195 -0.951513 0.297780 -0.665755 0.092286 1.243235 0.148606 -0.008901 0.854247 -1.506761 0.416078 -0.421758 0.025473 0.572299 -0.566662 -0.129098 -0.808612 -0.294579 0.607153 -0.707691 0.251087 1.155237 0.896617 0.092198 0.331020 0.569989 0.365240 0.585837 -0.815956 -0.107817 -0.277407 0.989126 0.952988 0.257704 -0.254438 -0.204374 0.019198 -0.421966 -0.483622 0.778127 -0.170722 -0.925337 0.392650 -0.694902 0.273147 -0.067691 -0.976743 -0.203344 0.066882 -0.403269 -0.468033
sent_196 1.402248 0.171387 -0.257549 0.388091 -0.722025 -0.385036 -0.615638 0.649149 -0.190845 0.931136 0.706725 -0.967898 0.746928 0.942134 -1.097787 -0.101926 0.063495 0.161555 0.526809 0.199280 0.375868 -1.253603 -0.779135 -0.338665 0.909647 -0.204494 0.919744 1.400646 0.512936 -0.034266 -0.000901 -0.110369 1.359189 -0.330016 -0.213052 1.463564 -0.091077 -0.299303 0.033389 -0.294047 -0.793073 0.475027 -0.005942 -0.565066 -0.950644 0.308718 -0.132943 -0.473738 0.311968 0.647271
sent_197 -0.599554 -0.086399 0.953449 0.304276 -0.228806 -0.702135 -0.792465 0.344847 -0.439617 0.221468 0.678710 -0.195453 -0.576336 0.810720 -0.287151 -0.411986 1.101392 0.438659 0.333276 -0.141181 -0.205772 -0.411964 0.029464 0.020682 -0.244205 -0.423506 0.608369 0.322759 -0.261144 0.546004 0.233252 -0.484484 0.477613 -0.076157 -0.026995 -0.547958 -0.062025 0.276623 0.216889 -0.254059 0.097373 0.947605 0.079794 -0.324316 0.261985 0.189695 0.227783 0.123452 -0.209324 -0.063551
sent_198 0.346663 -0.386928 -0.247854 0.680204 0.155661 -0.095387 0.234668 0.311562 0.174102 0.738735 0.697203 0.011033 0.490047 0.959100 -0.496695 -0.628101 0.125667 -0.608748 0.544310 0.341039 -0.053065 -0.325099 0.172221 0.065723 0.069586 -0.189916 -0.313025 0.622127 0.273947 -0.015077 0.061201 -0.177975 0.479341 -0.264378 -0.082855 0.366186 -0.188050 -0.370476 -0.264695 -0.427854 -0.179434 0.090897 0.235909 -0.415819 -0.211702 0.199258 0.389089 -0.753078 0.024971 -0.175093
sent_199 0.493347 -0.321333 -0.371711 0.257757 -0.031307 -0.173581 0.247160 0.101895 -0.265911 0.586707 0.426585 -0.177475 0.275674 0.813059 -0.482610 -0.312702 0.587035 -0.295270 0.147323 0.162635 0.051919 -0.306892 -0.289816 0.290087 -0.001923 -0.027386 0.209758 1.028499 0.177147 -0.623967 -0.529385 -0.567011 0.767349 -0.384097 -0.453514 0.296107 -0.095181 -0.356809 -0.098975 -0.454468 -0.443362 -0.169826 0.367010 -0.255211 -0.707272 0.220790 0.659864 -0.103472 0.030940 -0.379807
sent_200 0.503042 -0.373353 -0.438050 0.526881 0.155584 -0.135649 -0.087105 -0.065086 0.162151 0.564615 0.396887 0.201985 0.348809 0.965511 -0.527837 -0.070411 0.318485 -0.176626 0.373213 0.245914 -0.135572 -0.394737 -0.131666 0.231191 -0.214407 0.055805 -0.072253 1.026442 0.184187 -0.410482 -0.337147 -0.050454 0.842167 -0.355363 -0.211482 0.191425 -0.248156 -0.390488 -0.232947 -0.427641 -0.575128 0.093620 -0.049219 -0.321929 -0.195735 -0.057551 0.475931 -0.362315 -0.363761 -0.215945
sent_201 -0.242635 -0.599154 0.332751 0.775184 -0.402258 -0.342427 -0.887095 0.297476 -0.390292 0.069289 0.660964 0.047916 0.051754 0.862615 -1.143838 0.018811 0.371860 0.441110 -0.003857 0.173706 -0.433542 -0.311192 0.002708 0.705653 0.019437 0.096404 0.317627 0.564617 0.181851 -0.141152 0.102468 -0.884864 0.498084 -0.134436 -0.058720 -0.068918 0.120000 -0.149890 0.017482 -0.290216 -0.376278 0.413525 -0.170509 0.145223 0.231810 0.446262 0.989894 -0.481483 -0.245870 -0.108425
sent_202 -0.044883 -0.377860 -0.808745 -0.398858 0.443914 0.096227 0.496696 0.331660 0.063747 0.571503 0.357745 -0.488574 -0.359584 -1.010387 0.053407 -0.074944 0.691957 0.135998 -0.389629 -0.282063 -0.009985 0.383840 -0.108344 -0.521227 -0.265564 0.463917 1.080353 0.123657 0.068276 -0.136723 0.437170 0.638692 -0.707306 0.595511 -0.825681 -0.797299 0.159226 0.726618 0.400112 0.650870 -0.526400 1.029438 -0.675587 0.564727 -0.319700 -0.341472 0.429033 -0.287842 -0.082859 -0.340581
sent_203 -0.219745 -0.108605 -0.739772 0.001890 0.398199 0.086575 0.166578 0.188590 -0.316159 0.420841 0.198276 -0.234932 -0.034484 -0.588647 0.443738 -0.202011 1.059534 -0.362969 -0.140466 -0.065363 0.585396 0.684205 -0.029367 -0.081947 0.115546 0.382475 0.665795 -0.410691 0.057324 0.319458 0.531824 0.516991 -0.766641 0.618806 -0.458658 -0.700348 0.233423 -0.097565 0.317170 -0.225230 -0.775042 0.981911 -0.274957 0.207321 0.033937 -0.574332 -0.061920 -0.598808 -0.216681 -0.201557
sent_204 -0.129251 -0.321692 -0.745108 -0.760609 0.432691 0.060711 -0.009047 -0.075834 -0.406918 -0.279534 -1.215939 -0.495845 0.622818 -0.165959 0.596753 -0.347528 -0.356511 0.741555 -0.195640 0.164761 0.090012 0.245176 0.083755 -0.883466 -0.488216 -0.092951 1.085728 0.232110 0.144034 0.367831 0.988491 -0.138985 -1.137823 1.060410 0.523523 -1.431238 -0.218974 -0.785644 0.142575 0.609858 0.087128 0.394961 0.196277 0.855523 -0.480744 -0.694437 -0.013076 -0.010753 -0.543050 0.518400
sent_205 -0.559749 -0.220291 -0.774913 0.100888 0.450417 0.446485 0.232018 -0.126355 -0.503778 0.458505 0.179106 -0.039028 -0.153425 -0.639025 0.578187 -0.633830 0.651557 -0.412540 -0.058317 -0.003296 0.117329 0.548176 -0.047211 -0.509244 -0.036196 0.135620 0.389508 -0.134339 -0.267778 0.593218 0.459816 1.206466 -0.329959 0.641226 -0.214186 -0.767191 0.136027 0.326116 0.150788 0.070077 -0.706011 0.494068 -0.709318 0.490312 0.011437 -0.257058 0.007911 -0.132824 0.239356 -0.281711
